326 128
301 0.108927056 -0.14969036 0.1789901 0.0838021 0.07841677 -0.0082368255 0.25568706 -0.10342169 0.050860632 -0.0758233 0.09099378 -0.14030431 -0.27449673 0.042669117 0.093424186 -0.0016540136 -0.18930386 -0.073303506 -0.23621172 0.18366326 0.27984002 0.1081863 0.06621867 0.091361225 -0.19448279 0.1481811 0.04807563 0.05180548 0.12000924 -0.12352169 0.05949728 0.055211116 -0.18346031 -0.12800127 -0.12223835 -0.16942123 0.23809698 0.03580414 0.16295822 -0.12827094 -0.18105564 0.03046747 -0.07191117 0.23114257 -0.05264715 0.14673539 0.10407983 0.0789859 0.0982232 0.12086598 -0.06855557 0.36453685 0.29495504 0.09671758 -0.12649402 0.109317206 0.064764105 -0.26702407 -0.18828005 0.066921435 0.06254515 -0.14023408 0.14548112 0.1533944 -0.009013107 0.05058922 -0.06656868 0.10310404 0.24689357 -0.1474961 0.159801 0.1638682 -0.14876701 0.038975768 -0.12154982 -0.3712153 -0.01953732 -0.16129075 0.07962025 0.22354163 0.12546144 -0.05090311 0.14520836 0.25566453 0.12086892 0.13899453 0.1946649 0.07875084 0.109574184 -0.1188385 0.13637994 -0.37815505 0.0016249391 -0.21351518 0.3072703 0.110568404 0.04719285 -0.028546099 -0.08226451 0.07966282 -0.23627032 0.03922499 -0.03521665 -0.09599327 -0.06721381 -0.230225 -0.14874208 -0.07385939 -0.13941278 -0.34762022 0.30320174 -0.05948656 0.05976555 0.13153192 0.11621844 -0.019108031 0.06287209 -0.100340575 -0.001325019 -0.16111322 0.40538207 -0.08849957 -0.014125171 0.13764738 -0.25894484 -0.2797227 -0.15558581 0.04116031
4496 0.26059014 -0.17233945 0.347925 0.104046255 0.15327877 -0.061361596 0.10848871 -0.06797999 0.018742414 -0.05585266 0.06379614 -0.0891038 -0.17808059 -0.092285514 0.11289136 -0.18268149 -0.21600394 -0.04512712 -0.16071072 0.06286133 0.21584788 0.22845715 0.112811446 0.042691544 -0.120615944 0.056907352 0.15319026 0.085763946 0.0717942 -0.20545638 0.10962106 0.1958663 -0.08389913 -0.006714914 -0.13667592 -0.32393664 0.21674226 -0.092455186 0.14185521 -0.0038316092 -0.035879575 0.017503131 -0.21409734 0.19098638 -0.08338703 0.13005783 -0.13423388 0.061619222 -0.0058300067 0.11283204 -0.12744527 0.26672646 0.21804444 0.2000284 -0.25478056 0.16238154 0.031366847 -0.15150386 -0.14566015 0.004910256 -0.0064876466 -0.11101989 0.27212465 0.12551637 -0.112632155 -0.102631405 -0.030281175 0.095907174 0.089634135 0.007714924 -0.021391543 0.26658434 -0.06764937 0.039961375 -0.067379236 -0.40165 -0.12204674 -0.00040776742 -0.1202874 0.3040708 0.116437234 -0.016462574 0.14115195 0.314903 0.094078735 0.101028614 0.272326 -0.04327033 0.14797911 0.039464727 0.12799254 -0.31821942 -0.10399353 -0.14889017 0.20194325 0.07481684 -0.14217761 -0.10527279 0.016104143 0.2225343 -0.19769739 0.124605596 -0.10195276 -0.2318607 -0.07605838 -0.2508611 -0.19932404 -0.059919734 -0.12001992 -0.18251812 0.25434256 -0.015087211 0.100405544 0.010764414 0.110064976 0.07714768 0.1590989 -0.017275792 0.0618974 -0.14330181 0.38106284 0.035817128 0.027553258 0.16564544 -0.23201865 -0.13426471 -0.07462691 0.009275779
74 0.122188434 -0.15455021 0.11981309 -0.029473629 0.14440192 0.17546546 0.23469156 -0.22134496 0.13462284 -0.02036098 0.05350007 -0.0031720884 -0.31053108 -0.09130719 0.16542536 -0.11156665 -0.08451917 -0.047934685 -0.3414038 0.17857805 0.22082417 -0.01541323 0.0022063032 -0.03805214 -0.2827071 0.16328798 0.03485443 -0.051186413 0.0259457 -0.103003666 0.05398397 0.087468944 -0.24720702 -0.13629872 -0.09333234 -0.12078145 0.07018193 0.017209189 0.054985467 -0.08616017 -0.20780066 -0.048405617 -0.11432883 0.22637552 -0.050741002 0.21914199 0.111779295 -0.07619222 0.14322577 0.122200415 0.046699364 0.23770595 0.26454407 0.21600479 -0.11329175 0.25931892 -0.004642613 -0.20455891 -0.15094045 0.061609667 -0.1296135 -0.19466902 0.12394863 0.15841065 -0.026152583 0.01704515 0.013616949 0.16072373 0.10429727 0.06706568 0.005944748 0.13450506 -0.17245157 0.0589437 -0.12215557 -0.40920788 -0.1373084 -0.04616212 0.11068371 0.36812323 0.22219852 -0.07247984 0.05739561 0.3624112 0.11590958 0.1279541 0.11451564 0.048989214 0.16183713 -0.04932255 0.13167122 -0.3297767 0.14063302 -0.24324682 0.27893692 0.14522262 0.077284515 -0.2383897 -0.04842727 0.10640559 -0.27553174 0.05890997 -0.04555474 -0.026205601 0.039436713 -0.223581 -0.09446013 2.0222411e-05 -0.030853864 -0.3102619 0.25917262 0.05593773 0.09794817 0.09118036 0.12214224 0.09760601 0.10299296 -0.08397002 0.18318209 -0.09942438 0.3215248 -0.005923437 -0.14506957 0.21071027 -0.11014753 -0.23388837 -0.017051894 -0.19791207
16 0.08975013 0.013120699 0.19873239 0.15757106 0.18969117 -0.17211923 0.12832397 -0.12370095 -0.10050556 0.01867773 0.13033064 0.0022510833 -0.16379085 -0.18216622 0.13511492 -0.038451534 -0.24915755 0.006724571 -0.31653357 0.21197398 0.12657346 0.23328574 0.18438941 0.067862205 -0.32599854 0.09641886 -0.09051199 0.024310408 0.03162649 -0.035228703 0.25844172 0.17088144 0.042339742 0.07883433 0.08466545 -0.3559277 0.24901439 -0.19181739 0.08193801 -0.03666645 -0.21452875 0.095117934 -0.18463525 0.30274948 -0.17853959 0.25798467 -0.06842474 -0.0100245485 -0.060998105 0.124088585 -0.0010420548 0.36700934 0.0031810706 0.12094846 -0.22440925 0.19771424 0.08763485 -0.21475598 -0.043488115 0.097886175 -0.046233978 -0.14399737 0.15272997 0.08617655 0.16930942 -0.097621255 0.007558672 -0.038647927 0.13670614 0.2520818 0.019395338 0.13681372 -0.23595333 0.15513265 -0.010460334 -0.26112804 -0.09124993 -0.23850796 -0.09395568 0.2590243 -0.003097676 0.023296272 0.20856693 0.34891847 0.1094462 0.07561193 0.043179832 -0.04804434 0.16518728 -0.03498013 0.23282155 -0.18914746 0.050138313 -0.10535796 0.0032288344 0.01948454 -0.17976457 0.04894952 -0.0760146 0.13654642 -0.3174138 0.06194882 -0.0377829 -0.06395746 -0.1655402 -0.26075348 -0.026772872 -0.17582123 -0.11278549 -0.30428523 0.25719836 -0.02126161 0.040276054 0.25702563 0.14835338 0.14535755 0.04683057 -0.029722776 -0.03321037 -0.19130401 0.2701153 -0.124303505 0.16802095 0.29627946 -0.32785627 -0.06329922 -0.035894506 0.06488252
4470 0.18832119 -0.15710327 0.23936391 -0.0667498 0.0332662 -0.07539752 0.07366371 0.038595557 -0.027102835 -0.0024670057 0.15836504 -0.10542323 -0.103780925 0.04571691 0.030890202 -0.023889134 -0.23105815 -0.16132219 -0.16165785 0.060180552 0.037612293 -0.041262504 -0.067658216 0.10674504 -0.09121962 0.16647117 0.11133212 -0.029969838 0.14438735 -0.21973109 0.05421234 0.10256592 -0.2688662 -0.042789385 -0.075343184 -0.2212069 0.30735007 0.08030739 0.11130215 0.114024736 -0.07756241 0.09736211 0.02338302 0.24972367 0.114079855 0.22905949 -0.033358857 0.10828882 0.10356924 0.1625491 -0.011730082 0.36834237 0.10086623 0.1275383 -0.23796904 0.1523543 -0.07733868 -0.289144 -0.27294427 0.26517823 -0.04128615 0.03538335 0.098231174 0.14155687 -0.093036175 -0.15170704 -0.0005087779 0.18382522 0.22889486 0.12287875 -0.16249263 0.059805453 -0.09304201 -0.014539996 -0.08632497 -0.34144646 -0.025360452 -0.12627609 0.004395485 0.30329973 -0.0735253 0.0006345523 0.24664788 0.21944208 0.02068154 0.2224763 0.19866335 -0.017525988 -0.009036343 0.122041695 0.099457644 -0.1720185 -0.13259092 -0.23432457 0.2653659 0.16128846 0.12873483 -0.20826323 0.012700035 0.19238722 -0.19018902 0.040178426 -0.073016755 -0.12674889 -0.117799126 -0.3972642 -0.1616506 -0.037579197 0.032223478 -0.2600006 0.29077032 0.05596365 0.22540756 0.037842367 0.22043085 0.11716868 -0.1636751 -0.12985456 0.044808727 -0.20177396 0.32489106 -0.033790037 0.008759346 0.18079185 -0.050444424 -0.12180423 -0.08735864 -0.0699942
65 0.14156142 -0.06686436 0.24218684 0.015874185 0.08173068 0.1257523 0.1916558 -0.15572876 -0.03933288 -0.07011105 0.025676766 -0.182745 -0.18237223 0.036007974 0.06775151 0.0036559948 -0.19637342 -0.07782908 -0.205331 0.08498813 0.18699306 0.108335905 0.012478098 0.12841901 -0.14297035 0.07074722 0.04996927 -0.032262012 0.013539199 -0.22707245 0.042671964 0.06817784 -0.10137235 -0.008298394 -0.08646666 -0.15362872 0.16682456 0.046017785 0.0514962 -0.091662034 -0.064654976 -0.0962906 -0.047217607 0.0897066 -0.0071303803 0.17381082 0.13789955 0.04273584 0.09071587 0.2541686 -0.037193686 0.24144936 0.19231682 0.08387573 -0.20849906 0.24832705 0.016835652 -0.123084225 -0.3215095 0.026608994 -0.05637875 -0.07295087 0.097504884 0.025179649 -0.12583433 -0.072587684 0.07417093 0.045839943 0.16738974 0.040810715 0.0011330843 0.15607165 -0.17787577 0.05934036 -0.059620805 -0.37169346 -0.058640465 -0.15624942 -0.028398504 0.27986285 0.06925975 -0.061079305 0.05360596 0.22623588 0.12823226 0.11014256 0.17774622 0.09568796 0.10951771 0.0039897584 0.07300244 -0.29655316 -0.003562251 -0.14103745 0.22281629 0.17336927 -0.032936867 0.0100229755 -0.09298482 0.17725632 -0.19052595 -0.0038235453 -0.105386175 -0.07620683 -0.06204323 -0.18482797 -0.21775763 0.091132246 -0.074444674 -0.23157132 0.21437593 -0.034134075 0.07998636 0.009564875 0.1152174 0.038861807 -0.01780148 -0.04394908 0.028507702 -0.22224465 0.27539143 -0.04829356 -0.0428164 0.15093946 -0.11278136 -0.26305145 0.0052191983 0.024560144
260 0.15106072 -0.17403989 0.1419494 0.053732097 0.083160214 0.079285026 0.24032083 -0.15092754 0.056199387 -0.12507533 0.17292206 -0.13931867 -0.30116308 0.07925274 0.19662976 0.020862382 -0.09228005 -0.03367461 -0.21895306 0.16068849 0.2281643 0.045463473 0.059083927 0.10376087 -0.2600116 0.082449764 0.0028773074 -0.0098395115 0.08958414 -0.14588234 0.081288405 0.03771053 -0.16819903 -0.033495482 -0.0623426 -0.06716701 0.22948991 0.024127595 0.0723452 -0.08758739 -0.21560445 -0.17189805 -0.17878082 0.23769177 0.054336548 0.19953206 0.108192556 -0.020091424 0.013974536 0.27534667 -0.097810954 0.32039413 0.26167393 0.16262984 -0.13994306 0.20149828 0.016058866 -0.1011053 -0.2759654 0.010458492 -0.091960765 -0.08158864 0.199065 0.05642633 -0.02456148 0.030691482 -0.058099825 0.0449956 0.23622718 0.048296653 0.07251178 0.15576759 -0.17209199 0.03738477 -0.06597971 -0.40566224 -0.08439172 -0.13091186 0.13873465 0.3247205 0.1736746 -0.031464715 0.052406847 0.34521756 0.13855237 0.086040184 0.23249088 -0.009043462 0.14412586 -0.030380575 0.20559363 -0.3007152 0.053223748 -0.22666852 0.27793604 0.2025582 -0.040162474 -0.029729022 0.036301326 0.18094945 -0.31776035 -0.064706214 -0.09929966 -0.061105456 -0.0092083765 -0.23267779 -0.25810316 0.0043362263 -0.09864955 -0.33032537 0.24360305 -0.026289545 0.11273322 0.114142455 0.13569294 0.058273442 0.13461988 -0.1056974 0.04740704 -0.16445768 0.36018425 -0.01471708 -0.08549852 0.14855702 -0.19608715 -0.2953452 -0.08037285 0.07848026
67 0.16408285 -0.13181888 0.1883943 0.02781411 0.0893801 0.0744944 0.25323382 0.010862889 0.12355931 -0.027549416 0.049033597 -0.11555048 -0.2947068 -0.059628908 0.10532931 -0.10625302 -0.110673256 -0.09170435 -0.19673502 0.028257733 0.21082371 0.07857799 0.10562592 0.041616753 -0.20583878 0.05456549 0.067250334 0.076345295 0.045959014 -0.20188728 0.102416754 -0.0045170328 -0.23155937 0.02288119 0.031875897 -0.11786658 0.17862009 0.021205924 0.1255159 -0.06382945 -0.12894078 -0.1779389 -0.19069242 0.20646486 -0.028859098 0.30883715 0.123152904 -0.008220794 0.14469527 0.19034493 0.0047817435 0.18922453 0.22446626 0.29202762 -0.0618737 0.21676424 0.086245745 -0.27943826 -0.27029622 0.0034679673 -0.0326808 -0.028166387 0.13972639 0.06798731 -0.029104229 -0.04664078 0.048188128 0.08969295 0.23723361 0.071597844 0.0034385906 0.14309442 -0.20197812 -0.037398357 -0.109369606 -0.38603812 -0.057045374 -0.07250298 0.096895516 0.22422636 0.2206708 -0.031242352 0.07223383 0.3326965 0.17015165 0.003207076 0.16017634 0.13060892 -0.015550625 -0.013368958 0.16359593 -0.26549983 0.015116412 -0.20096882 0.1536175 0.110628545 0.05250118 -0.048883405 0.089376055 0.07804953 -0.23332925 0.003172603 -0.023496244 0.07995372 0.051371437 -0.26112893 -0.14933385 0.03797033 -0.060065154 -0.31522673 0.29874778 0.06598729 0.09470936 -0.0035840457 0.073033154 0.106980436 0.13133828 -0.18113193 0.13046642 -0.15426026 0.26213866 -0.057681147 -0.06948724 0.20049118 -0.29815903 -0.27746785 -0.058357153 0.06269634
72 0.2489205 -0.22455063 0.16302322 0.0065766727 0.07849613 0.026251655 0.28725573 0.01816419 0.06667844 0.012734917 0.11222624 -0.13875696 -0.17222068 0.07384467 0.14673094 -0.06503453 -0.19702333 -0.05579002 -0.18902886 0.14562137 0.20265655 0.19921552 0.059668895 0.036756396 -0.275678 0.096118905 -0.04248971 0.021096291 0.0642471 -0.21432629 0.056594767 0.019336503 -0.3200035 -0.057980742 0.05950975 -0.09935921 0.18778001 0.009374972 0.15184596 -0.09424825 -0.19671153 -0.13227916 -0.18150796 0.2126351 -0.028298175 0.11415496 0.0033948696 0.0017074894 0.056600112 0.2538326 -0.055391166 0.2474056 0.29394215 0.21873786 -0.07478961 0.21783319 0.04279564 -0.11339781 -0.19909368 0.074426465 -0.059418995 -0.07666255 0.20105511 0.1839861 -0.03388241 -0.03399655 0.064402185 0.083411045 0.2415655 0.055523563 0.09149606 0.109305404 -0.18305692 0.09154803 -0.023401227 -0.4631583 -0.16912688 -0.11520873 0.11815851 0.26228967 0.14513 -0.063859 0.15091728 0.32379723 0.24410288 0.20882644 0.17930984 -0.03387049 0.08807217 -0.0028497432 0.23803031 -0.21135345 0.03617229 -0.19642933 0.26255125 0.15858631 -0.069570854 -0.059241224 0.007998662 0.152401 -0.22093871 0.005104966 -0.103135586 -0.033139527 0.053696897 -0.3204046 -0.088200524 0.022042226 -0.13562725 -0.4028936 0.3034713 0.05897886 0.12163881 0.16184688 0.10245319 0.03676047 0.09053797 -0.10975355 0.09618034 -0.1311883 0.27811357 -0.03446786 0.040684015 0.013367049 -0.19618824 -0.21547437 -0.039746135 0.08165001
63 0.16329432 -0.16412914 0.18561745 0.001777791 0.08649218 -0.020773364 0.20732197 -0.012018105 0.04985614 0.0038442214 0.089745656 -0.1792717 -0.13699557 -0.07227676 0.16778545 -0.038013455 -0.17214598 -0.06591238 -0.22884071 0.1409565 0.23029396 0.16899233 -0.00969922 0.11367227 -0.22385278 0.101629876 0.043724466 -0.0014626621 0.107847296 -0.16452365 0.045677416 0.08231813 -0.29589725 -0.05224333 -0.09824806 -0.06251408 0.16842656 0.13108374 0.14538503 -0.07848447 -0.18976814 0.06980538 -0.047060784 0.19809711 0.0032644072 0.18770736 0.110554524 -0.051469173 0.07763108 0.20375995 0.06412031 0.335163 0.19502023 0.13716319 -0.061691366 0.23990592 0.044266734 -0.15605338 -0.19367035 0.12210429 -0.042347226 -0.092889 0.17626497 0.11361977 -0.07009589 -0.00533335 0.06962819 0.029313857 0.21525247 0.0048498926 0.010824624 0.073511116 -0.23772602 0.05760691 -0.12322339 -0.4101537 -0.05559473 -0.10509338 0.14351939 0.26993906 0.16147026 -0.0102494415 0.12184853 0.23931566 0.24582802 0.1415151 0.13882944 -0.010698041 0.12989241 0.018090773 0.13721496 -0.1773373 0.07029192 -0.21851803 0.23601101 0.14357163 0.030772675 -0.085034914 -0.07425861 0.12574002 -0.2109146 0.014820296 0.026645785 -0.0765379 0.009160324 -0.28148195 -0.086743325 -0.07762931 -0.08113124 -0.3856706 0.3191844 0.08575907 0.13788316 0.08778903 0.12493497 0.15111989 -0.007645666 -0.15973076 0.15312846 -0.078212656 0.26508266 0.000411638 -0.058484767 0.18029167 -0.13121897 -0.2409365 -0.10842499 -0.041807055
64 0.15407914 -0.10749126 0.18469582 0.06969321 0.023965292 -0.035853997 0.15881369 -0.1556955 0.043213204 -0.09235579 0.049930636 -0.16958031 -0.18579753 -0.027683329 0.16253415 -0.041619517 -0.120900236 -0.12409229 -0.1923979 0.12533414 0.16320035 0.19021091 -0.041116904 0.08426975 -0.237366 0.010173557 -0.0074807983 0.035904832 -0.02238636 -0.20050274 0.071196966 -0.020619992 -0.26328176 -0.09212109 -0.015684927 -0.13589492 0.11537037 0.016877687 0.07851911 -0.010868693 -0.26142237 -0.06172851 -0.030419707 0.15268451 0.07908715 0.20555581 -0.0317157 -0.06706044 0.082529694 0.27174732 -0.001837761 0.26260278 0.23570932 0.08334508 -0.051492754 0.23397128 0.022234082 -0.10452024 -0.24406879 0.1467054 -0.03383635 -0.18428239 0.10379894 0.091977194 -0.11105936 -0.10122484 0.0824392 0.08280108 0.19202976 0.14714596 0.00487351 0.08220113 -0.2762158 0.019656066 -0.027913323 -0.53932035 -0.10234223 -0.06511716 -0.026067879 0.31117538 0.100642145 -0.045005094 0.09670073 0.30500728 0.19133288 0.15030274 0.2039637 0.09683779 0.10803745 0.050205134 0.035014424 -0.23490761 0.021642024 -0.31650034 0.256433 0.15713438 0.07229135 -0.06441177 -0.070817105 0.18528165 -0.24331911 -0.049265772 -0.013146226 0.011624966 -0.0034071854 -0.3027171 -0.038373552 0.0057968074 -0.065050095 -0.26857442 0.22688754 0.038800675 0.13116333 0.055922784 0.10056021 0.055216584 0.12230817 -0.04898877 0.06746951 -0.20282266 0.37112024 -0.10049246 -0.116802536 0.16547042 -0.10911028 -0.28558615 -0.013702764 -0.05364122
432 0.11505586 -0.080263354 0.005206435 -0.017251257 0.07461681 0.13572276 0.3650418 -0.007559037 -0.023488052 -0.00083708816 0.203554 -0.09833753 -0.20232373 0.22690247 0.044790186 -0.041347757 -0.17384788 -0.06307526 -0.15443084 0.008572333 0.14907223 0.04753821 -0.017981997 0.022143384 -0.26732907 0.091371015 -0.07452754 -0.0022840116 0.12814994 -0.15185747 0.08154163 0.027667528 -0.17221302 -0.034109987 0.0535688 0.072673835 0.12815568 0.062366717 0.030509993 -0.12099726 -0.22318165 -0.14497441 -0.04829421 0.24751326 -0.01528365 0.10770938 0.022749128 0.017038113 0.006481244 0.27580202 -0.09033285 0.25480112 0.18144238 0.14060055 -0.017460268 0.22726472 0.05752643 -0.2320855 -0.12800859 -0.09689625 0.037872408 -0.064461 0.013046015 -0.052893408 -0.022437239 0.010001031 0.0773398 0.115021005 0.3134725 0.17999154 0.14701107 0.08575256 -0.3307493 0.19524822 -0.11742941 -0.35592753 -0.10623949 -0.16701649 0.22191064 0.17516194 0.22373785 -0.077254444 0.08614852 0.29054675 0.25379518 0.1516598 0.110943384 0.024681002 0.025807366 -0.021570921 0.25442132 -0.36122605 -0.042898916 -0.2629509 0.33681428 0.16287643 0.033512723 -0.06653407 -0.103621386 0.30414838 -0.24939877 0.055827413 -0.100708 -0.07440264 0.10231897 -0.26115862 -0.14098194 0.07600493 -0.14931238 -0.34243107 0.34583795 0.11973886 0.07030794 0.1545436 0.17408593 -0.05779857 0.0589364 -0.074079484 -0.05135899 -0.18507615 0.2622518 -0.051364295 -0.12891151 0.045549966 -0.3030647 -0.3331171 -0.10339639 0.052964278
318 0.10208451 -0.2614611 0.21898244 0.037497956 0.06948407 -0.082492515 0.13984817 -0.121709205 0.17589441 -0.018588599 -0.06477857 -0.20959389 -0.3269348 -0.05470541 0.16264412 -0.06435499 -0.09355782 0.028345672 -0.2507574 0.22313918 0.23142226 0.023016216 -0.018447448 0.10235971 -0.2371808 0.12508751 0.017716864 0.10844828 0.11087416 -0.13566452 0.015821239 -0.056057263 -0.34782448 -0.08262032 -0.10617098 -0.15686086 0.17784831 0.057741877 0.18189645 -0.115678206 -0.19667335 -0.068357065 -0.064242765 0.16988236 -0.05170026 0.2816929 0.059386633 -0.012212082 0.109902814 0.19438185 -0.056915622 0.11975831 0.26092884 0.1721372 -0.047051143 0.20651083 0.052510116 -0.16205415 -0.23460601 0.1421595 0.01923706 -0.05454766 0.17091942 0.25700572 0.024666555 -0.009269245 0.02757719 0.09810475 0.23159207 -0.026003508 0.07844118 0.12094286 -0.15198724 -0.06476959 -0.049980253 -0.4359681 -0.047875524 -0.038509995 0.07638516 0.25489327 0.16105366 -0.038080625 -0.009855895 0.22485162 0.116866514 0.116051145 0.1306626 0.046207614 0.11909171 -0.043583333 0.2052537 -0.29390338 0.10200459 -0.23841646 0.29361156 0.066190206 0.108845204 -0.14923073 -0.05114989 0.024740238 -0.23923156 -0.044438064 -0.04600624 -0.087426975 0.026790643 -0.2859091 -0.12926404 -0.1063625 0.036476202 -0.22296302 0.24105485 0.016564261 0.18274884 0.1001279 0.10409361 0.14696595 0.061478037 -0.14673291 0.10198099 -0.122299545 0.2577148 -0.088569574 0.010116084 0.23590405 -0.17747922 -0.20907977 -0.04938181 0.0445773
94 0.16151473 -0.13258886 0.19211693 -0.015308918 0.089203954 0.06275893 0.13872105 -0.14656869 -0.021800026 -0.10435491 0.11337876 -0.15210094 -0.19726722 0.019361062 0.22135782 -0.025961576 -0.10698607 -0.11249904 -0.2742048 0.22601384 0.15368706 0.13009219 0.09172931 0.07748226 -0.2845728 0.113631964 -0.012457643 -0.0017546483 0.048222646 -0.1153008 0.036533535 0.03908799 -0.21111968 -0.088592954 -0.04535767 -0.16242959 0.24953431 0.013516457 0.085101575 -0.038004365 -0.180211 -0.1254658 -0.07325682 0.22943632 -0.017925644 0.24685428 0.031149063 -0.03549482 0.071572766 0.24198872 -0.06432817 0.2166487 0.12933728 0.14735304 -0.17243668 0.23555171 0.045493126 -0.13638653 -0.2521214 0.10526278 -0.03707504 -0.08197765 0.12565874 0.062984884 0.0018059423 -0.08638536 0.009303176 0.03704662 0.2133323 0.08540272 0.1064965 0.12872027 -0.23097071 0.049370173 0.023354447 -0.4180376 -0.05721832 -0.0760227 0.0562083 0.35364485 0.088789396 -0.07308301 0.07474816 0.31979325 0.1613588 0.11849872 0.1291218 0.04688488 0.07358988 -0.02685137 0.1787502 -0.3045555 -0.010826891 -0.17835674 0.2711507 0.18362023 -0.004520275 -0.012959126 -0.06365548 0.10430278 -0.21256816 -0.012707008 -0.13155821 -0.048055734 -0.051526994 -0.31249103 -0.16665964 0.027616464 -0.06468751 -0.3070201 0.2675968 -0.03711996 0.13854662 0.20754781 0.08968075 0.09658199 0.07607547 -0.031866908 0.0981164 -0.28336546 0.3405615 -0.09492693 -0.0010297283 0.1921592 -0.18807405 -0.22746317 -0.05810676 0.10630001
346 0.11364136 -0.14717078 0.08604193 -0.071572915 0.30177993 -0.12499763 0.025344098 0.09012935 -0.13844308 -0.053533044 0.25120226 0.05297981 0.008283126 -0.023669899 0.06334487 -0.10938803 -0.09024354 -0.23927683 -0.39135996 0.2416238 0.045712605 0.05517393 0.17884243 0.15374109 -0.2699619 -0.08151315 0.053661797 0.06838468 0.16242912 0.12986751 0.29250264 0.21020508 0.062804125 0.08215905 -0.0299575 -0.14403099 0.43587866 0.007190908 -0.017479524 0.15242805 -0.26556894 -0.037451137 -0.1791812 0.27154535 0.016751837 0.49597466 0.08225412 0.11474493 -0.08784572 0.06534751 0.05216622 0.43145797 -0.2504261 -0.0009771732 -0.25988045 0.12758796 0.028449118 -0.2697921 0.088168584 0.17599002 -0.14439537 0.2421826 0.03421584 0.011802155 -0.10276055 -0.033333007 -0.026096234 -0.014723373 0.09028284 0.25766784 -0.1711186 0.043174617 -0.21295075 -0.020205686 0.1677414 -0.21471569 0.07082423 -0.082497455 0.061814547 0.12924331 0.08803101 0.026172465 0.04115157 0.33653408 0.14825171 0.011620267 0.07327992 -0.014908938 -0.2014945 -0.09526246 0.27535456 0.028917318 0.07331211 -0.122937955 0.19642283 0.2475204 -0.12930882 0.22024685 0.2956452 0.3056092 -0.21006958 0.018795231 0.060701344 -0.031522598 0.043504387 -0.25384614 -0.3274424 0.06597694 -0.20174904 -0.28357482 0.3291036 0.08791441 0.1069306 0.012332895 0.17106017 0.41019344 0.07356779 0.107450664 0.0892489 -0.10681804 0.18836227 -0.059732523 0.017721947 0.44372454 -0.05774169 0.06528867 0.009350656 0.09494875
317 0.16046664 -0.12720296 0.16567805 0.0041066897 0.09529272 0.099993125 0.18326074 -0.08275389 -0.12968883 -0.030594876 0.15508498 -0.093456954 -0.13078375 0.18019857 0.16483082 0.07553951 -0.04870365 -0.08717405 -0.19555879 0.16276306 0.2125997 0.0819491 -0.0027496757 0.13592178 -0.26414946 -0.0020949123 -0.00012595645 -0.02635661 0.09652605 -0.03795398 -0.0085440725 0.043372825 -0.18482809 -0.10669804 0.1139887 0.020866102 0.2524708 0.16004835 0.071748525 -0.11113852 -0.1725985 -0.096820265 -0.05523807 0.25347337 -0.03202943 0.17891732 0.056391373 0.03950369 0.0656067 0.30504167 -0.12441808 0.3529044 0.21546368 0.10844424 -0.06573866 0.20003428 0.02061119 -0.07207213 -0.19694056 0.110533364 -0.033570204 -0.06512575 0.12756306 0.0011963021 -0.0595154 0.04011517 0.083779715 0.02577949 0.26365453 0.07659348 0.09894263 0.055802975 -0.24761349 0.02933871 -0.049275443 -0.48068237 -0.06292171 -0.10348041 0.19270836 0.28855738 0.17291476 -0.10915429 0.015781142 0.45637465 0.2795324 0.19526307 0.1401021 -0.04207515 0.054003257 -0.049484257 0.20423761 -0.23396012 0.09005278 -0.18206629 0.34559736 0.24111857 -0.032915674 -0.04307309 -0.09248032 0.106259465 -0.25373822 0.009541016 -0.01647286 0.04199043 0.09935448 -0.20927565 -0.096676216 0.033803564 -0.15037677 -0.3593816 0.3041946 0.0017685432 0.09052643 0.09274508 0.10903263 0.1905406 0.08090571 0.0043684035 0.04910932 -0.13056464 0.25444287 -0.061137687 -0.041201405 0.04190682 -0.16461855 -0.18212926 -0.08047381 0.08682985
66 0.19612527 -0.12912068 0.14685364 -0.030507503 0.1023349 -0.052794926 0.15182464 0.04145957 0.02812582 -0.022710416 0.085129865 -0.17456582 -0.27718323 0.10583131 0.14360937 -0.14239077 -0.14062382 -0.08981966 -0.18353543 0.06049724 0.16297892 0.097301625 -0.029575594 0.029583508 -0.21728173 0.07609072 -0.021726552 0.123501055 0.048882496 -0.22188494 0.017035738 0.04184564 -0.27735385 0.012038316 -0.023532629 -0.10158318 0.14779712 -0.016406896 0.11905388 -0.030375365 -0.15553257 -0.04386571 -0.08434386 0.21806803 -0.020524433 0.24455549 -0.16734591 0.02806446 0.04086709 0.1914244 -0.10636612 0.1096439 0.09102588 0.28551444 -0.008228253 0.2640492 0.04876511 -0.0761044 -0.14877965 0.07006126 -0.010073587 -0.05284394 0.13097602 0.024351258 -0.005425382 -0.031399317 0.014117721 0.07192127 0.22303574 0.15993656 0.05480608 0.10417167 -0.2690942 0.047162887 -0.05447563 -0.41474292 -0.07271932 -0.03872407 0.06657288 0.26064843 0.13126591 -0.02314543 0.031448893 0.23489653 0.22378018 0.12197905 0.15759456 -0.04487815 -0.007911953 0.0069231936 0.19374527 -0.21431063 -0.0651582 -0.20570132 0.22831705 0.13840637 -0.01614296 -0.074547134 0.055643324 0.24538924 -0.121647835 0.04123084 0.04346784 -0.008054235 0.004466972 -0.4065333 -0.17335966 0.09583345 -0.08705562 -0.28078446 0.23511434 0.10573483 0.27295926 0.05535504 0.103435345 0.07662196 0.1735868 -0.081316225 0.09204094 -0.14929803 0.2811924 -0.0020686528 -0.026372164 0.20757519 -0.22970133 -0.1053625 0.009260699 0.048474923
440 0.19035044 -0.117465205 0.24827959 0.17181116 0.062077466 -0.17097688 0.08245003 -0.030203862 0.0059714634 -0.027230037 0.03623476 -0.15536936 -0.13544244 0.05861339 0.055935454 -0.10390998 -0.10704467 -0.078777455 -0.20185435 0.08953906 0.10904499 0.21142296 0.00024931377 0.13053279 -0.06326685 0.10913171 0.046553604 0.020356547 0.07523522 -0.23643796 -0.036784913 0.064302534 -0.11085164 -0.0038647472 -0.075484216 -0.24748129 0.2317714 0.08263988 0.18432456 -0.005963563 -0.10284286 -0.07364309 -0.005831214 0.19490962 -0.074023835 0.19994259 0.020267421 0.14920048 -0.04034676 0.16006792 -0.10846157 0.37255615 0.25135708 0.015508758 -0.15388149 0.11114045 -0.01149891 -0.20063877 -0.13159843 0.16710179 -0.0002712171 -0.05213789 0.04065273 0.17925203 -0.12382694 -0.16286178 -0.057509538 0.077716745 0.14102863 0.13978043 -0.060152322 0.23575765 -0.08954036 -0.084037356 -0.018791506 -0.38059148 -0.028789826 -0.049517397 0.030368391 0.26567873 -0.019004371 -0.040849566 0.18394709 0.21649331 0.11513157 0.07405928 0.18189302 0.048142575 0.15847798 0.0115333535 0.17924127 -0.25325495 -0.07528885 -0.1343931 0.22807474 0.10803586 -0.01283605 -0.049498685 -0.035133578 0.1706799 -0.19033624 -0.14030236 -0.061295703 -0.13800728 -0.14197908 -0.25693408 -0.16474225 -0.025713773 -0.06809284 -0.14449055 0.28177902 0.08288823 0.17499033 0.034967672 0.18095271 0.1325061 -0.008378968 -0.09389081 0.11655216 -0.13379097 0.20663773 -0.057880823 0.120318584 0.1708711 -0.15068904 -0.17733893 0.009301024 -0.09383271
259 0.15440717 -0.1932007 0.21364942 -0.00022999843 0.128324 0.11704823 0.1634584 -0.10025929 -0.0030281264 -0.041702222 0.14411125 -0.1722389 -0.26939118 0.057400536 0.16779573 -0.014823554 -0.045646403 -0.06027915 -0.23295417 0.14091721 0.25507092 0.086098954 0.060694177 0.037599403 -0.2539441 0.050611537 0.108953275 0.049660217 0.0647346 -0.14583029 0.030027848 -0.005691816 -0.20037998 -0.0785384 -0.056010712 -0.006400543 0.19939734 0.05930778 0.10305469 -0.06792384 -0.18413793 -0.12902069 -0.13235547 0.18118222 -0.008014077 0.18208027 -0.010077973 0.02921926 0.094916224 0.23254295 -0.0984652 0.27758983 0.33492336 0.21605268 -0.15192504 0.23491299 0.0104053775 -0.14217119 -0.28785464 0.027338352 -0.002273466 -0.17722191 0.18680374 0.01841884 -0.021629928 0.051473178 0.14435984 0.10269416 0.22051969 -0.037304305 0.08973395 0.06513962 -0.22756365 -0.025055334 -0.06865247 -0.4833971 -0.07803369 -0.107384056 0.08847467 0.2599906 0.117347404 -0.09011162 0.012407961 0.37858915 0.2543949 0.11669942 0.1535839 0.022413881 0.04155461 -0.077723585 0.15056074 -0.28019738 0.083765045 -0.22463922 0.226422 0.18626745 -0.08330018 -0.08713634 -0.01972821 0.055614494 -0.26337853 0.029957939 -0.07011054 0.042384338 0.05333655 -0.23511967 -0.15543169 0.06540456 -0.12953664 -0.3602707 0.24444963 -0.058442947 0.077289335 -0.005283908 -0.00085078506 0.07191801 0.10236028 -0.04641178 0.04790902 -0.16536577 0.37778422 -0.072084695 -0.0804002 0.20914768 -0.20784026 -0.2134013 -0.03188268 0.12219879
68 0.18856697 -0.2565384 0.21912384 0.017504482 0.14454302 -0.0627658 0.18078712 -0.14034094 0.030761743 -0.04950203 0.061379176 -0.13890912 -0.23350851 -0.042466294 0.19705918 -0.049126394 -0.108384006 -0.032278802 -0.2743193 0.17862296 0.27032012 0.112621956 -0.052114375 0.15513441 -0.26158822 0.11126295 0.013782589 0.06860931 0.17699882 -0.101693004 -0.00038374975 0.09144973 -0.28911692 -0.133268 -0.06577662 -0.11282541 0.17472231 0.18222418 0.11963314 -0.12113794 -0.15394512 -0.03688494 -0.028837094 0.18483625 0.00934067 0.28065324 0.04040311 0.018806623 0.045941446 0.22324976 -0.04423561 0.31575114 0.35514316 0.20291758 -0.15327132 0.24799842 0.012480343 -0.12491489 -0.23238125 -0.029484363 -0.025040165 -0.07726261 0.18328778 0.08543678 -0.106892325 0.025746064 0.1005838 0.069434255 0.25228882 -0.059250377 0.037296824 0.06777501 -0.18780048 -0.0463376 -0.10901363 -0.39051384 -0.103627026 -0.055076145 0.12137745 0.32848185 0.13580382 -0.024955556 0.033694174 0.33307144 0.23073722 0.1171516 0.18045017 0.009553419 0.081961915 -0.0055933706 0.21576814 -0.38710168 0.10777824 -0.25086433 0.36789125 0.1532051 0.0041464064 -0.09009203 -0.044056594 0.13187157 -0.27953744 0.016741639 -0.060165495 -0.0067815026 0.04837315 -0.20304991 -0.14769971 -0.09813014 -0.09435337 -0.3813755 0.31452695 0.008463791 0.14374347 0.040320404 0.05187806 0.06720652 0.03660567 -0.10408463 0.10144829 -0.14231819 0.33628944 -0.05914135 -0.06798673 0.23266031 -0.19240235 -0.24568091 -0.12179241 0.019890629
315 0.10142611 -0.113218665 0.2200193 -0.013979966 0.07634212 -0.108558774 0.11529393 -0.064182796 0.07698748 -0.067444414 0.048228774 -0.19187129 -0.25065336 -0.013310271 0.14276828 -0.06918801 -0.14642154 -0.004112755 -0.20701881 0.15081836 0.20397963 0.08393278 0.0024018143 0.10872643 -0.22099534 0.10372376 0.0018036953 0.110727765 0.16441843 -0.16078015 0.06632352 0.056005053 -0.19750546 -0.034121588 -0.1518851 -0.2190444 0.1961064 0.1181549 0.12799037 -0.077227086 -0.189474 0.015579451 -0.06857588 0.16459695 -0.07274898 0.29639432 0.005002064 -0.03081453 0.009827015 0.23825434 -0.074392244 0.19879684 0.15450664 0.25472695 -0.115447536 0.27843708 0.10675075 -0.12323074 -0.20582734 -0.039075635 0.06612721 0.030692995 0.19559751 0.020048538 -0.051262744 0.006316978 -0.036375243 0.101310775 0.2526235 0.049510658 0.06119649 0.12305792 -0.28551483 0.057278287 -0.13214463 -0.3223322 0.01411121 -0.019209404 0.06617931 0.26692933 0.20335686 0.02143533 0.0021251224 0.28860813 0.14172357 0.12851445 0.1464386 -0.040234856 0.09944758 0.0011208428 0.26728684 -0.3921996 -0.034981146 -0.16683021 0.3013621 0.07083919 0.03535587 -0.10349292 -0.01945825 0.18563503 -0.185987 -0.016776059 0.012291557 -0.1145344 -0.03754757 -0.25221914 -0.24207577 -0.06437623 -0.046451498 -0.28937498 0.2977439 -0.00926888 0.1731929 0.12708414 0.08812004 0.13466883 0.023031354 -0.16347928 0.0820011 -0.0975289 0.23493652 0.0079334015 -0.044413533 0.27370435 -0.22820033 -0.20111567 -0.18229657 0.042654116
344 0.2551697 -0.3072069 0.03211075 0.032266043 0.119306825 0.12292024 0.23095569 -0.02161854 0.06783823 -0.030042928 0.06448617 -0.11026058 -0.1901173 0.10319171 0.14759663 -0.06558038 0.047273394 -0.04783108 -0.22113171 0.08549023 0.2608461 0.107514106 0.07626333 0.02276488 -0.24674772 -0.040637292 -0.016639246 -0.067750864 0.06679479 -0.12283564 -0.089191906 0.02166888 -0.30329135 -0.026339117 -0.046382513 0.044698298 0.142431 0.052534983 0.006394326 -0.09445198 -0.23854846 -0.25662068 -0.12528022 0.19897579 -0.09534008 0.052557055 0.18488096 0.037429083 0.024457531 0.19732752 -0.034176424 0.2895018 0.45807135 0.07958674 -0.087877885 0.14648008 -0.033732723 -0.07041715 -0.23556343 0.011663961 -0.08642875 -0.13261068 0.2108838 0.06940217 -0.19115257 0.07552086 0.11010772 0.100359604 0.25614324 0.013963666 0.049579617 0.0540354 -0.18500328 -0.09814766 -0.018616145 -0.5804645 -0.0955613 -0.102249674 0.19550556 0.14554079 0.21236347 -0.09838712 0.111961946 0.33086178 0.34495857 0.106322825 0.18208253 0.08073963 0.07166004 -0.07174252 0.1743628 -0.26839623 0.10989583 -0.25193277 0.3157708 0.13829902 0.009858341 -0.09482136 0.0059440034 0.101725146 -0.25637546 -0.10997574 -0.10311772 0.00120601 0.14766888 -0.23362708 -0.2096973 0.09449569 -0.17354366 -0.4373887 0.30467594 0.017753392 0.055738308 0.056317877 0.07296872 0.067715615 0.16201138 -0.082148135 0.20559873 -0.14556058 0.30190587 -0.15883933 -0.12425713 0.09121384 -0.15490033 -0.34054 -0.083162054 0.048131082
314 0.15564291 -0.20573266 0.22878966 0.10504119 0.0674196 -0.17983712 0.17661846 -0.07682959 0.12005567 0.004466547 0.045876663 -0.16359329 -0.22604844 -0.012073147 0.20512515 -0.01792214 -0.15120311 0.0783818 -0.12867524 0.044158272 0.24278826 0.14676322 -0.06808225 0.16484071 -0.24758789 0.0060920673 0.03806677 0.11417672 0.17123173 -0.24369735 0.07642512 0.031266473 -0.25836387 0.0020329293 -0.1518322 -0.19231953 0.23544905 0.092682235 0.17938626 -0.08552834 -0.084435 0.08286439 -0.03736124 0.1619297 0.063741915 0.27154112 -0.13032062 0.022348976 0.007284478 0.27761704 -0.07406629 0.21027443 0.2515261 0.25643647 0.020719357 0.17676489 0.015496017 -0.04793681 -0.23286219 0.003267044 -0.0422197 -0.08450578 0.13171835 0.04104399 -0.11779586 -0.04273541 0.039454646 0.033217553 0.14983805 0.05514027 0.005278326 0.16839935 -0.16466257 -0.057531785 -0.1446581 -0.42517984 -0.089494035 -0.120196275 -0.0204314 0.2514552 0.25683162 -0.034166712 0.112193696 0.21350129 0.2244222 0.016522676 0.18881677 -0.06610533 0.20866315 0.10411183 0.10602178 -0.27735063 -0.031344164 -0.24871288 0.2893271 0.06570647 0.025988001 -0.13890086 0.012620865 0.1765473 -0.15184703 -0.08124871 -0.0035012234 -0.13195704 0.03448393 -0.18672837 -0.12519608 -0.10937537 -0.10732058 -0.1729532 0.21068466 0.09574921 0.18732594 0.07993625 0.06779932 0.11011725 0.0017469785 -0.18532276 0.014329775 -0.08179857 0.3087317 -0.012635614 -0.022914596 0.25674984 -0.10273529 -0.10312291 -0.11261445 -0.020401949
124 0.13368823 -0.2615303 0.22561523 -0.0596079 0.15350205 -0.01992566 0.3717064 -0.090365596 0.09980289 0.035236318 0.021031411 -0.19192694 -0.11135874 0.041759647 0.20080219 -0.090958305 -0.13056451 -0.036424022 -0.30973434 0.1777809 0.0913225 0.23238237 0.027669214 0.059610352 -0.2694411 0.16249064 -0.10755425 0.004985119 0.032911472 -0.19236712 0.10049817 -0.1407639 -0.30488545 -0.037681136 -0.0543739 -0.03226646 0.03099323 0.11934274 0.16971293 -0.16412984 -0.35478398 -0.19739582 -0.09649478 0.08845992 0.07028633 0.14815283 -0.059894502 -0.016572954 0.044924982 0.28714186 -0.026841246 0.07274607 0.19778937 0.16223308 -0.2340702 0.22273917 -0.013286771 -0.078470215 -0.2687263 -0.075742304 -0.028756546 -0.025114767 0.18461667 0.15251304 0.122049406 0.12826854 0.083088584 0.0767517 0.21314973 -0.050476935 0.004254415 -0.036027044 -0.35238352 0.15398358 0.0025895422 -0.39649895 -0.14049675 -0.18854783 0.02823028 0.23423117 0.001403618 0.02585726 0.08006412 0.25825784 0.27620384 0.22801262 0.21136375 -0.06103542 0.118546605 0.14478168 0.38443092 -0.30300513 0.13238344 -0.1834963 0.20862924 0.10574723 -0.11435773 0.012517718 0.07730141 0.22080784 -0.12020543 0.044642176 -0.040664587 0.06640339 -0.008937062 -0.1609324 -0.18307382 -0.027209705 -0.1615874 -0.35438952 0.24200323 0.16037412 0.1366184 0.11253811 0.027353758 -0.0019104461 0.10452601 -0.05783135 0.16578603 -0.24997042 0.20779063 -0.049304947 0.017327731 0.120936185 -0.14879595 -0.23664647 0.035190113 0.11722847
97 0.16877358 -0.10753666 0.16833925 0.07292931 0.10242379 0.069767796 0.23236442 -0.084650554 0.0046909796 -0.056054376 0.12907685 -0.15248562 -0.2112903 0.00034757072 0.20390943 0.023618165 -0.05342632 -0.0023972932 -0.19797763 0.10925987 0.21013016 0.13197428 0.051026262 0.10593501 -0.3507891 -0.00794846 0.013974357 0.04797181 0.06938655 -0.17710546 0.07603474 0.011090324 -0.2844222 -0.0154800415 -0.038280815 -0.018837377 0.16885929 0.035478417 0.074816026 -0.10326246 -0.19988129 -0.10890269 -0.07161879 0.19758977 -0.011262766 0.18168487 0.020183127 -0.024399342 0.020983167 0.24601068 -0.02042381 0.27632508 0.24607809 0.16513398 -0.02566933 0.26693875 0.0075413655 -0.08530699 -0.2746387 -0.0067262272 -0.041780822 -0.10145687 0.1815835 -0.025655827 -0.07894892 -0.020870565 0.11234877 -0.016859915 0.23464055 0.10680523 0.035504203 0.09748129 -0.24387977 0.059777144 -0.09527664 -0.4519965 -0.06261302 -0.10703811 0.15705113 0.2571041 0.23820277 0.01141987 -0.01367007 0.29316986 0.28417984 0.0705892 0.13732338 0.07979403 0.056660347 0.018379081 0.19944191 -0.3067122 0.012577991 -0.24124259 0.25805956 0.115137726 -0.013829335 -0.05539586 -0.010144682 0.23684405 -0.19949923 -0.051488232 0.01993823 0.037438024 0.030115966 -0.21835816 -0.15374647 -0.005540681 -0.16077599 -0.3421478 0.2513218 -0.027862879 0.10082575 0.08641065 0.06856597 0.054823324 0.11308947 -0.123400636 0.033363424 -0.20046684 0.3535412 -0.040389843 -0.12964118 0.20064849 -0.23323478 -0.27445078 -0.105574235 -0.011686705
261 0.2218018 -0.26111394 0.041079666 0.044222325 0.11725723 0.20092362 0.25665388 -0.025104895 0.0019143777 -0.04018731 0.17879565 -0.090058215 -0.20786206 0.19216841 0.16492419 0.034139022 -0.04341156 -0.08812184 -0.25095072 0.117173426 0.14670368 0.000798665 0.07445806 0.08196643 -0.1913482 -0.026920795 -0.0067693586 -0.036425814 0.011629644 -0.100374535 0.04534353 0.06428656 -0.20437115 -0.030241035 -0.10470533 0.03153755 0.15584579 0.033099137 0.06699356 -0.039324798 -0.2371752 -0.14634733 -0.17815717 0.19713458 -0.023345122 0.087022685 0.055708632 0.058027502 0.045957245 0.17179155 -0.08254695 0.30236256 0.31781805 0.1811059 -0.14834647 0.22067364 0.040748492 -0.051992327 -0.2443948 -0.03540847 -0.03541492 -0.17946254 0.25283256 0.025433548 -0.037412398 0.11331746 0.08447163 0.11589926 0.23501113 -0.10419015 0.057376508 -0.022073762 -0.19120763 0.032440037 -0.082275905 -0.5587549 -0.107222654 -0.12839545 0.11346572 0.25886545 0.10988024 -0.051868882 0.08413169 0.388326 0.21878451 0.250417 0.28408915 -0.017285338 0.075420685 -0.032709118 0.19812945 -0.33222485 -0.020022593 -0.22326097 0.3012847 0.1999118 -0.07285981 -0.004562302 0.048081085 0.19054179 -0.2340375 0.06904009 -0.09149723 0.0315179 0.03338322 -0.25463507 -0.28160018 0.080433525 -0.18286535 -0.4941544 0.26571792 0.01244813 0.03400361 0.071217835 0.08790183 -0.009167304 0.1587965 -0.058090277 0.10822023 -0.11995591 0.32914564 -0.030593876 -0.10438003 0.14526202 -0.14022359 -0.32438037 -0.060291253 0.13875897
40 0.17670776 -0.3823461 0.33911476 0.05604402 0.12818782 -0.11211345 0.25913438 0.04927242 0.025788663 -0.002088172 -0.0294516 -0.107273154 -0.27074498 0.07682832 0.067793004 -0.08999377 -0.06512261 -0.02291398 -0.10950308 0.13535766 0.21777122 0.107861735 -0.06647936 0.18389769 -0.15959412 0.047707167 -0.04223759 0.028189784 0.19372164 -0.14839481 -0.02353891 0.025375865 -0.26247042 -0.009099525 -0.034411136 -0.06699996 0.36007985 0.13065058 0.088307336 -0.20598184 -0.07118133 -0.13919228 -0.104272716 0.1694427 -0.15646075 0.17055418 0.27967873 0.10544405 0.10365201 0.2278917 -0.20107405 0.31694192 0.3466628 0.21198466 -0.05298244 0.08211843 0.09854196 -0.1463139 -0.14496097 0.09202913 -0.037313 0.03356702 0.18022473 0.097380765 -0.05133356 -0.027492264 0.066294804 0.1389727 0.20248309 -0.09560135 0.084484 0.19257765 -0.18959102 -0.073513925 -0.1981912 -0.40893298 -0.09201335 -0.1271169 0.06319248 0.26038253 0.07367033 -0.078282215 0.10278018 0.30331612 0.113385916 0.16573428 0.2392435 -0.120344155 0.105265684 -0.04692898 0.15024677 -0.3370882 0.19473894 -0.09052104 0.3382386 0.1717113 -0.03310573 -0.106196426 -0.09164787 0.13220109 -0.17805164 -0.020699272 -0.024109267 -0.19608647 0.09024691 -0.20891076 -0.21344846 0.052154977 -0.07569419 -0.35403806 0.31140247 0.118264206 0.1841602 0.18107092 0.18396322 0.08054211 -0.01006816 -0.08267618 0.14344655 -0.06951955 0.17551371 -0.14872354 0.14690901 -0.004471299 -0.09948827 -0.21104287 -0.044905063 0.09011836
392 0.25134325 -0.26600212 0.06377844 0.017074246 0.12307392 0.15933156 0.2699471 0.028766423 -0.035561226 0.01992337 0.034630988 -0.038214773 -0.17017148 0.06541839 0.1147168 -0.047312353 -0.13478744 -0.11081958 -0.15613526 0.07256611 0.20623212 0.07206448 -0.030522456 0.11514546 -0.19891481 0.0010822301 -0.026373873 -0.011195193 0.030768096 -0.11374456 0.07954044 0.12038039 -0.30343843 -0.021426823 -0.017344667 -0.048974343 0.016239794 -0.0075405105 0.008970826 -0.057715226 -0.24398938 -0.08324354 -0.1406181 0.21201314 -0.089684576 0.08249329 0.13723406 0.09944109 0.009087979 0.28974107 -0.05682271 0.29324585 0.2187341 0.23320301 -0.09298033 0.2688409 0.05188799 -0.04554115 -0.26387757 0.020745581 -0.17124511 -0.14032796 0.2429741 0.016836554 -0.124404505 0.027868604 0.13043693 0.05582606 0.25262305 0.0026115326 0.06814847 0.09405006 -0.2264405 0.06410755 -0.1197318 -0.46258143 -0.14795336 -0.16798294 0.1451533 0.18316735 0.14628635 -0.052603878 0.09501581 0.26470256 0.22115755 0.15718016 0.19258763 -0.0043839286 -0.000356797 0.006266955 0.17540169 -0.18924055 0.03821058 -0.248255 0.3326926 0.2044033 0.0062637217 -0.11180845 0.014433183 0.23993318 -0.2402927 0.05094761 -0.04038796 -0.070649706 0.11737931 -0.32012415 -0.20061688 0.14147156 -0.1872266 -0.47862747 0.23511276 0.048355553 0.068322286 0.042388838 0.14399593 -0.013333468 0.16964686 -0.11530419 0.14474201 -0.13093604 0.41009763 -0.028633285 -0.16292116 0.15504712 -0.23035567 -0.3721863 0.0073751067 0.08369626
378 0.14197993 -0.3339185 0.17970969 0.10277163 0.1687155 0.18498233 0.18281682 -0.070268646 0.045342896 0.01834085 -0.07954852 -0.08691422 -0.14586584 0.04421087 0.12247664 0.052183278 -0.06167428 0.12567413 -0.1953097 0.13893855 0.190544 0.0004167849 0.06559066 0.17245264 -0.29278988 -0.049563218 0.06946706 -0.07048613 0.07767245 -0.057323005 0.0943435 0.11297646 -0.41642535 0.012169408 -0.016970735 -0.0628628 0.23807013 0.023984822 0.0915959 -0.26038393 -0.15613256 -0.006927694 -0.15928972 0.22887981 -0.2032783 0.06371157 0.041066337 0.005189237 0.13731158 0.256761 -0.06561871 0.22901793 0.3449506 0.262326 -0.109387465 0.18106931 0.03097433 0.053720593 -0.10160312 0.04077067 -0.10817627 -0.15840685 0.37601936 0.097664036 -0.00035619925 0.07563014 0.10361375 -0.013391683 0.25248066 0.004533385 0.07591388 0.08545869 -0.12780209 0.094766214 -0.15690511 -0.66692424 -0.18652022 -0.18190601 0.04463737 0.2472443 0.2183712 0.018170362 0.0040603583 0.4050784 0.29505527 0.19655187 0.22627988 -0.03455422 0.1881194 -0.0025384855 0.22454071 -0.29131618 0.13591944 -0.2083047 0.3614432 0.17050055 -0.09411405 -0.1376592 -0.099349976 0.11555964 -0.16803943 0.12924132 -0.071862504 -0.114275366 0.124263786 -0.26855388 -0.23982242 -0.05588135 -0.16677476 -0.43368942 0.25026792 -0.031943906 0.00070761953 0.22643867 0.12644666 0.13812956 0.07113083 -0.16854116 0.08551654 -0.13570264 0.39937076 -0.1652685 0.0010729441 0.108830124 -0.13320623 -0.21202865 -0.099969424 0.11876005
254 0.20134069 -0.21006805 0.07741044 -0.041417804 0.14359584 0.15100141 0.29559937 -0.018132158 0.0012508472 0.008145455 0.088742405 -0.06667709 -0.11851487 0.10774689 0.082430296 0.052211624 -0.13492768 -0.17397478 -0.2083436 0.101236105 0.22168711 0.07236607 -0.01851957 0.06263626 -0.2238353 0.008495647 -0.012250262 -0.053371184 0.0597199 -0.05265643 0.015324696 0.09032568 -0.2048914 -0.09660807 0.058183007 0.028400745 0.070967995 0.09125773 0.0012151597 -0.08549879 -0.25659022 -0.09499436 -0.11346294 0.19375348 -0.09839585 0.09334116 0.20826769 0.066966064 0.08656201 0.24180408 -0.050225776 0.36711335 0.29627392 0.14312157 -0.13708758 0.14693438 0.013529424 -0.088691816 -0.26149622 0.046342675 -0.071383014 -0.11809609 0.15627344 0.010922112 -0.1287667 0.065573454 0.07095924 0.08305816 0.3067729 -0.0003250408 0.06374325 0.045968384 -0.25042295 0.0019759573 -0.055960186 -0.4791879 -0.07047561 -0.20283915 0.15342347 0.22613695 0.14079328 -0.105839 0.09181025 0.3704644 0.23543198 0.17985955 0.1673398 0.058835957 -0.0059617097 -0.07224351 0.19453794 -0.24898669 0.08007522 -0.21266238 0.3438391 0.21139991 0.01467014 -0.059064917 -0.04212372 0.105926484 -0.25210053 0.0019884177 -0.06081962 0.025199512 0.10661626 -0.19577725 -0.16551521 0.11077076 -0.14814842 -0.43959555 0.29143554 -0.028562194 0.05106754 0.018293621 0.150489 0.04882578 0.085202776 -0.09910899 0.07665682 -0.09899608 0.2883237 -0.10079982 -0.10924244 0.0444656 -0.18357173 -0.29078496 -0.023582196 0.067049
398 0.095512815 -0.28477904 0.24746343 -0.031245578 0.06878927 0.040054947 0.4661512 -0.22044738 0.24116093 0.042737857 0.051362243 -0.08336767 -0.3117746 0.26716775 0.052662615 -0.0031942446 -0.32131958 -0.05302794 -0.14983907 0.0634169 0.16467977 0.19320203 0.07309568 -0.057504527 -0.3239657 0.22299169 -0.16595516 0.19803855 0.025881153 -0.2833521 0.15640442 -0.28307253 -0.17208311 -0.08965793 0.08022461 -0.08995799 0.10751873 -0.06610227 0.1878253 -0.13961446 -0.22583088 -0.34502697 -0.13547474 -0.052820716 -0.05061477 0.11747443 -0.11516244 -0.00027493518 0.09091109 0.29012823 -0.3126994 -0.07626629 0.240565 0.2384227 -0.19606425 0.12679142 0.039375313 -0.17754582 -0.3036879 -0.06316663 0.031650446 0.005678901 -0.044210598 0.18911691 0.170257 -0.10865197 0.071484916 0.13340086 0.19094211 0.16924784 0.18809982 0.20236267 -0.24970284 0.1013834 0.027296888 -0.2768599 -0.19619939 -0.1364058 -0.04859028 0.21306846 0.022640426 -0.013815642 0.024817318 0.2783256 0.038178954 0.14917393 0.1228792 -0.026527863 -0.057850216 0.06310253 0.35033822 -0.36454824 -0.013984559 -0.14226633 0.22657892 0.20034076 -0.12133462 0.008655563 0.15580954 0.18392025 -0.13547507 -0.07836382 -0.26904386 -0.0069186385 -0.01034773 -0.18187855 -0.15398133 0.1174812 -0.00033418927 -0.1377642 0.17367171 0.10818005 0.20291826 0.07118832 0.14356856 -0.18774122 0.1180791 -0.013268498 -0.16808894 -0.2854688 0.1799383 -0.14709222 0.15450974 -0.03564844 -0.2647569 -0.17786849 0.13309483 0.21774308
4492 0.036648642 -0.13156852 0.23808981 0.025463857 0.07588115 -0.15017436 0.25906184 -0.19521779 0.005050399 -0.13507716 0.27610368 0.05842222 -0.18546666 -0.11447236 0.16087465 0.050694678 -0.32607588 -0.10252513 -0.18846785 0.22884318 0.11083843 0.22459298 0.019480271 -0.07554617 -0.24172218 0.122048125 -0.11689316 0.13812758 -0.0015767406 -0.037467364 0.25139254 0.2730963 0.05183671 -0.07431669 0.10764369 -0.25137052 0.3508065 -0.1543817 -0.07732836 0.07724959 -0.14292651 0.00042860967 -0.28766114 0.31703278 0.048917223 0.20006773 -0.08114178 -0.03055057 -0.07478808 0.20060806 -0.048853084 0.46974188 0.19425069 0.064200036 -0.08568851 0.016453013 0.015518926 -0.22384156 0.03650931 0.28980488 -0.12351813 -0.0378714 0.11265228 0.17378254 -0.13406676 -0.14086339 -0.15292051 0.07386102 0.013886596 0.22527942 0.010513926 0.1855743 -0.08597282 0.0062314398 0.10658226 -0.35997817 -0.17448914 -0.15542535 -0.0016882329 0.38133463 0.18015984 -0.061299544 0.07364439 0.33741152 0.096737385 0.12032728 0.12778501 -0.032637965 0.09435634 -0.047550984 0.12066496 -0.10983992 0.07616871 -0.3905295 0.18505298 0.16260557 -0.08531315 0.0549197 -0.037263915 0.21717955 -0.292024 -0.045226306 -0.09423566 -0.07424487 0.0002258309 -0.23422664 0.003379628 -0.14286244 -0.043776583 -0.11554699 0.34801382 -0.08135426 0.07557687 0.21646947 0.12190475 0.16161478 0.19047734 0.05445389 -0.07992755 -0.19402573 0.2066219 -0.13932802 0.11207899 -0.013720532 -0.17005695 0.029340042 -0.016803056 -0.07565283
312 0.21379207 -0.19873841 0.27277344 -0.01810753 0.1056712 -0.039278165 0.051526558 0.029158281 0.10680052 0.011940746 0.030329267 -0.17120895 -0.19392107 -0.107086696 0.10952528 -0.066481195 -0.10856241 -0.029108804 -0.21866836 0.17009008 0.19011596 0.070827946 0.0068017314 0.0022905793 -0.23482709 0.09962734 0.090486825 0.08635666 0.16467753 -0.17866063 0.024637172 0.08218513 -0.26915 -0.022829862 -0.123022154 -0.22430246 0.26226988 0.08656048 0.17871828 -0.07322981 -0.110658385 0.032457992 -0.0861961 0.22845587 -0.0640234 0.26280218 0.102037005 0.049580835 0.11675511 0.123631366 -0.06518873 0.23981145 0.15995039 0.19669907 -0.11794536 0.19266228 0.026403936 -0.13384499 -0.17931719 0.07432384 0.039753344 -0.02259474 0.18606524 0.20646878 -0.024600254 -0.021596253 0.043920677 0.03705218 0.20169193 -0.025845334 0.001195135 0.20314412 -0.11415112 0.001913768 -0.073158324 -0.37664744 0.0074634734 -0.028064918 0.1280689 0.30214956 0.22966228 -0.019331198 0.08578249 0.2875287 0.15605061 0.18302444 0.04906604 0.023957243 0.07094139 -0.03680846 0.22311963 -0.30115986 -0.039205763 -0.06758186 0.29572332 0.13183883 0.0060870606 -0.14423601 -0.018138159 0.122123584 -0.089407176 -0.011162612 -0.031919364 -0.13281986 -0.038938265 -0.2739339 -0.1782321 -0.072561435 -0.08182454 -0.21684478 0.29877728 0.0069237077 0.19884697 0.11018325 0.074063055 0.15255 -0.046609197 -0.21350782 0.08943908 -0.046628453 0.25777942 0.018100996 0.082028724 0.15385792 -0.17082344 -0.04302084 -0.076143265 -0.0102455625
52 0.101800784 -0.25079036 0.11385678 0.18681216 0.12587453 -0.08004759 0.2472613 -0.24905609 0.07475641 -0.11868782 0.049601037 -0.06360532 -0.2124238 -0.035918072 0.2404392 -0.021199012 -0.22151588 0.026101291 -0.073515214 -0.07601994 0.17548622 -0.040368915 -0.21388364 0.2316009 -0.30053866 -0.07437447 -0.045238793 0.14890133 0.041918617 -0.015704164 0.26015377 0.18180713 -0.38332862 -0.08499304 0.06796379 -0.13945656 0.13753644 0.07305909 0.09943267 -0.11499526 -0.07705017 0.3011579 0.013769411 0.35331744 0.001303876 0.25036755 -0.23138174 -0.058565088 0.09675254 0.38774413 -0.059002142 0.15430082 0.21623935 0.21019499 0.038408928 0.20625734 -0.024397966 -0.12592594 -0.20092183 0.13135672 -0.005291531 -0.09357601 0.09569045 0.03777014 -0.2509549 -0.018409653 0.0014548311 0.019421672 0.39836824 0.09847262 -0.018293614 -0.051857367 -0.21249108 -0.014202467 -0.1238098 -0.5719553 -0.21932313 -0.1550197 -0.09165521 0.10970344 0.2551483 -0.042171758 0.11168229 0.31260118 0.23814827 0.08057558 0.2553251 0.10823484 0.19206864 0.16771208 0.043300394 -0.23941126 -0.1365675 -0.44748765 0.37863854 0.061522808 0.1540043 -0.1997179 -0.101731434 0.2618127 -0.25637248 -0.016527323 -0.06762746 -0.11537183 0.10207217 -0.4137214 0.0015484707 -0.20655432 -0.04312701 -0.112179 0.23845652 0.026686601 0.18389072 0.092839256 0.1898574 0.03792031 0.109063275 -0.20204684 -0.11497247 -0.17453948 0.36331227 -0.14884809 -0.21401733 0.2628801 -0.21636297 -0.2798243 -0.21472861 -0.053407814
4440 -0.011542946 -0.06047993 0.35326204 0.077048786 0.02839497 0.060769007 0.082699694 -0.24657045 -0.08052511 -0.02015758 -0.022629 0.07251385 -0.055718448 -0.23864292 -0.057816356 0.14833239 -0.32696876 0.059301015 -0.25725666 0.10600842 0.2336874 0.1298758 0.05204686 0.113073125 -0.09084785 0.021299707 0.048081487 0.049573466 0.13219225 -0.14895266 0.22189121 0.31418708 0.05579471 0.15091972 -0.025340555 -0.318137 0.24898161 -0.045068193 0.04569501 -0.010103822 0.054118816 0.21801919 -0.026676381 0.03100816 -0.17059213 0.24905919 0.10618407 0.1865191 -0.15307307 0.20093687 0.14741687 0.34710723 0.06538205 0.22026792 -0.3117902 0.19280073 0.017965648 -0.3519423 -0.077680625 0.10916157 -0.06073094 -0.24403058 0.011864184 -0.18657619 -0.118518375 -0.21657954 0.17676577 -0.044875655 -0.021347523 0.030640153 -0.023720246 0.16370136 -0.14003633 0.07245145 -0.102037996 -0.3129772 0.068473674 -0.39046985 -0.20910494 0.30929863 0.0580837 -0.08194127 0.13911572 0.05909838 0.1501263 -0.20213036 0.007114088 0.17178597 0.15276249 -0.15129106 -0.06686523 -0.19553006 0.08560202 -0.38193882 0.16965064 -0.029176248 -0.014287009 0.023675282 -0.33222827 -0.04259367 -0.24102578 -0.04748941 0.014840235 -0.11831954 0.009257797 -0.10354767 -0.060118813 -0.1110859 0.027426478 -0.25709662 0.16216229 -0.14299618 -0.06993536 0.02932562 0.06543311 0.27046233 0.030638393 -0.028259316 -0.042876255 -0.21857695 0.34412867 -0.3542795 -0.13773939 0.3901981 -0.088485494 -0.17573552 0.1120333 -0.15334353
121 0.23113476 -0.35772708 0.20882992 0.050962746 0.122957155 -0.3203201 0.19300818 0.16072682 0.011360267 0.018017013 0.16227998 -0.047321714 -0.2078731 0.0022831208 0.0390088 -0.06561377 -0.36285967 -0.1688993 -0.23672214 0.13417281 0.19550233 0.24965721 0.029312849 0.15201804 -0.10741921 0.07188281 0.039173655 0.051768225 0.19927119 -0.062843084 0.13981873 0.2531605 -0.024036631 0.0057131117 -0.1783202 -0.24847196 0.2992885 -0.02551587 0.111125015 0.04749437 -0.188483 0.16315986 -0.13204846 0.364256 -0.10822883 0.16538677 0.16401044 0.14808223 -0.04859476 0.15761694 -0.1065345 0.48810267 0.2600848 0.065741494 -0.036767974 0.0647173 0.08146139 -0.1374446 -0.05815464 0.41382012 -0.20435001 0.018075017 0.09949287 0.22101314 -0.08274886 -0.11295359 -0.101226784 0.07804495 0.07881556 0.050507233 0.015848141 0.14219455 -0.031108497 -0.17986201 -0.073777914 -0.21994226 -0.073146954 -0.22308657 -0.026965097 0.15435714 -0.04482341 0.05414437 0.22878066 0.13616833 0.11711833 0.054802407 0.1655317 -0.28110948 -0.012164637 -0.10573627 0.15851337 -0.09815259 0.12835816 -0.25037277 0.17739889 0.2595285 0.045106687 0.07236736 -0.017598415 0.17094882 -0.29581657 0.14962386 -0.10930351 -0.40066805 -0.00034328195 -0.5174478 -0.13826321 0.031488437 -0.20706967 -0.38694602 0.31991524 0.09636969 0.17511825 0.13802335 0.23355754 0.0175268 -0.07020134 -0.047214165 0.04879427 -0.07049695 0.2586368 0.120231874 0.12198341 0.17419803 -0.011631437 -0.0013282318 -0.12984069 0.058740817
383 0.106827565 -0.15734707 0.07963165 -0.034432895 0.08302132 0.101132505 0.060367353 -0.19699085 0.08948332 -0.17730334 0.12071166 -0.106891766 -0.22487465 -0.08284102 0.0783243 -0.047683313 -0.16988462 -0.2282667 -0.23897232 0.15651494 0.028410533 -0.119963564 0.0030833115 0.0669158 -0.17800274 0.031575218 -0.0040389732 0.012590201 0.03036754 -0.097488835 0.24041396 0.0074139256 -0.30840787 -0.090360105 -0.05710463 -0.34601533 0.1682444 -0.03594476 0.01583361 0.0730132 -0.30932957 0.07810454 -0.06707246 0.22592472 0.06690033 0.25857782 0.09193004 -0.033325825 0.13796945 0.2289188 -0.04699385 0.30868837 0.025103658 0.057828266 -0.23934409 0.282728 0.10613081 -0.28667557 -0.17919998 0.28544447 -0.08257381 -0.0708199 0.11718272 0.22807005 -0.06764601 -0.019718371 -0.1738798 0.106542476 0.20095138 -0.09059382 0.032894656 0.07221124 -0.17356914 0.04306622 0.032100514 -0.4158273 -0.08837081 -0.08784252 -0.108109124 0.34945273 0.12617859 0.0142417075 0.15299813 0.23620714 -0.078355305 0.153233 0.1690856 0.19743401 0.012333144 0.035436485 0.013649233 -0.18837263 -0.10881929 -0.17826995 0.33764368 0.15824422 0.2156693 0.009305308 -0.094564326 0.23157863 -0.19365647 0.13149261 -0.14226629 -0.17702706 -0.08913614 -0.43421245 -0.13518852 -0.03831366 -0.006117249 -0.17722285 0.23158741 -0.06842083 0.16630603 0.05437692 0.16899347 0.010756983 0.07337604 -0.1262907 0.14533821 -0.124097854 0.34411135 0.012412055 -0.14651597 0.2007936 -0.07820272 -0.31659475 -0.01735672 -0.044494584
69 0.20565176 -0.20120546 0.121433035 0.0003967057 0.16561031 0.17767413 0.36959714 -0.05996431 0.005209753 -0.08442928 0.20929015 -0.13652858 -0.21476671 0.19807869 0.2069866 0.027215896 -0.08549111 -0.13715279 -0.18591952 0.09683024 0.26907474 0.17922229 0.01100716 0.051444814 -0.31887832 0.0061597503 -0.008576588 -0.03944985 0.09127873 -0.09664756 0.047385804 -0.032668725 -0.20703195 -0.15002885 0.04878515 0.17409481 0.10567452 0.08218283 0.031121591 -0.09592579 -0.27327195 -0.24043499 -0.12250111 0.22334212 0.01544056 0.029733386 0.11013488 0.0044185235 0.023079962 0.2420985 -0.106582195 0.3805021 0.3465934 0.101641476 -0.12378118 0.17109685 -0.028294241 -0.09785747 -0.28672436 0.019365806 -0.049045935 -0.15009677 0.17733335 -0.022476021 -0.078085706 0.10196049 0.0757108 0.091440104 0.2344725 -0.034919612 0.06881397 0.044761185 -0.2935124 0.08723687 -0.032736287 -0.48983032 -0.09526836 -0.11871199 0.20633143 0.27140734 0.14252496 -0.08446292 0.070469975 0.3940056 0.32234883 0.21618064 0.24679047 0.039866775 -0.0027748283 -0.06516835 0.23828574 -0.26071465 0.09118103 -0.20927554 0.36084303 0.2216123 -0.03403867 -0.037172288 0.006606089 0.18693598 -0.2293227 0.022558838 -0.074950114 0.06169236 0.08562378 -0.1341175 -0.16754393 0.09876245 -0.22118884 -0.40608552 0.30861628 0.019407175 0.054820888 0.03762127 0.09190472 -0.043643 0.1476572 -0.015154575 0.052669425 -0.17892246 0.31595856 -0.03375749 -0.104636095 -0.034653664 -0.15805286 -0.34157032 -0.012541742 0.07369912
45 0.14703855 -0.4196012 0.14739002 0.07040674 0.3719826 -0.09759033 0.013603136 0.0014938785 -0.025393095 0.21908402 0.16576809 0.067430906 -0.12554249 -0.14512269 0.16983473 -0.27213344 -0.09192588 0.06790116 -0.4786803 0.18554875 0.06266726 0.0684598 -0.03457508 -0.06455377 -0.47234523 -0.08118623 -0.24619949 0.043211803 0.2399412 0.1478698 0.14108482 0.13209274 -0.08006149 0.2431111 -0.21980467 -0.2713743 0.56047 -0.06330719 -0.012006922 0.0745374 -0.31348017 -0.03248022 -0.14126246 0.09924486 0.29006186 0.30216867 -0.29974246 0.23787603 -0.2111525 -0.046499405 0.0014296753 0.3738558 -0.38153175 -0.16030295 -0.4204184 0.08531665 0.011294739 -0.22583446 0.26712683 0.25322223 -0.31874615 0.27618012 0.16437855 0.12032427 -0.0029787924 0.2109966 0.21712585 -0.06972768 0.07020878 -0.19706336 -0.3447551 -0.09002484 -0.16245121 -0.025272634 0.18271753 0.014052653 -0.030738903 -0.24368194 0.043074977 0.012916382 0.084180616 0.106446676 -0.042485237 0.28375828 0.18710355 0.22816499 0.24855483 -0.017249364 0.059956804 -0.07523217 0.2534161 -0.15881601 0.17823403 -0.016425256 0.09256642 0.08634983 0.007138612 0.1550602 -0.027974322 0.31031615 -0.016933864 0.2923019 0.07770378 0.0064600883 0.122400165 -0.16927254 0.0028614614 -0.43864906 -0.25818306 -0.050555337 0.15986566 -0.046475593 0.19110827 0.14386186 0.15886176 0.5098929 -0.043458167 0.039746158 -0.1887481 -0.15475594 0.17368685 -0.13190371 0.15943918 0.22977282 0.3533342 0.3697923 0.0036450485 -0.098787114
73 0.07365375 -0.21257181 0.17531154 0.04481525 0.1186409 0.018547926 0.22388476 -0.12452979 0.049581524 -0.0001233753 0.03498863 -0.09205802 -0.18754919 -0.040704936 0.15011941 -0.066481546 -0.1427648 0.04598502 -0.1885488 0.099981695 0.19141665 0.13084042 0.048470262 0.03270243 -0.31098104 0.091043316 -0.05315425 0.030649455 0.07717893 -0.15170382 0.14328028 0.05255078 -0.3103786 -0.0066981143 -0.007258481 -0.103240944 0.14124358 -0.05520769 0.097975396 -0.10490894 -0.20098355 -0.046527777 -0.1302391 0.20625554 -0.10430827 0.13530664 -0.06548485 -0.031018367 0.042316347 0.27533227 -0.08102117 0.18895991 0.22520386 0.3058878 -0.07577109 0.23309252 0.021231394 -0.05716068 -0.2134554 0.004396995 -0.0604598 -0.13679865 0.20964009 0.0063239955 -0.00958209 -0.032380957 0.12650289 0.044508524 0.25013775 0.12196878 0.10062 0.10005421 -0.24243937 0.07714541 -0.09569354 -0.41177848 -0.15809508 -0.1680433 0.02362234 0.20429872 0.13513027 0.019947905 0.04692967 0.22640765 0.24630071 0.11361784 0.08910901 -0.0034954012 0.052601118 0.0346631 0.19997503 -0.2659477 0.0370158 -0.28032237 0.2055122 0.115311876 -0.07007563 -0.12858391 -0.025864942 0.20978037 -0.16413148 0.011222595 -0.060154933 -0.09331362 0.064470954 -0.31184423 -0.12348771 -0.024463063 -0.083164 -0.35027516 0.19844037 0.030975394 0.12260997 0.15485518 0.08360084 0.012508708 0.05781961 -0.15338407 0.03312213 -0.20904034 0.3414636 -0.10050503 -0.048968334 0.20258982 -0.2509429 -0.215899 -0.06212556 0.041572813
302 0.20982286 -0.25555888 0.20618296 0.0005666011 0.15673585 -0.009312347 0.026474094 -0.08491181 0.15306711 -0.084584944 0.1518033 -0.15117536 -0.314576 -0.020014692 0.23559102 -0.16338977 0.023255156 -0.09046566 -0.3430959 0.22779709 0.12977308 -0.004734949 0.087912865 0.09182784 -0.3334049 0.054051504 0.096508995 0.06771009 0.060503423 -0.053750876 -0.046275456 -0.03105693 -0.29790848 -0.078720614 -0.17995514 -0.23357531 0.24337931 0.07541541 0.15496196 -0.05800783 -0.29815453 -0.1665064 -0.0902238 0.3025203 0.057366773 0.33718145 0.06625758 -0.010541561 0.14477614 0.15332018 -0.103413925 0.21831165 0.13218164 0.098758765 -0.22084314 0.18446769 0.047110178 -0.19859861 -0.20061138 0.16815034 -0.009233329 -0.005463766 0.12529734 0.2507233 0.024257846 0.03935095 -0.06200718 0.06490081 0.20360532 0.07551196 -0.043421153 0.14559859 -0.1380858 -0.076419964 0.043063086 -0.34272128 -0.029527353 -0.012664059 0.07613671 0.30001196 0.14906238 -0.010482529 0.06613127 0.36365235 0.074617416 0.063550845 0.22595483 0.05420011 0.0032005038 0.019843737 0.21549077 -0.39350337 -0.010916367 -0.10736603 0.25456098 0.16147543 0.08059871 -0.010255269 0.11977348 0.1136333 -0.23929985 0.031137021 -0.058503635 0.001183184 -0.09452494 -0.36833754 -0.22530617 -0.07542368 -0.13906379 -0.2062448 0.23982544 -0.020224629 0.2661353 0.10840669 0.112049244 0.11973978 0.102277026 -0.048929516 0.09268748 -0.22831205 0.34240934 0.01490942 0.0025287822 0.28429824 -0.09199332 -0.15686306 -0.09634569 0.032468252
4494 0.032804053 -0.19920017 0.28316435 0.039045352 -0.07983337 -0.24726184 0.30988806 -0.09047755 0.22030656 0.005418999 -0.04934596 -0.2337449 -0.23247802 0.029000787 0.095473655 -0.015208276 -0.2486539 0.00929093 -0.09398627 0.18874307 0.16520314 0.2936098 0.006231167 0.08223814 -0.17498982 0.078646064 -0.15091725 0.108154334 0.22968711 -0.29251975 0.09989938 -0.31359124 -0.2985172 0.045153365 0.043581 -0.21901102 0.13234758 -0.07119869 0.13221137 -0.1436645 -0.3342724 -0.15171121 -0.16538157 -0.03528485 -0.062315248 0.13640721 -0.03671009 -0.212132 0.103975244 0.3836006 -0.06306526 0.061975487 0.18621577 0.009341107 0.065247454 0.10836382 0.24709854 -0.16913998 -0.082613245 0.107370764 0.0431732 0.015111778 0.1360451 0.21514224 0.12132896 -0.01056557 0.037446998 0.07194022 -0.019926533 -0.05249164 0.20107603 0.247713 -0.3980152 0.10314945 0.017896907 -0.4109027 -0.15187377 -0.11316345 -0.18483241 0.3561415 0.23022166 0.025750974 0.031983778 0.25185108 0.077636406 0.04769157 0.1658508 -0.106653094 0.21277386 0.12622939 0.113973185 -0.11577642 0.2520115 -0.18626085 0.25380212 -0.01686461 0.026830422 0.07406739 -0.21169668 0.19143873 -0.1102062 0.16469501 -0.096518934 -0.17877647 0.086195126 -0.21319266 -0.1451385 -0.024929842 0.02412854 -0.19826098 0.36858383 0.15080662 0.13139768 0.22024783 -0.04323863 0.13423064 0.027219918 -0.087522425 0.10994207 -0.081423804 0.1748179 0.030127497 0.1724508 -0.025438983 -0.13903177 -0.24708007 0.09848426 0.15246056
304 0.17331277 -0.26448473 0.11036852 0.12202501 0.24153353 -0.14330606 0.10222827 0.07900964 0.0068353503 0.08829573 0.10528121 -0.058900844 -0.16947696 -0.23430398 0.119352214 -0.030349746 -0.1792137 -0.050193828 -0.28739145 0.31324604 0.11637289 0.12581736 0.12038634 -0.03249796 -0.3399481 -0.07562204 -0.059618082 0.12614916 -0.032046426 0.012389845 0.2771103 0.14533721 -0.12805782 0.21433501 -0.061757647 -0.14320947 0.49038392 -0.09350207 0.09105863 -0.03065977 -0.21178682 0.0743556 -0.31886497 0.37215436 0.09931935 0.37309286 0.08237508 0.16822009 -0.02033822 -0.07881436 -0.09028213 0.3493455 -0.22805358 -0.067715146 -0.083166845 0.081561215 0.041767992 -0.34695265 0.14715767 0.32498533 -0.0832434 0.038360797 0.14579928 0.30169553 -0.027419157 -0.035755713 0.037941802 -0.07325763 0.23154564 0.20230573 0.024956461 0.16652612 -0.029209996 0.10714099 0.13475215 -0.3306703 -0.14550449 -0.20739618 0.1486849 0.12082067 0.10852194 -0.07416332 0.17364123 0.25312278 0.14139545 0.25258663 -0.014175172 0.022522565 0.056205433 -0.12283259 0.14422117 0.0073870965 -0.014239845 -0.056838837 0.08262886 0.29664767 -0.07169437 0.23798166 0.090671174 0.24064112 -0.053129412 -0.026923874 0.104922935 -0.10226307 0.04368661 -0.32941413 -0.006206008 -0.17565757 -0.26092628 -0.11144695 0.23399584 0.15558578 0.20377259 0.21550938 0.27404776 0.24128802 0.102220654 0.020099271 0.01910382 -0.05716968 0.17198437 -0.11091884 0.22704452 0.16297056 -0.08249703 0.2100276 0.04662364 0.08369672
316 0.14785951 -0.17619346 0.24038789 -0.06745215 0.038592 -0.07639131 0.0615755 -0.07500645 0.09806509 -0.09916013 0.17498542 -0.1901211 -0.28435072 -0.0544485 0.22482769 -0.059385426 -0.02488293 -0.033105105 -0.15754491 0.14638735 0.15954173 0.12188865 0.06746767 0.030144062 -0.34847242 0.06522729 0.04766089 0.17962785 0.16482756 -0.17439719 0.02472723 -0.044302054 -0.30286375 -0.029496526 -0.09722664 -0.1681358 0.2865244 0.059712116 0.11669868 -0.019385686 -0.22315621 -0.18739145 -0.0770104 0.2058287 0.036162525 0.30043226 -0.07684918 -0.09083838 0.083137415 0.25479734 -0.10072842 0.14372933 0.21141033 0.30012 -0.07615172 0.28931263 0.03606063 -0.19510792 -0.24246125 0.0620525 0.049973913 0.022422243 0.1298624 0.00783489 -0.078469045 -0.09597424 0.07048404 0.08439697 0.19976035 0.14618658 0.034928326 0.16253665 -0.23536766 0.01865055 -0.06628223 -0.39872292 -0.034536693 0.025156952 0.054021865 0.3450854 0.21841086 -0.044941857 -0.011481988 0.34091726 0.21263963 0.030883888 0.14385478 0.0043809335 -0.037180174 0.055568475 0.2065664 -0.42315724 -0.04445539 -0.22341374 0.29313436 0.14297366 0.025269333 -0.10236848 0.054728135 0.16658926 -0.2023556 -0.046395738 -0.010719643 -0.01392737 0.04205027 -0.36628166 -0.2115126 0.011554295 -0.11416059 -0.29262543 0.29755607 -0.058890127 0.20152934 0.16715807 0.024968535 0.1328143 0.07409731 -0.11113901 0.017127825 -0.24743935 0.3554384 -0.010042987 -0.08593605 0.2391376 -0.15726978 -0.19008866 -0.1415697 0.0412743
253 0.34324434 -0.36295605 0.22315039 0.17102875 0.013742869 -0.016448068 0.111067094 0.18820895 0.1060556 0.07606593 0.087363236 -0.17991859 -0.16045338 -0.3166517 0.16480924 -0.122222394 -0.050285283 -0.2842182 -0.22512968 0.15235417 0.23446693 0.30442718 0.30653644 0.0010419689 -0.06436769 -0.0075888704 0.15059003 0.11552095 -0.19740807 -0.2950829 0.01880992 0.081479326 -0.15477273 0.19188371 -0.2002885 -0.091736875 0.28637466 -0.13825424 0.24917977 0.104565576 -0.11718843 -0.19908953 -0.428546 0.16019219 -0.02246446 0.29427913 0.15068248 0.13737273 0.042963933 -0.008761463 -0.005716833 0.19590016 -0.26130304 0.21664287 -0.20223989 0.18445812 0.063238636 -0.3711392 -0.17819366 0.23134278 -0.12500405 -0.19773832 0.3674073 0.13898805 0.14570321 -0.1563878 0.17840727 -0.0027908832 0.11603351 0.06376678 0.024944736 0.17054164 -0.22805633 -0.0783469 -0.04838211 -0.38723448 -0.02868237 -0.12729879 0.2966959 0.16398418 0.055046007 -0.17702654 0.22372386 0.1961792 0.13875243 0.10019783 0.061330803 -0.06561681 0.06041249 -0.19153598 -0.038048726 0.181064 -0.037625562 -0.005775926 -0.15627694 0.2486553 -0.10589601 0.09171202 0.19512995 0.041422613 -0.14771952 -0.021606086 0.12981217 0.111414276 0.056501035 -0.45677727 -0.10435099 0.12123954 -0.103408664 -0.3148155 0.23188655 0.23614712 0.119627304 0.03082556 0.14717782 0.3997742 0.26276052 -0.05476641 0.2775532 -0.067419715 0.16930483 -0.17645195 0.16061148 0.36190245 -0.2440592 -0.08442778 0.1619789 0.10110936
345 0.2615305 -0.18985611 0.02600113 0.043551426 0.106098525 0.22675402 0.2796683 -0.026255114 -0.10011913 -0.055741195 0.12791796 0.009355187 -0.09941478 0.19357778 0.16948989 -0.01219568 0.00020370646 -0.19272146 -0.1995557 0.1134149 0.2370672 0.037009396 -0.024219321 0.12382521 -0.24845979 -0.009036822 -0.02352028 -0.12272197 0.020796958 -0.021208756 -0.025732381 0.17324483 -0.22460055 -0.11114706 0.12582487 0.07125267 0.13416795 0.12148645 0.00076965353 -0.07132805 -0.16827144 -0.13799945 -0.11003106 0.3305507 -0.121940956 0.07164886 0.1660006 0.12726587 0.05085212 0.2544591 -0.09360481 0.3944972 0.2990504 0.15881726 -0.071302205 0.16631183 -0.015246221 -0.053231426 -0.21133566 0.081046365 -0.119225904 -0.13635264 0.188642 -0.031403482 -0.14530069 0.06282048 0.073717505 0.051410474 0.2971236 0.017129866 0.07509612 0.032262314 -0.19178689 -0.04722055 -0.0704495 -0.5110384 -0.0816184 -0.09398039 0.2754739 0.26444194 0.17274855 -0.12804022 0.09477952 0.4346065 0.28921252 0.18087137 0.14096813 0.05196177 0.037957396 -0.09107874 0.21281062 -0.25933725 0.08008007 -0.22274208 0.4109912 0.24564672 0.04316959 -0.11269489 -0.07177767 0.15775736 -0.27523023 0.05046875 -0.06759464 0.06581217 0.14470354 -0.2689852 -0.14594014 0.13346797 -0.14442998 -0.43587938 0.29723495 0.027143555 0.037461683 0.064550325 0.14084055 0.10392985 0.16707712 -0.05156201 0.13367185 -0.10383338 0.25839382 -0.11753032 -0.15261278 -0.0064720516 -0.18125483 -0.33378458 -0.03513389 0.0009738864
4450 0.28254482 -0.19945562 0.11529838 0.04904969 0.11889182 0.15497229 0.25324014 -0.118578136 -0.07094649 -0.08417796 0.12800528 -0.09528251 -0.2040329 0.092246324 0.2049874 0.012050665 -0.07690093 -0.1623657 -0.18386813 0.1429377 0.25075433 0.08821022 -0.015877316 0.11854669 -0.24097964 0.04850044 0.02075025 -0.03927085 0.07674433 -0.10947402 0.012745416 0.11805999 -0.20763122 -0.11339032 0.084545836 -0.023007832 0.099738136 0.0690168 -0.0249581 -0.0201499 -0.23770267 -0.12283408 -0.14481476 0.26727936 0.00452966 0.1370734 0.13988121 0.08927986 0.08924877 0.2398453 -0.07903525 0.43199766 0.26064822 0.2056826 -0.18632801 0.23520531 -0.008797567 -0.11857609 -0.27181625 -0.022966161 -0.063756816 -0.16666692 0.19959855 -0.018444741 -0.046998885 0.047219776 0.14453924 0.048582986 0.21522926 -0.046171818 0.05003136 0.10248254 -0.16311838 0.034269914 -0.09491707 -0.46012262 -0.118973 -0.13585973 0.15501143 0.37157682 0.14329441 -0.11889647 0.09622109 0.4035894 0.18851519 0.13361341 0.22146043 0.020354578 0.02848434 -0.042016532 0.16266087 -0.37040383 0.04711813 -0.1882428 0.34706485 0.24119507 -0.05096643 -0.04413145 -0.025496257 0.15995634 -0.2670345 0.05193996 -0.06688438 0.053052094 0.047543716 -0.17304638 -0.1781222 0.025826009 -0.13048199 -0.43058756 0.28481346 -0.03612493 0.09565393 0.049103893 0.11548049 0.072168276 0.10714568 -0.08459962 0.0025336146 -0.14369042 0.39714146 -0.055484813 -0.08190354 0.09360859 -0.17946716 -0.23538435 0.0041500106 0.10225717
250 0.15993571 -0.13196214 0.102336064 -0.0688194 0.046399865 0.34778073 0.18295938 -0.11772568 -0.12746127 -0.13561326 0.23994026 -0.07969051 -0.23100379 0.13941246 0.06354393 0.11011215 -0.2437618 -0.22125302 -0.23734996 0.229549 0.06943786 -0.17298296 0.024523126 0.0696453 -0.11377545 0.049739048 0.014102682 -0.009559276 0.011693358 -0.15696114 0.18748172 0.0817072 -0.19662671 -0.11609116 -0.039000224 -0.21609043 0.15873846 -0.09856261 0.00043102982 0.17579821 -0.21020085 -0.0046661454 -0.11443003 0.17136265 0.077696756 0.21224876 0.051350676 0.11573908 0.08845537 0.21052141 -0.037848372 0.40352663 0.15999635 0.05724988 -0.36800623 0.3089323 0.08005009 -0.28584796 -0.25283334 0.18932474 -0.053494476 -0.14501865 0.13421762 0.16504073 0.030938575 -0.02157592 -0.070263475 0.14675346 0.15386513 -0.21909949 0.025930213 0.0055039 -0.12210469 0.078398265 0.028741553 -0.44381785 -0.09200314 -0.089836314 -0.10196488 0.36340812 -0.047767814 -0.0103809815 0.091200545 0.26660383 -0.053222768 0.19571601 0.16994499 0.17352338 -0.063680984 -0.020572549 0.04004536 -0.21748936 -0.13388047 -0.21361579 0.25720984 0.16691704 0.056655295 0.09002441 -0.10024447 0.21442915 -0.260051 0.2058453 -0.22234516 -0.10311855 -0.14748043 -0.30867445 -0.19695759 0.10181284 -0.0152033195 -0.29624385 0.16965622 -0.21762732 0.021969505 -0.028606273 0.10022036 -0.06902708 0.13741727 0.04696882 0.044161055 -0.20935735 0.43223128 0.05594778 -0.23738633 0.13043368 -0.1182305 -0.36257234 -0.020702342 0.07688317
93 0.08415964 -0.3377647 0.21975431 0.0713962 0.14102496 0.026058959 0.09615196 -0.16822036 0.10886364 0.02047054 -0.15015991 -0.1135674 -0.14934929 -0.06747912 0.10800657 0.06317431 0.0068443185 0.042441837 -0.1919596 0.2434701 0.24161345 -0.10679678 0.059755772 0.13895558 -0.34353548 0.0019483275 0.03788959 0.027102983 0.09494327 -0.06940025 0.114097305 0.038067598 -0.47806624 -0.1145422 -0.032734945 -0.13673246 0.2823193 0.03730414 0.12580256 -0.19735248 -0.114612825 0.022890395 -0.083902374 0.21415295 -0.18249464 0.21114266 0.062817 -0.0152077405 0.22758478 0.2002988 -0.108999565 0.19095235 0.29648107 0.2181414 -0.081861496 0.13326585 -0.0027684919 -0.0063817874 -0.1433218 0.0815341 0.017097967 -0.11267776 0.29831368 0.24520072 0.058988422 0.0033662156 0.09015391 0.0004644725 0.260231 -0.02477539 0.08389111 0.085366815 -0.12309464 -0.058990408 -0.14649197 -0.63749325 -0.1458736 -0.034840673 0.07250132 0.29694772 0.16741572 0.014606647 0.011319177 0.36114585 0.18436265 0.21414416 0.08675031 0.07246208 0.15282682 -0.029198635 0.16637012 -0.27418166 0.10725862 -0.20056564 0.33875936 0.22117308 -0.036902368 -0.20401292 -0.029500801 0.09735255 -0.12719032 0.008900192 -0.11149203 -0.13852383 0.027780442 -0.26645228 -0.19392672 -0.13913824 0.012851773 -0.2692693 0.20796546 -0.002092196 0.063728645 0.17281772 0.1009254 0.20307878 0.019907996 -0.14936382 0.07612454 -0.09344595 0.28241253 -0.28219238 -2.6510752e-06 0.17911552 -0.18954171 -0.14991319 -0.121368736 0.07887736
298 0.10484346 -0.120378055 0.12919487 0.11273204 0.12267399 0.23641905 0.15707059 -0.15074228 0.028127111 -0.14297129 0.094534285 -0.12374175 -0.17179556 0.065669805 0.03870211 -0.23144408 -0.18947129 -0.17277525 -0.18663275 0.07122261 0.044118922 -0.14934689 -0.035177946 0.12842906 -0.2068684 -0.066593945 0.11250315 0.017941114 -0.05063026 -0.17099966 0.36084285 -0.12336918 -0.35037428 -0.061795566 0.04491201 -0.39895368 0.07539863 -0.07211828 0.093450256 -0.047894493 -0.23741613 -0.15129356 -0.14706661 0.2503458 0.08420427 0.26061052 0.057720456 -0.036832273 0.25240415 0.4260738 -0.07799664 0.19081232 -0.0029391604 0.07677645 -0.25893122 0.24125901 0.081949815 -0.35931623 -0.20662288 0.15936911 -0.093526974 0.015038487 0.086226486 0.3914983 -0.034237806 -0.028191375 -0.13307396 0.1417594 0.18222612 -0.039385512 -0.100393906 0.15449971 -0.05598829 0.1127264 -0.0022780462 -0.43679956 -0.18447243 0.033914205 -0.2234058 0.28950968 0.19374229 0.08113893 0.076549046 0.3589629 -0.2019159 0.00046265993 0.3091815 0.26397243 0.05939997 0.11644429 -0.016414704 -0.22534274 -0.21256797 -0.11686939 0.3479909 0.1816402 0.12504026 0.023716517 0.0100659365 0.40436932 -0.14094414 0.247774 -0.25344196 -0.18730323 -0.18084845 -0.29759845 -0.23642236 0.062091686 0.013277482 0.007467343 0.19788338 -0.008000399 0.14316867 -0.055412643 0.13988538 0.07742234 0.078981295 -0.08133067 0.11295418 -0.17875628 0.43587467 0.16208442 -0.12293558 0.12949592 -0.15628871 -0.3512156 0.025738787 0.02275972
89 0.019704996 -0.19409727 0.15402925 0.17170547 0.12491984 -0.08465526 0.08981511 -0.16237928 -0.15489937 0.0056451247 -0.017265147 0.026037944 -0.11960795 -0.17897668 0.0024555938 -0.023678679 -0.5242426 0.030456685 -0.275296 0.13048902 0.14242986 0.095866315 -0.07209784 0.18378218 -0.24845709 0.102708295 -0.10295121 0.08712412 0.016671874 0.095714904 0.2705609 0.34470734 -0.0007880092 0.04244542 0.067712456 -0.38723868 0.19420537 -0.13581067 -0.021241996 -0.10765489 -0.12835841 0.23278777 -0.043289833 0.21893544 -0.13356462 0.22311172 -0.065467186 0.06009612 -0.12358205 0.39983892 0.009815852 0.2744111 0.13194446 0.045267295 -0.144175 0.078752734 0.14926246 -0.16813546 0.11394428 0.19026056 -0.08374094 -0.06970428 0.019248018 0.119878575 -0.07841584 -0.091254376 0.041830346 -0.03335201 0.18624657 0.16029957 0.040826857 0.082474 -0.17376012 -0.040339828 0.01599131 -0.31441355 -0.18947825 -0.40018544 -0.21265957 0.11810288 0.07198002 -0.008015787 0.20005769 0.14155872 0.115621835 -0.070554905 0.07587663 -0.010091094 0.16764168 -0.1380766 0.12717153 -0.10549534 0.12859277 -0.49424446 0.18732998 0.11762403 0.01257821 0.0630249 -0.32140762 0.032730944 -0.48452824 0.14643492 -0.117803775 -0.19714066 0.109475404 -0.43385163 0.09427542 -0.2354465 -0.12404899 -0.30211332 0.21705994 0.025500197 0.029653942 0.2593385 0.24740554 0.08077265 0.09574296 0.050709706 -0.17064348 -0.29127175 0.3233181 -0.3311697 -0.004377385 0.28536272 -0.18565536 -0.044017557 0.004660155 0.06111143
441 0.032698665 -0.26806578 0.13548729 0.12821619 0.027270792 -0.36014423 0.18710397 0.067672834 -0.16019996 -0.012887348 0.17446458 -0.0185147 0.0145809855 -0.0250364 0.012539017 0.019811016 -0.27700934 -0.11713896 -0.16124068 0.31061202 0.10882154 0.14729582 0.05615062 0.21238193 -0.23186976 -0.12811531 -0.036394548 0.20190217 0.043510616 -0.16186358 0.3732135 0.25836927 -0.046720784 0.0630728 0.040375758 -0.09793617 0.40782815 0.058376748 0.08414169 0.011941255 0.014856496 0.23623583 -0.13476914 0.2517434 0.04729903 0.44924295 -0.015604194 0.07690996 -0.15413961 0.22738871 -0.051579554 0.37057185 0.033601034 0.058795866 0.08732396 0.1639425 0.036620144 -0.36972657 0.30549902 0.3428281 -0.048241887 -0.031513844 -0.05920073 0.27824336 -0.18131457 -0.2104707 0.011650038 0.12415348 -0.021038542 0.30645075 -0.017031481 -0.11734765 -0.18979582 0.07057978 -0.034013122 -0.38493198 -0.22956719 -0.049059987 -0.0756208 0.10281493 0.021129921 -0.09573176 0.12805799 0.13436446 0.17865536 0.059903942 -0.029044284 -0.14179966 0.2291237 -0.15188205 -0.124903485 0.062374208 0.060332634 -0.32552576 0.16457997 0.25612375 -0.18449545 0.24075896 -0.123325184 0.37453935 -0.17616057 -0.030202635 0.11158791 -0.22760457 0.09768611 -0.3522933 0.0055192914 0.1180495 -0.011042376 -0.116275825 0.37562615 0.12279423 0.07020241 0.20185046 0.24178551 0.44162992 0.018895218 0.19180703 0.13245226 0.009360844 -0.06754222 -0.173785 0.13380028 0.09989021 -0.096381985 -0.022581326 -0.04410574 -0.10777715
420 -0.037814725 -0.07657116 0.3102765 0.2304613 0.045209203 -0.31688327 0.17986038 -0.3045936 0.019187478 -0.13474293 0.097335674 -0.07469841 -0.0967139 -0.21447107 0.13710004 0.072967924 -0.33607545 0.039441463 -0.11684363 0.20764293 0.25135672 0.37842983 -0.018795677 0.038828723 -0.28455636 0.0291067 -0.04159455 0.2592751 0.02057479 -0.28146657 0.2325529 0.30815548 -0.043500755 0.010774157 0.024454853 -0.2394178 0.21776703 -0.00639001 -0.029323652 0.009993976 -0.0749567 0.17911457 -0.16745688 0.14233035 0.060497455 0.24744593 -0.19802323 -0.14881432 -0.1101377 0.31253642 0.04145219 0.35824448 0.3273247 0.044207066 0.08928546 0.1111217 -0.009480743 -0.21660319 0.05311983 0.15111461 -0.020596875 -0.19708855 0.047393125 0.08315656 -0.4024912 -0.10853504 0.10574113 0.097056635 -0.17637111 0.32588702 -0.0048899036 0.23272125 -0.14103402 0.037389286 0.096308544 -0.468791 -0.2675348 -0.038126267 -0.13181247 0.3598742 0.3243374 -0.11287545 -0.02922081 0.2068787 0.2901113 0.015710084 0.10415359 -0.045069974 0.33300018 0.04477653 -0.11917701 -0.028022928 0.10707854 -0.4841755 0.22107518 0.06511134 -0.16480006 0.079617105 -0.09995406 0.37756342 -0.13261297 -0.1446572 -0.05107866 -0.10060541 0.04592885 -0.06844783 -0.022816453 -0.06864307 0.060504466 2.5473535e-05 0.38138384 0.047194093 0.07822778 0.048243236 -0.06689904 0.271801 0.09588412 0.11643616 -0.060445063 -0.16724302 0.18842985 -0.07943028 0.14119145 0.16684052 -0.12877132 0.004920027 0.049251653 -0.28748655
4504 0.086928114 -0.26372164 0.18628597 0.07039822 0.07027667 0.02711087 0.34672707 -0.06529641 0.03302616 -0.081502154 0.16630718 -0.05879946 -0.36093852 -0.0685666 0.16767019 -0.107670724 -0.07482582 0.028974913 -0.108404025 0.025015205 0.22879252 0.08677787 0.03723626 0.06360945 -0.14658912 0.013911936 -0.06785363 0.04070557 0.19282112 -0.056622047 0.12549242 0.058141083 -0.13421682 0.03520825 0.056457818 -0.06759122 0.31344372 -0.031296503 -0.06745502 -0.0136095835 -0.14015308 -0.2663112 -0.25447777 0.21850997 -0.044767972 0.22505945 0.1394442 -0.040429536 0.055452745 0.24802746 -0.032238044 0.22654256 0.18568787 0.22357854 0.00019721151 0.12137144 0.031261384 -0.21172965 -0.16788222 -0.02170569 -0.19079679 0.09878408 0.2900541 -0.0047348985 -0.04416256 0.014639282 -0.060284015 0.029106915 0.16186218 -0.02234648 0.08795085 0.22414781 -0.20049521 -0.19011667 -0.04959526 -0.36427146 -0.048742633 -0.068393044 0.19260941 0.27540243 0.47227305 -0.011061879 -0.061406646 0.33083007 0.07496643 -0.06384222 0.17093138 -0.08996701 -0.0049948697 -0.038902316 0.21881753 -0.1411745 0.16120452 -0.2498718 0.32269707 0.052884717 0.09916384 -0.15624382 0.020280506 0.19469711 -0.30264282 0.06508736 -0.072088294 -0.14732513 0.21209963 -0.13276093 -0.24524748 0.080167376 -0.066155955 -0.36348158 0.37815285 0.06121514 0.084929414 0.0667383 0.07456157 0.101206414 0.18238153 -0.13065034 0.12160083 -0.12417233 0.3556259 -0.0492894 -0.046852455 0.22816333 -0.32496026 -0.1835067 -0.063333236 0.072421074
434 0.18182504 -0.16342449 0.15566298 0.12782255 0.060574554 -0.23812474 0.1437834 0.10004451 -0.07608926 0.046438728 0.0066837138 -0.041369814 0.06224535 -0.14529714 -0.06762974 0.055139557 -0.26021677 -0.29777086 -0.28967562 0.34443963 0.1495298 0.18936822 0.1940548 0.19725439 -0.12966183 0.03077385 0.12683208 0.026510518 -0.022174872 -0.2215476 0.26083088 0.3018259 -0.11498004 0.117394604 -0.154578 -0.22584896 0.31336915 -0.01737475 0.16294855 0.11576159 -0.07799853 0.2258496 -0.18691564 0.28662062 -0.11004077 0.357928 0.16834724 0.25437516 -0.021118905 0.029579254 0.0012334198 0.5080903 -0.03189118 0.056624927 -0.1899504 0.0620801 0.032078806 -0.4108261 -0.025564615 0.22543679 0.064028755 -0.12999769 0.1321371 0.22214963 -0.075651065 -0.14672828 0.067084484 0.031420477 0.16451223 0.033922434 0.06710949 0.16690758 -0.16421601 0.0055120215 -0.022543276 -0.3372534 -0.041590314 -0.16321132 0.05064955 0.16027308 -0.085972026 -0.08399801 0.3503121 0.13742422 0.07301116 0.15735315 -0.016509658 0.13348742 0.057344515 -0.14340131 0.029132454 0.038638506 -0.1358148 -0.25107658 0.16474916 0.17573826 -0.051119514 0.1438318 0.08806899 0.26889163 -0.1190665 -0.04293999 0.05433451 -0.14371486 -0.16007783 -0.3159032 -0.13000827 0.050718237 -0.09457713 -0.24806874 0.22637075 0.23225 0.060967267 0.053730626 0.10282627 0.12953536 0.033218574 0.030824268 0.081924215 -0.11204239 0.27956218 -0.16994399 0.046005145 0.39522335 -0.3070788 -0.1350436 0.004567237 -0.034040116
362 0.090942085 -0.14457431 0.13124542 0.13848266 0.14904872 0.17709674 0.09888588 -0.103957735 -0.12459877 0.08947671 -0.14760524 0.11240929 -0.04631322 -0.09415359 -0.012894574 0.027164366 -0.43683589 0.10712216 -0.27606666 0.009610408 0.23128054 0.008044091 -0.04973836 0.13335247 -0.10467641 0.03413946 -0.030611098 -0.001715566 -0.09153584 0.1565551 0.2148706 0.45178625 -0.029519837 0.104473956 0.04338968 -0.30480537 0.06439577 -0.087073624 -0.02419548 -0.2631195 -0.044085704 0.2974845 -0.09227441 0.1234183 -0.38429427 0.039818294 0.008263895 0.08888345 -0.009333691 0.27225575 0.077064075 0.11618585 0.05449869 0.2333779 -0.038639586 0.19817215 0.18000087 0.15819903 -0.00011166527 0.02256472 -0.1636279 -0.099630564 0.20150788 -0.08922746 -0.16256508 0.03167976 0.13040696 -0.07022147 0.29434523 0.14453806 0.08862362 0.06274083 -0.31526494 0.025933709 -0.09993475 -0.4714675 -0.013542587 -0.4032561 0.00062585366 0.09097347 0.27474916 -0.014372835 0.008150429 0.19241646 0.230629 0.087659605 0.051581983 0.0556891 0.12059523 -0.13670702 0.30995607 -0.10991874 0.0795035 -0.4404092 0.24255234 0.032648083 0.07295677 -0.09402961 -0.24179105 0.03308157 -0.27803907 0.19293055 -0.05416169 -0.10734351 0.25576502 -0.28285265 -0.116667055 -0.12692961 -0.09020839 -0.37832335 0.1520809 0.09076454 -0.062439416 0.11700616 0.27494577 0.18562204 0.16319048 -0.038869724 0.018806193 -0.096610755 0.2610155 -0.2591444 -0.16764449 0.30305767 -0.25729215 -0.11561166 0.0893763 -0.03096141
4431 0.22856323 -0.1445291 0.14105223 0.009637697 0.108134195 0.25824654 0.069044515 -0.04254503 0.0052958285 -0.09319711 0.18685754 -0.112198226 -0.22318591 0.16981934 -0.015798613 -0.054164715 -0.14670603 -0.17936446 -0.23573528 0.28222758 0.044924125 -0.23882054 0.11286251 -0.05658808 -0.20649758 -0.022479365 0.15266679 0.066502005 0.032697357 -0.2252896 0.14432657 0.067398496 -0.27794528 -0.14644289 -0.09290875 -0.4469502 0.24967907 -0.15373181 0.058036048 0.16256584 -0.2053491 -0.0799783 -0.077457495 0.32533383 -0.061350275 0.22103682 -0.014556682 0.053221926 0.21748109 0.27492613 -0.12624933 0.25357515 0.29198408 0.10106896 -0.338116 0.2958141 0.09403508 -0.27932236 -0.19667156 0.25133872 0.05368819 -0.24576394 -0.004574223 0.26169983 -0.04695166 -0.10284678 -0.049444966 0.26808658 0.102885514 -0.07718394 -0.016813478 0.17833108 -0.1309809 0.026919777 0.09724775 -0.5024893 -0.03680967 -0.058317095 -0.25784636 0.35581812 0.12851694 -0.15177196 0.20259772 0.34819737 -0.12054361 0.19252996 0.25520238 0.2320643 0.03372643 -0.049106196 -0.05638014 -0.31119886 -0.26170194 -0.13628253 0.35009888 0.12859607 0.106627405 -0.11342058 -0.045119762 0.26463696 -0.2113744 0.09443008 -0.3311773 -0.26046643 -0.19025263 -0.3638422 -0.20504282 0.28133708 -0.02033704 -0.16602854 0.12151564 -0.18421856 0.09181629 -0.025966402 0.033381917 -0.13745344 0.12472183 0.06653228 -0.005897543 -0.2160201 0.47320396 0.07206461 -0.06029638 0.12249298 0.02082229 -0.31154066 0.053043816 -0.0026643686
120 0.4004405 -0.6365324 0.4441935 0.43940145 0.54619443 0.083577715 0.92065835 -0.14495373 0.100426644 0.4253618 0.23254772 -0.119221605 -0.43996102 0.38487273 0.20875743 -0.30002508 -0.6960442 -0.37207907 -0.92596006 0.26912305 0.7242228 0.3150648 -0.01776104 -0.016196756 -1.0081424 0.058567278 -0.36276194 0.17163403 0.3207085 -0.6478081 0.46946925 0.12331196 -0.25794193 0.19911033 -0.41808838 -0.6565781 0.94194764 -0.32323632 0.23022832 0.048091654 -0.5244036 -0.19044428 -0.3355151 0.07196444 -0.18445554 0.6575188 -0.4220958 0.49823093 -0.095584966 0.64228886 -0.25441182 0.84757626 0.18507618 0.15972008 -0.5742973 0.42771137 0.1631355 -0.6459337 -0.35748196 0.5184945 -0.55160815 -0.03947722 0.20922458 0.2594531 -0.08096037 0.05141293 0.54519755 0.19170508 0.4783467 -0.10242713 -0.23310885 0.2621609 -0.88191193 -0.17316845 -0.09899221 -0.8614786 0.014498958 -0.49232706 0.00024952018 0.31350154 0.33732006 -0.022549106 -0.13943265 0.7895374 0.48858485 0.3505477 0.4247945 0.40472746 0.46635234 -0.3701238 0.3107591 -0.57518 0.09257179 -0.50446206 0.45572805 0.28963524 0.07212588 0.022683589 -0.31668493 0.95295244 -0.25498825 0.28720823 -0.32011405 -0.14747685 0.1544201 -0.85957426 -0.44972286 0.194416 0.005644844 -0.34572342 0.7969745 -0.22233003 0.10941773 0.034059986 0.4356807 1.080107 -0.009977098 -0.26975393 -0.10442451 -0.34827778 0.3314814 -0.48700833 0.04983964 0.3382904 -0.10715604 -0.4346218 0.103810474 -0.29506794
4562 0.31300128 -0.28690627 0.09433339 0.2698791 0.81188434 0.36945516 0.6368062 0.01128116 -0.055065203 0.6609066 -0.18941644 0.053391766 -0.2842515 0.2026668 0.12644681 0.20065825 -0.66771996 -0.79384595 -0.5602499 -0.050759654 0.84476364 0.0437555 -0.09264853 -0.3973415 -0.9250764 0.39284465 -0.41652685 0.32815623 -0.3692182 -0.4912848 0.38052964 0.09523785 0.24176241 -0.08242007 -0.48543864 -0.1367096 0.2717566 -0.5847255 0.34558004 -0.11219036 -0.18030879 0.12895226 -0.18277842 -0.9225791 0.040839 0.34490183 -0.5827905 0.729485 -0.20048925 0.62887007 -0.26814213 0.6015498 -0.55217123 -0.32735384 -0.76923376 -0.32747498 0.3814713 -0.4993258 -0.84613013 0.27148384 -1.0086818 0.108311474 -0.30509117 0.28441465 -0.072071806 0.5779813 1.056859 0.31406987 0.3530432 -0.31926626 -0.57854086 0.034318436 -0.7245349 0.0700432 -0.42246953 -0.48210868 -0.1458866 -0.14478092 0.41417003 -0.6622185 0.23359363 -0.008947706 -0.66312045 0.7261133 0.2523242 0.54387546 -0.1679076 0.58365643 0.39173573 -0.6829923 0.1536217 0.1484136 0.096329615 -0.20964098 -0.33386675 0.50931245 0.47585505 -0.14639069 -0.29790962 0.94197595 0.69882154 0.5534621 -0.73943216 0.7892322 0.33619872 -0.9870193 -0.27726611 0.6679 0.62897795 0.8576952 0.683369 -0.5610813 -0.29880685 -0.5244937 0.4552021 1.5849484 -0.33476904 -0.2345528 -0.6159514 -0.15644868 -0.47951445 -0.54147875 0.23563468 0.010056579 -0.4032354 0.10209903 0.21248081 -0.33726346
122 0.38058347 -0.38674757 0.22615162 0.75442404 0.15480173 -0.097164296 0.38255304 0.118807 -0.057842553 0.33788458 0.20644875 -0.06475493 -0.16246934 0.43799523 0.17611994 -0.12102795 0.010314709 0.20539759 -0.36237296 -0.07137483 0.22253382 0.08945637 -0.038339254 -0.058789186 -0.48851937 -0.5115529 -0.3577307 0.07368977 0.22843717 -0.5361178 -0.21012132 0.017014902 0.20464985 0.6438397 -0.5347858 -0.20268604 1.1225657 -0.37475505 0.065442815 0.2044408 0.22425064 -0.26901603 -0.06856618 -0.28253233 0.01796231 0.2902057 -0.7497917 0.27229708 -0.3094425 0.096836366 -0.15710372 0.10454989 0.12266304 -0.1482673 -0.17588231 0.16661035 0.11219181 -0.18643865 -0.0090000965 0.1783624 -0.13173527 0.02297875 0.15335958 -0.442793 -0.0060640494 -0.15392631 0.5703926 -0.08147448 0.19959626 -0.26204932 -0.310311 -0.03016035 -0.62014115 -0.43295056 0.098423205 -0.37629792 0.22149268 -0.2258074 -0.24877805 -0.14811149 -0.00564721 -0.17271027 -0.06274201 0.35828575 0.19252546 0.20835058 0.4832675 0.1124289 0.7520787 -0.21064216 -0.35270002 -0.42895725 -0.1949168 0.08456466 -0.26686272 -0.3268653 -0.17531516 -0.08233698 -0.52032137 0.45466092 -0.10539675 0.021780696 0.059781022 -0.04965947 0.09978802 -0.18549584 -0.20688799 0.042688876 -0.06844972 0.088955574 0.16543975 -0.3160843 0.059130765 0.27420992 0.15121709 0.63673604 0.08637691 -0.06568599 -0.2031574 -0.19449235 -0.12261247 -0.6195027 0.009830104 0.073431246 0.48352018 -0.028546527 -0.22372851 -0.15057904
313 0.14086866 -0.20194511 0.22114947 -0.07322148 0.08634402 -0.13032117 0.14858234 -0.121264085 0.19854312 -0.06584843 0.0028321843 -0.26092935 -0.33693272 -0.08647643 0.21780075 -0.07504642 -0.093588784 0.02653712 -0.28682587 0.26667348 0.19838896 0.09133813 0.062085867 0.021532796 -0.32299197 0.117668115 -0.027912797 0.14881007 0.1877673 -0.15742129 -0.0416823 -0.045776807 -0.35462892 -0.05410355 -0.18858306 -0.19370528 0.23685679 0.10381104 0.20346373 -0.1913796 -0.21716666 -0.068595536 -0.037885513 0.20143746 -0.037338518 0.29780698 0.057250638 -0.14470571 0.1417442 0.100633614 -0.036050383 0.066951185 0.19084203 0.14811423 -0.058594126 0.26105395 0.061876763 -0.18574208 -0.20787744 0.12491628 0.1040552 0.0029737568 0.057101294 0.19472763 -0.051083744 -0.0063591185 0.018833147 0.059018865 0.22101499 0.04307401 0.10786101 0.1931 -0.23095079 0.05969275 -0.008442882 -0.37228805 -0.0055003073 -0.060666017 0.06832817 0.29085305 0.26455382 -0.08436909 0.001339212 0.2725726 0.20727682 0.12929775 0.097292505 0.04030332 0.14949767 0.032074936 0.21576406 -0.46415365 0.0010385531 -0.08758443 0.31697536 0.0868502 0.046622884 -0.03329188 -0.029678348 0.12434236 -0.1209722 -0.02759458 -0.0544966 -0.14983885 -0.030666063 -0.2975656 -0.24024467 -0.03845158 -0.042182915 -0.16433264 0.34172428 -0.036000732 0.20732448 0.20199244 0.08784892 0.18319091 -0.008267552 -0.17980261 0.0589448 -0.09700087 0.21427451 0.009968804 0.06107982 0.17112076 -0.10454136 -0.25927737 -0.14513312 -0.0029613625
19 0.34892204 -0.6270359 0.2525252 0.44277555 0.14545003 -0.036139157 0.20101169 0.21028224 -0.14110868 0.35140523 0.0510434 0.048968524 -0.23256499 0.092353694 0.1919744 -0.08116313 -0.2973953 0.2198302 -0.32021374 -0.049173027 0.21152948 0.11904594 -0.11748934 -0.008685274 -0.25947925 -0.2845587 -0.26920083 0.19033827 0.13884538 -0.34492347 -0.019133069 0.27591848 0.14249985 0.5563153 -0.53428626 -0.11136186 0.91395503 -0.2501187 0.14669141 0.15486264 0.32887253 0.01597589 -0.1703839 -0.2709477 0.12755461 0.31384018 -0.5486425 0.33887583 -0.3299112 -0.09012578 -0.054634865 0.085042834 -0.017150896 0.081064016 -0.30976695 0.2506304 0.1796119 -0.2284624 0.19473328 0.124204606 -0.14856021 0.022317415 0.36486706 -0.16114172 0.07566917 -0.049073357 0.60401165 -0.04822528 0.0924333 -0.5276323 -0.21802011 -0.24622792 -0.27589577 -0.18765959 -0.07093661 -0.15205628 -0.04793088 -0.22060129 -0.08011403 -0.10025803 -0.0760709 -0.084951416 -0.027961945 0.19427174 0.15648766 0.3188573 0.4368472 -0.20670757 0.4596991 -0.27797 -0.14076865 -0.22342484 0.03368157 0.02025825 -0.28382185 -0.13793948 -0.28333426 0.10115299 -0.3699841 0.22339697 -0.18902855 0.30181614 0.13607542 0.009930929 0.2326561 -0.23461679 -0.038517572 -0.20594744 -0.05885939 -0.19148345 0.23889662 -0.18789172 0.10059481 0.23714396 0.25823447 0.54431665 0.088709496 0.084841415 -0.09930762 -0.12197241 -0.091110855 -0.47321916 0.1551592 0.082230635 0.29275316 0.17985436 -0.13528253 0.04488433
42 0.15597297 -0.22600092 0.35097027 0.3652048 0.0685073 -0.08628237 0.30398422 -0.04915093 -0.1006811 -0.051462553 0.011329178 -0.110428356 -0.13107488 0.03330926 -0.007258163 -0.23259929 -0.118734 0.11497191 -0.08889591 0.0850823 0.08178476 0.10602901 -0.12534808 0.270264 -0.05620406 -0.034221813 -0.033879023 -0.05567007 0.20577392 -0.19080691 0.06679053 0.002725387 -0.06789191 0.1687719 0.07318472 -0.3579776 0.3895908 0.13125074 0.050400842 -0.108466364 -0.017500855 -0.37085596 -0.09077519 0.17151593 0.02138736 0.20611191 0.26985496 0.18503848 -0.06840346 0.45958543 -0.06793657 0.35091692 0.15773377 -0.08050818 -0.12743363 0.040440544 -0.023088261 -0.31225726 -0.10548918 0.04044685 -0.21568976 0.27118126 0.1835092 0.22341044 -0.19862898 -0.089652665 -0.17019495 0.022333812 0.18534127 -0.029247226 -0.15244697 0.41135415 -0.009201613 -0.14836434 0.018539477 -0.24786183 -0.019513771 -0.12431177 0.038630538 0.16948515 0.25273326 0.06927344 0.1349559 0.23659223 -0.09505208 -0.11865833 0.27155134 0.1066954 0.24791302 -0.011535783 0.15668447 -0.24484935 -0.008565532 -0.07534801 0.42409644 -0.04876536 0.14143954 -0.06198266 -0.1670967 0.37367696 -0.20376739 -0.12702462 -0.13121343 -0.35472053 -0.06949171 0.110555045 -0.24823067 -0.042450536 -0.15459749 -0.06177122 0.22166364 0.13805723 0.012825788 0.13789587 0.07557608 0.011430526 -0.04280398 -0.12538509 0.07428891 -0.13040635 0.29686093 0.012465657 0.11829426 0.03813515 -0.040645648 -0.17353143 0.014558102 -0.09503679
338 0.20486511 -0.11295791 0.13462211 0.027783519 0.19671682 0.18534406 0.19624624 -0.0846986 -0.042278156 -0.07210544 0.14831142 -0.090100326 -0.12434621 0.1354409 0.18761931 -0.021679465 0.06582414 -0.15435979 -0.22515595 0.12093457 0.24306571 0.1101381 0.041425448 0.022511905 -0.31695473 -0.010336686 0.093464494 -0.097065344 0.058198284 -0.033464015 -0.014245385 0.0664348 -0.14155895 -0.15238746 0.077849485 0.10872288 0.10687495 0.103105225 -0.016693136 -0.1172122 -0.26345745 -0.22989924 -0.09724743 0.30854523 -0.09130378 0.09001216 0.16938755 0.0027293526 0.084041 0.2910012 -0.13646002 0.39598107 0.3375482 0.11265354 -0.0846035 0.1717304 -0.0628433 -0.011345336 -0.30547997 0.0726741 -0.111224346 -0.14663844 0.11729703 -0.03982458 -0.15474309 0.062617876 0.0841615 0.06766913 0.23193781 0.19467671 0.018462436 0.120582394 -0.24208999 -0.021573083 -0.0066779912 -0.5018006 -0.06610404 -0.082966 0.21495034 0.28859276 0.18622716 -0.09692614 0.0054934104 0.49395627 0.33052865 0.1642393 0.13827392 0.048582003 0.06516457 -0.06675397 0.19991821 -0.2355699 0.14761542 -0.13833621 0.3027467 0.2789641 -0.07083922 -0.12911208 -0.0039804163 0.13598755 -0.24650176 -0.01735993 -0.092836924 0.041313443 0.09513626 -0.17114703 -0.17958444 0.18178336 -0.17389442 -0.32407513 0.284711 -0.05660224 0.0387115 0.0251266 0.07841782 0.13981166 0.095901065 -0.0535735 0.123147346 -0.13940704 0.31354702 -0.04343619 -0.07256275 0.011450935 -0.15449959 -0.2746039 -0.024491876 -0.025744744
4441 0.053660706 -0.08549563 0.49726355 0.17005244 0.087840915 -0.20754293 0.04701106 -0.506971 -0.059624888 -0.13559434 0.07236562 -0.07682093 -0.05111221 -0.3655184 0.11461942 -0.15477434 -0.42242706 -0.054779105 -0.40896675 0.30729982 0.23319729 0.29112154 -0.043396056 -0.0056396504 -0.44570273 0.3308773 -0.037082583 0.14520417 0.041780595 -0.023266762 0.15740499 0.3961484 0.13911675 -0.062243983 0.1305028 -0.41193604 0.20327353 -0.031937305 -0.12608777 0.053437106 -0.19383237 0.14746758 -0.04158592 0.22494376 -0.0032937478 0.2217696 -0.107665256 -0.056142956 -0.12418839 0.35375887 0.021916889 0.3272118 0.2591991 0.014528085 -0.20115086 0.08475003 0.00680201 -0.30464983 0.120071396 0.23544781 0.07727358 -0.09464411 -0.04881978 0.095699295 -0.18353808 -0.18533874 0.18266888 0.021918133 -0.004914936 0.15562643 -0.016670644 0.13391036 -0.21214081 -0.17299443 0.17007367 -0.22459109 -0.08480969 -0.200694 -0.25422934 0.3577439 0.024658905 -0.04558251 0.11992071 0.13278562 0.19715315 -0.18519138 -0.09847145 0.110459 0.2533619 -0.12668514 0.05762989 -0.2863047 0.22919643 -0.6066343 0.18699813 0.062409677 -0.080599286 -0.013038802 -0.353061 0.050991174 -0.41883665 0.060406037 -0.17748022 -0.12301114 0.009602652 -0.32081932 0.23305205 -0.4008424 0.0018808007 -0.0828114 0.2585009 -0.04188873 0.101681784 0.25381935 -0.040166426 0.15610951 0.13432227 0.13648239 -0.19780537 -0.37080523 0.26095983 -0.3779579 -0.08046466 0.16298185 -0.064507715 0.1042444 0.09423847 -0.2676697
80 0.12031124 -0.17846994 0.1388124 0.1139784 0.21678627 -0.2778277 0.011557757 -0.42864507 -0.037654743 -0.015542656 -0.09354786 0.054129902 -0.16521908 -0.38747916 0.114394255 -0.067057766 -0.4041444 -0.013826416 -0.32571292 0.21938509 0.17610122 0.24772614 -0.06338316 0.002318387 -0.4165295 0.035809778 -0.20621598 0.18709353 0.089082606 -0.031192593 0.29424238 0.24167593 -0.11868223 -0.023295002 0.0822726 -0.42447686 0.1628091 -0.13221551 -0.05791249 0.13762322 -0.24079712 0.25726664 -0.025326258 0.11383683 0.13255607 0.29169506 -0.37090585 0.028537145 -0.11792262 0.11795198 0.13644174 0.34431887 0.15670194 -0.014567134 -0.21687351 0.13079406 0.042924702 -0.21974175 0.16248126 0.13424337 -0.008440125 -0.18451074 0.02216288 0.12768021 -0.14327371 -0.07885128 0.22624296 -0.023899185 0.017908078 -0.02681648 0.0034011938 0.051691014 -0.12922162 -0.061152875 0.12679186 -0.27805015 -0.26135525 -0.19182858 -0.33290997 0.29264802 0.088728376 -0.08888173 0.1432041 0.15704791 0.18554762 0.038897574 0.14524828 0.17753081 0.14549771 0.02641097 -0.025361808 -0.17686568 0.116652556 -0.4287386 0.20196062 -0.010694989 -0.022803018 0.06646536 -0.19043764 0.14993618 -0.3151096 0.06395584 -0.05930909 0.048900314 0.037867416 -0.17588648 0.2633768 -0.41149443 -0.08789771 -0.048876617 0.16077594 0.018879808 0.123885155 0.07666997 0.029738037 0.07928594 0.18912657 0.13676745 -0.21803394 -0.22912282 0.31070417 -0.34239185 -0.0696184 0.30613866 -0.07559431 0.05462842 0.07002456 -0.18837671
325 0.16824281 -0.17995067 0.26758772 -0.094676524 0.15290873 0.0063384646 0.24379104 0.07000587 -0.08688148 -0.098598294 0.3111323 -0.0018634615 -0.33868316 -0.12707661 0.058617286 -0.031034028 -0.39303455 -0.17363395 -0.26724666 0.29937625 0.18245374 0.1699518 0.037781082 -0.12086472 -0.13292651 0.09738757 -0.06626293 0.17369218 0.13593516 0.08263219 0.19390127 0.34520558 0.09881695 -0.029853977 0.121541925 -0.2681744 0.39338604 -0.14803438 -0.12832919 0.123025015 -0.1953878 -0.04979506 -0.28732118 0.39311352 -0.10589773 0.22505303 0.20679148 0.07132947 -0.014603258 0.08075547 0.006214915 0.49845296 0.13931115 0.09570726 -0.104443535 0.11033506 0.1454813 -0.19236274 0.04541571 0.30825248 -0.10990399 0.08890805 0.20283979 0.22109088 -0.024362126 -0.006770162 -0.22105391 0.07811828 -0.027520366 -0.056796134 0.050151154 0.18581095 -0.16593693 -0.11086117 0.14790517 -0.3092524 0.08846224 -0.15649411 0.15012261 0.44277152 0.3149241 -0.091035396 0.04919456 0.38003376 0.08491651 0.13282569 0.09368329 -0.106141225 -0.1493187 -0.2379659 0.42781904 -0.04770605 0.14633188 -0.22897665 0.3039403 0.11189824 0.021938734 0.07499087 -0.030018013 0.093842186 -0.3379284 0.14054681 -0.1000284 -0.1980253 0.06469991 -0.2302257 -0.0861493 0.017901843 -0.22028714 -0.3193836 0.42862234 -0.043858543 0.12786853 0.14123115 0.11155896 0.094029434 0.28449824 0.096952066 0.028857972 -0.08320874 0.24532731 0.02951906 0.08503924 0.055614192 -0.22605078 0.07891417 0.082547985 0.006289094
