997 49
497 -0.25671327 0.0115216095 -0.4504641 -0.15065001 0.2614327 0.116743155 -0.14683324 0.38968474 -0.19559373 -0.0437043 -0.31850055 0.033101257 -0.6562868 0.17868094 0.5879218 0.13674466 -0.30231807 0.36537448 0.49187315 -0.1796324 -0.20253175 0.15159056 0.44613734 -0.22959167 -0.0368162 -0.69160104 -0.10538652 -0.16028562 -0.3533962 -0.20691855 -0.2938005 -0.07524011 -0.13720094 -0.27048916 -0.30216232 -0.18597311 -0.24519308 0.36857462 0.37710688 0.73619294 -0.54388344 -0.12571952 -0.0055917418 -0.12799393 -0.43004084 -0.02622961 0.10921495 -0.25290418 -0.0008531711
639 -0.25710294 0.35397214 -0.58587795 -0.04290208 -0.35754102 -0.14399 -0.47974366 0.16011512 0.45590672 -0.14999169 -0.13640587 -0.2636094 -0.045969088 0.54019356 0.22322357 -0.014072295 -0.37401256 0.24195358 0.38343832 -0.18749455 0.26581818 0.29529303 0.5110334 0.078949556 -0.12974614 -0.3895342 -0.41820675 -0.5622559 0.13660477 0.036330394 -0.3522738 0.13016957 0.33380514 0.1741876 -0.2270151 -0.19226669 0.054796666 0.49003756 8.508907e-05 0.23644622 -0.39877722 -0.13439633 0.14310168 -0.4980597 -0.42636812 0.26137382 0.11441602 -0.18737394 0.2816528
529 0.20478164 0.24164324 0.082110554 -0.40847918 -0.110227644 -0.19137248 -0.14244609 0.5255952 -0.506937 0.28328755 -0.17073691 -0.20743981 -0.042366184 0.36445975 0.1479127 -0.04686681 0.06623271 0.3246421 0.120851114 0.016505634 0.2322001 -0.36086798 0.09252557 -0.02838574 -0.036842916 -0.30800402 0.012073427 -0.60362166 -0.06747961 -0.26786307 -0.3226112 0.17289338 0.32304707 0.29121265 -0.4984152 -0.028017256 0.14606711 0.52434045 -0.088019624 0.7873204 -0.38590378 0.20163171 0.17205517 -0.03271715 0.06408252 0.42944995 -0.122493826 -0.15915515 0.36366975
978 -0.058218546 0.35092032 -0.23786996 -0.09570578 0.50350255 -0.25943205 -0.036884896 0.7346796 -0.08709508 0.30908033 -0.4207506 0.01281997 -0.56768644 0.47626388 -0.18618356 0.07993489 -0.2905493 -0.015626315 0.35782897 -0.31592268 0.6108595 0.10687779 0.6273003 0.10902414 -0.06663864 -0.18512227 -0.06425673 -0.46835625 0.15700792 -0.35903776 0.1635366 -0.26027578 0.388828 -0.046363637 -0.2777404 0.1361543 0.15314087 0.38738894 0.020089487 0.18237697 -0.11911716 0.25248888 -0.014942254 0.06767345 -0.2839933 -0.1341683 0.081138305 -0.3628905 0.18802421
393 -0.16951127 0.17927186 -0.052848376 -0.12283685 -0.021696456 -0.4881322 -0.0049385675 0.70329696 -0.18461697 -0.107629515 -0.07838074 -0.030666053 -0.34165826 0.13718742 -0.40387565 0.24570942 -0.3464618 0.1283564 0.45525232 -0.30517292 0.19582078 0.022393923 0.65039814 0.0065663415 -0.36438343 -0.15483233 0.17865394 -0.44869852 0.24179202 -0.6412726 0.30580014 0.13371246 0.18890244 -0.19947615 -0.45486873 -0.18898861 0.40439078 0.24844609 0.32202956 0.30258128 -0.16539475 0.22091234 -0.032522358 -0.21445446 -0.05585572 0.012504913 0.3216956 -0.605261 0.19705461
763 -0.08624343 -0.076202266 -0.25029856 -0.31332353 -0.43490246 -0.14465225 -0.17848548 0.1270384 0.06489637 -0.30825058 -0.32934818 -0.3038656 -0.09448552 -0.17529178 0.12117181 0.14804158 -0.265506 -0.113471635 -0.5029758 -0.17965823 0.7432674 0.23587923 0.54382837 -0.25787807 -0.59285927 -0.6173414 -0.1257381 -0.35373545 -0.16739157 -0.65567 -0.14235884 0.31220865 -0.0725378 -0.52214843 -0.16221108 -0.08197335 -0.15121466 -0.07942619 0.29931143 0.23885165 -0.32706088 0.17504774 -0.06265899 -0.369536 0.2771216 0.63882554 0.49275923 -0.45166436 0.39343014
94 -0.2515754 0.11721489 -0.17287672 0.27259478 0.32291967 -0.8777225 -0.16187447 0.29313844 -0.30658764 0.10955637 -0.22209641 -0.27067497 -0.6390668 0.10468648 -0.13388018 0.20779862 -0.06627072 -0.08831354 0.1850494 -0.6497782 0.28449488 -0.6544024 0.7713129 -0.40733856 -0.22137722 -0.4440048 0.019828137 -0.32125422 0.23061943 -0.37716755 -0.07576711 -0.10164526 0.053769026 -0.2671232 -0.11284813 -0.063889176 0.44071394 0.27124113 0.3158127 0.3002848 -0.37136278 -0.1410857 -0.079257496 0.06585811 -0.22247772 -0.11962488 0.20635971 -0.3296579 0.42279258
887 -0.23889461 -0.033292785 0.0047572292 0.13033399 -0.35726792 -0.33537313 0.1702191 0.5392745 -0.46304595 0.26349434 -0.3415928 -0.19577868 -0.38834158 0.42358407 0.09673809 0.15334368 -0.30435085 0.30969658 0.012199867 0.09753788 0.12369918 0.07379299 0.44001165 -0.04326257 -0.5259333 -0.4390206 -0.47917524 -0.86517715 -0.51708907 -0.22015956 0.03216752 -0.09159138 0.20874964 0.0863881 -0.3586136 0.0072876816 0.22143635 0.29875073 0.24241228 0.12519212 -0.4037724 -0.1249634 0.19987598 -0.038348813 -0.12812041 0.3041591 -0.06432083 -0.24746491 0.21246074
960 0.029227449 -0.12244742 -0.319721 -0.2332584 0.29337925 -0.3704711 0.22239308 0.7272419 -0.04153987 0.12578803 -0.015540178 -0.0052178944 -2.4791689e-05 1.0595825 0.010626122 0.13363 -0.1688576 0.19334252 0.25521928 -0.4243843 0.47064134 0.0024278192 0.47422838 -0.14003687 0.14479725 -0.14997622 -0.04802455 -0.43996134 0.07296111 -0.038174942 0.05730267 -0.013780288 0.22026037 -0.082977876 -0.39856008 -0.020790508 0.26297456 0.1665586 -0.03641633 0.21911173 -0.30577853 -0.06893984 0.45721167 -0.52464956 -0.49379632 0.2640122 -0.13974985 -0.5073709 0.36813894
146 -0.34863517 -0.060964324 0.7153284 0.13964479 0.12266933 -0.16148828 -0.42639878 0.6582526 -0.47362167 -0.55751616 0.62815267 0.54920095 0.01760796 0.51247346 0.2901333 -0.3785386 -0.16476867 -0.5539666 -0.2156402 -0.14408417 0.31612018 0.07450459 0.06315522 0.16038959 -0.038905542 -0.28922606 -0.19250028 -1.0798973 -0.0059669446 -0.02768651 -0.3215202 -0.5577736 -0.40726292 0.24242672 0.16914405 0.54890543 0.8132178 0.46956226 0.2838644 0.4653338 0.2507243 0.42841107 -0.28383553 -0.21921808 -0.1940326 0.65217716 0.6393908 -0.021591308 0.11958304
910 0.18978213 -0.32127705 -0.08972481 -0.3895941 -0.06688835 0.3454409 -0.24463594 0.5685472 0.08610558 0.15621859 0.17877203 -0.14484648 -0.66136223 0.9063328 -0.55065787 -0.21121924 0.11556862 -0.045265716 -0.09828888 0.13233657 0.57890403 -0.22386156 0.56290746 0.004893886 -0.37313038 -0.38226184 0.25542235 -0.36808386 0.032832015 -0.032069437 -0.38839886 0.18301243 0.1976111 0.022014607 0.16345368 -0.032708626 0.4110869 0.32991564 0.36140227 0.21462348 -0.15209419 -0.10680367 0.16574077 0.29814917 -0.19783515 0.6187698 0.28408632 0.2854046 -0.12593925
912 0.10324948 0.03800955 0.58229226 -0.066862755 -0.060187694 -0.06190394 -0.6080493 0.54167956 -0.5796397 -0.3715742 0.5997086 0.31118175 -0.087855816 0.58463115 0.38631192 -0.43922427 -0.36310437 -0.59905076 -0.24457319 -0.21682972 0.4181914 0.46494728 0.12502807 -0.2675545 0.041018266 0.057202097 -0.0803427 -1.0809584 0.01403732 -0.14713536 -0.07391195 -0.3521369 -0.5782571 0.48339444 -0.14275572 0.60557353 0.7068165 0.46935585 0.22252084 0.058714777 0.14591174 0.49659246 -0.34484914 0.11974438 -0.039099008 0.5103852 0.4521037 -0.16642393 -0.24101372
256 -0.23472962 0.092037596 -0.5560968 -0.16572659 0.057001166 -0.3087306 -0.25740933 0.26901713 -0.30696428 0.13224973 0.22573565 -0.21741559 -0.16307893 0.31825444 0.0661187 0.31371006 -0.21203633 0.26224703 0.4347281 -0.12880808 0.31600365 0.45011398 0.4078573 -0.034120977 -0.48463774 -0.36218086 -0.25347704 0.15480465 0.21628547 -0.35486084 0.16732992 0.40334377 -0.11802296 0.18607257 0.06873996 0.2159524 0.10700493 0.5896258 0.02635273 0.49338838 -0.70353043 0.06214072 0.22547495 -0.29338798 -0.34270814 0.38397953 0.53212595 -0.37876686 0.20460974
220 0.13991643 -0.13015476 0.1993593 0.43768948 0.19883622 0.30397987 -0.4151564 0.17905605 -0.7884386 -0.17235844 0.2759874 -0.0022267066 0.1102033 0.28580344 -0.24833368 -0.26176462 -0.17380486 0.30550507 -0.47625118 -0.15184596 0.4836553 0.48333147 0.24720077 -0.48419657 -0.07901006 0.0116487 0.45272067 -0.34527457 0.12567203 -0.19091429 -0.25279748 0.052061867 0.11426633 0.16488457 -0.43857238 0.23317184 0.05092016 0.86723423 0.26218683 0.4523261 -0.46679047 -0.3758373 0.17884296 -0.76129353 -0.58077246 0.21622182 -0.13428804 -0.3397595 0.43322715
706 0.08263829 -0.06309842 0.5807763 0.02377994 -0.07258477 -0.10132062 -0.31778216 0.49738583 -0.46070683 -0.19647737 0.5142974 0.48708826 0.00055811333 0.63496363 0.40083763 -0.31887916 -0.28217128 -0.6465416 -0.31990945 -0.26152447 0.32446492 0.4012128 0.3329932 0.032721914 0.07794682 0.0058997506 -0.040632293 -1.027034 -0.034124244 0.07091314 0.10439151 -0.44466186 -0.47842368 0.49358764 -0.07944914 0.58174473 0.67775565 0.26739252 0.22236899 0.14192371 0.12758178 0.4643788 -0.2593481 0.0349999 -0.19612136 0.59174544 0.37105882 -0.35597798 -0.098517075
731 -0.19389674 -0.02379638 -0.5267005 -0.10151623 0.06580521 -0.4492265 0.052950386 0.4290409 -0.18083012 0.1646782 -0.28337854 -0.46753752 -0.1303759 0.06404201 -0.12263867 -0.05381983 -0.53086746 0.02784079 0.31993434 -0.50669676 0.3406689 -0.16863245 0.93744576 -0.087192 -0.59848404 -0.4174665 0.075432695 -0.64624745 0.023618186 -0.16666995 0.2837669 0.42439947 0.569234 -0.13258596 -0.08580201 0.28149346 0.2863547 0.4794564 0.2450625 -0.15430723 -0.00021389194 0.59388334 0.12151942 0.075335585 -0.7209301 0.021424798 0.63933086 -0.24342658 0.1407642
850 -0.12294624 -0.088516064 0.8222609 -0.04132048 -0.03318149 -0.20276609 -0.77619773 0.8835426 -0.6577144 -0.30597168 0.6813558 0.31817442 0.23742414 0.33309633 0.4244765 -0.3551303 -0.034143846 -0.22469331 -0.30369708 -0.02220045 0.39106485 0.19796848 -0.008158952 -0.45815945 -0.018767133 -0.38995647 -0.17106608 -0.58594936 -0.0336207 0.30019164 -0.4647223 -0.34308955 -0.2673293 0.48728445 -0.27024025 0.17905527 0.51960224 0.6417874 0.13320878 0.45149678 -0.11036334 0.30390093 0.028131682 -0.30059195 -0.26036665 0.1095018 0.26516798 -0.018529769 -0.17780855
574 -0.25446528 0.21272396 0.70302916 -0.26537344 -0.15154281 -0.270289 -0.3829939 0.5367643 -0.58586556 -0.19442415 0.60606134 0.39151356 -0.32159314 -0.012011557 0.4108475 -0.44910118 0.23657103 0.060856383 -0.2242175 -0.45908004 0.22050226 0.44557995 0.03833353 -0.18699135 0.09198578 -0.535806 -0.008169439 -0.6347469 -0.20243864 -0.07706736 -0.16214907 -0.33122325 -0.5360239 0.47439283 -0.03887401 0.7082959 0.48800185 0.5380956 0.25410706 0.008227648 0.053828727 -0.028443249 -0.01438605 -0.43902606 -0.3237956 0.4544386 0.50299597 -0.34721974 -0.19994864
345 -0.44068056 0.061124697 0.67367643 -0.34580666 0.38221744 -0.2238022 -0.35903955 0.8924836 -0.59171665 -0.36541742 0.800036 0.47688398 0.07415246 0.72536147 0.54568076 -0.3766246 -0.19779238 -0.33933124 -0.5050001 -0.37422127 0.20318286 0.041471284 -0.008226512 -0.1657383 -0.002701168 -0.1331412 -0.29399213 -0.7854869 -0.33781007 0.045116264 -0.17851722 0.065485 -0.3330601 0.5576114 -0.07176344 0.6165253 0.5333156 0.4167259 0.42285258 0.2885196 0.119134344 0.37884963 -0.33519572 -0.19647837 -0.040355712 0.098151684 0.26553926 -0.050937187 -0.14730398
589 0.07883024 -0.19409731 0.7678405 -0.3057695 0.060581747 -0.14160843 -0.40020123 0.67778724 -0.361145 -0.3703717 0.41068366 0.47450438 0.06092251 0.8240939 0.6383181 -0.20266269 -0.5092737 -0.6681257 -0.42290792 -0.0386935 0.50013834 0.07445338 -0.012671547 0.06643142 -0.15952402 -0.26184657 0.060383838 -0.81260204 -0.12875213 -0.17323285 -0.028243696 -0.2450465 -0.51292837 0.80541253 0.10932446 0.48901412 0.604013 0.5000501 0.4991866 0.7331875 0.19981287 0.40329063 -0.3458514 -0.39935622 -0.43388402 0.6968363 0.17057762 -0.2231179 -0.23680441
431 0.42433116 -0.17628708 0.37308383 -0.31657296 -0.19602431 0.1019051 0.19705714 -0.09801322 -0.08417847 -0.5324819 1.0389236 -0.1455289 -0.5484433 0.64755505 0.59128904 -0.23453328 -0.3196934 0.01818785 -0.30202872 -0.47645637 0.36242184 -0.068794295 0.08682175 -0.20347828 -0.2664433 -0.10747693 -0.16867855 -0.28620952 0.37180167 0.05913855 0.09279813 -0.91758704 -0.26298684 0.33177382 -0.4979114 0.8483067 -0.29615983 0.16627382 -0.4361362 0.92231625 -0.14065978 0.53676665 0.11977764 0.28889784 0.027801609 -0.22385865 0.4868178 -0.35940418 -0.34221086
311 0.17575349 0.20077303 -0.53820693 -0.39095554 -0.048031133 -0.12648244 -0.49470323 0.39568862 -0.5688181 -0.21119191 -0.04905343 -0.37570179 0.11299063 0.48011693 -0.25645137 0.29846743 -0.22890387 0.09218815 0.40634567 -0.014371107 0.2639699 0.28668386 0.42109805 -0.08291393 -0.15782551 -0.40499315 -0.10478229 0.22198373 0.010230002 0.005324849 0.035226233 -0.047003943 -0.47375855 -0.68168217 -0.745198 0.2690507 0.12784253 0.30011725 -0.00076192874 0.3734523 -0.32273144 -0.0428988 -0.5423057 -0.079322495 -0.32246086 0.31050116 0.65753317 -0.28827012 0.061330512
664 -0.36544177 0.27595505 0.18422641 -0.15313509 0.28139806 -0.11763031 -0.48699492 1.009971 -0.4426567 -0.4847487 0.45246777 0.14765015 -0.07868553 0.2594852 0.54211617 -0.5096249 -0.09794057 -0.29036778 -0.29811805 -0.3000654 0.4115271 0.2977248 -0.0072255195 -0.43879473 0.05976224 -0.2779413 -0.72476435 -0.9322577 -0.19635782 0.20694217 -0.0701407 -0.2634512 -0.43534234 0.5577951 -0.06863432 0.43958104 0.5434527 0.15655044 0.06453177 0.33309367 0.07785496 0.3440241 -0.074712574 -0.1997355 -0.1804955 0.19746125 0.3331307 -0.2758047 -0.07606858
925 0.54597026 -0.04562587 -0.6839281 0.044381395 0.24210525 0.11755574 -0.26447445 0.6398388 -0.2565551 0.1355245 -0.016828375 -0.040175755 -0.6616666 0.47402856 -0.28473222 0.27944684 -0.3000196 0.30353218 0.6210198 -0.32445034 0.72990596 -0.11041338 0.5640748 -0.20797236 0.044739302 -0.38958034 0.020880045 0.13924156 -0.33534423 -0.017448712 0.009719888 -0.0711931 0.094284944 0.22460575 -0.0016492844 0.044567615 0.38865605 -0.022227671 -0.031356376 0.43023896 0.06082775 0.37830144 -0.039963167 -0.45670208 -0.06884935 0.33975586 0.17076604 -0.055220217 -0.45915306
817 0.1504451 0.009241788 -0.28357425 -0.65240127 -0.058769222 -0.45722124 -0.015740203 0.077373065 0.10574095 -0.28292564 0.022927208 -0.44414094 -0.15689941 0.22335957 0.14916135 0.27542707 -0.42076257 0.2894081 -0.25936455 -0.108100764 0.3235178 0.95713216 0.6627893 -0.073491655 -0.35197285 -0.28152725 -0.20617667 -0.34633768 0.064081244 -0.33083928 0.16016102 0.123272575 -0.05881798 -0.2114029 -0.030696245 -0.10797301 0.42864704 0.38302028 -0.08916052 0.41527998 -0.3982747 0.16771351 -0.18189791 0.01618622 0.010075716 0.5811884 0.6072283 -0.22586054 0.41393754
979 0.5791958 0.52894527 -0.37281457 0.34182078 -0.05083327 -0.16763584 -0.6307725 0.6728562 -0.16361636 -0.023131665 -0.10049147 -0.2983272 -0.089076385 0.3414252 0.08181433 0.28207445 0.03278201 -0.003261464 0.117481895 -0.3710537 -0.063374735 0.04223598 0.6140203 -0.40823102 -0.23287739 -0.14804846 -0.18347642 0.18323016 -0.22510922 -0.48252183 0.4389667 0.18418865 -0.5050599 -0.5775752 -0.19618548 0.70068896 0.114248246 0.38493124 0.06549347 0.7675756 -0.3639879 0.0003448953 -0.22057855 -0.36418498 -0.31636435 -0.10563584 0.44801497 -0.33431152 -0.09846139
84 0.35458103 0.05234718 -0.14538868 -0.2274893 0.33613253 -0.63176376 0.17909093 0.24084547 -0.12099067 -0.5340946 0.30783942 -0.5007841 0.08250315 0.66223705 -0.1977402 0.162617 -0.34737527 0.38942587 0.4207187 -0.017045397 0.54763854 0.005451481 0.5396472 -0.20607348 -0.6699334 -0.21261229 0.054390687 -0.13274705 -0.46498558 -0.039114233 -0.3285865 0.20446955 -0.25468168 0.14089236 -0.21091752 0.20441692 0.22456108 -0.011730457 0.21954395 0.07433726 -0.4832387 0.059403654 0.14030883 -0.42282102 0.15494066 0.40471527 -0.26827475 -0.36594883 0.2018837
422 -0.3719923 -0.10390131 0.37513265 -0.19768733 0.0768624 -0.09617108 -0.42882484 0.4826619 -0.40204483 0.24395211 -0.14203389 -0.039549593 -0.06125259 0.4861569 0.03628188 0.34528086 -0.45295766 -0.13105491 0.24202935 -0.4358787 0.5176589 0.28974062 0.62960404 -0.12365937 0.35305393 -0.44144207 0.020165758 -0.23878846 -0.28407988 -0.13240142 -0.3144217 0.12609765 0.27391234 -0.04363462 -1.0977641 0.40178707 -0.011327747 0.14508891 -0.11619944 0.100146666 0.21036203 -0.016482836 -0.06922062 -0.3282886 -0.33252406 0.16587055 -0.35630745 -0.010716925 0.13853112
263 0.069478944 0.12419836 -0.45715094 -0.3779663 -0.055243872 -0.52602226 -0.4107625 0.43372834 0.119893536 -0.2574268 0.19116488 0.03461352 0.052527092 0.0038326655 -0.16337527 0.3227219 -0.099760056 0.23657046 -0.04278513 -0.26203728 0.13161951 0.60194474 0.6195773 0.08229515 -0.60429215 -0.5430793 -0.49864665 0.12218796 -0.120725214 -0.55623037 -0.1944061 0.071054585 -0.07854815 -0.0867937 -0.07800721 0.11831616 -0.05969922 0.55900383 0.11675443 0.36260134 -0.23327257 0.30793622 -0.0068689813 -0.0810859 -0.25880966 0.60061634 0.35039032 -0.6078415 0.20253994
470 0.14741926 0.10857446 -0.15216468 -0.15090343 -0.044268347 0.45673713 -0.27771997 0.1485293 0.001094059 0.25272703 0.19171768 -0.101741925 -0.28030902 0.72740006 0.07017033 0.11970792 0.1759915 0.22354305 -0.2251954 -0.32415482 0.77733874 -0.5131683 0.7423568 -0.29656816 -0.13280419 0.13306506 -0.054135025 -0.6386147 -0.1641887 0.0875702 -0.4613611 0.3509482 0.14830911 0.014711054 -0.12436583 0.015689151 -0.46073738 0.023044573 0.4710934 0.47805253 -0.27362978 -0.21851149 -0.30506846 0.9465191 -0.041391008 0.27752027 0.29134202 -0.20847234 -0.110531345
280 -0.4912115 0.10934462 0.3750012 -0.004863803 -0.35801065 -0.9109766 -0.44196853 0.51583326 -0.06705026 -0.8354359 0.46907455 0.50598925 -0.29940566 0.02500811 0.25430906 -0.08194948 -0.090495124 -0.059221327 -0.01803961 -0.5480673 0.18769859 -0.069645494 0.3491744 -0.38447067 -0.003180347 -0.570383 -0.58820915 -0.36027017 -0.1444016 0.48541036 -0.5068576 -0.059264198 -0.40477744 0.3734939 -0.21345453 0.18837577 0.51904607 0.3749392 -0.029505802 0.176939 0.045930553 0.16537337 0.18035786 -0.1900284 -0.22714731 0.26613253 0.022278115 -0.3309759 0.31989157
723 -0.10263152 -0.07729741 0.64572537 -0.17047232 0.1763408 -0.1908207 -0.40412998 0.7144929 -0.15549986 -0.45855248 0.5820826 0.5273946 -0.22189035 0.77708346 0.5211375 -0.08935353 -0.42720124 -0.61210173 -0.47042122 0.07576446 0.2101101 0.007152282 -0.078888044 0.121155486 -0.078232594 -0.24445654 -0.004353873 -0.99704045 -0.09600301 -0.15842839 -0.005717981 -0.06265671 -0.5237904 0.59478736 0.13227564 0.55418694 0.5423984 0.48822042 0.3291225 0.49951696 0.30224064 0.34325203 -0.32321423 -0.24615018 -0.41664246 0.59598064 0.20147397 -0.31440654 -0.16996346
452 -0.021811387 0.41293323 -0.55026835 -0.27398887 -0.15954295 -0.14702237 -0.27374616 0.27541512 -0.15872999 -0.29508644 0.075206816 -0.03133226 -0.1518327 0.12535118 -0.05244301 0.13460603 -0.059652787 -0.20979252 0.046539217 -0.57238346 -0.04499188 0.41969863 0.8720156 -0.043181207 -0.86819226 -0.29167214 -0.25144398 -0.13914247 0.050415713 -0.13285351 0.32441428 0.5028893 0.24452679 -0.66549236 -0.17831956 0.25787872 0.062306624 0.44830096 -0.31418416 0.54919344 -0.2686022 0.3611532 0.1167719 -0.18641034 -0.18749681 0.39247587 0.5276363 -0.2511373 0.106204025
568 -0.10065242 0.56434137 0.63583535 0.18313026 -0.20698063 0.0140082715 -0.26217103 -0.13973191 -0.29260865 0.2609204 0.40706035 0.060674764 -0.5448079 0.17318784 -0.23743193 -0.14039153 -0.015958413 0.36229303 -0.33629286 -0.1420552 0.07116443 0.35494408 0.47354624 -0.6626738 0.017451456 -0.23359542 0.48925543 -0.6564857 -0.087504506 -0.17560628 -0.26437882 0.095515214 -0.030518115 -0.028569711 -0.40497422 0.60834306 0.03117833 0.4345335 0.211853 0.31858623 -0.09624798 -0.42534617 -0.20227027 -0.38657987 -0.35781714 0.19025464 -0.16100995 -0.61928445 0.23427822
602 0.08681591 -0.35763073 -0.013711364 -0.12698394 0.1477218 -0.11514265 -0.081065655 0.6192769 -0.19426754 0.09272658 -0.535397 -0.0315452 -0.74460435 0.87117743 -0.54685056 -0.1193135 -0.27231702 0.39286515 0.24261352 -0.15814677 0.20465015 0.064064495 0.7296326 0.06407548 -0.44270456 -0.15122461 0.024271412 -0.39603648 -0.4096193 0.12970212 -0.020719482 -0.0144110685 0.22953302 0.12127894 -0.30622903 0.000827592 0.17599662 -0.15102126 0.029611168 0.28386468 -0.29770154 -0.10907117 -0.16731411 -0.22607397 -0.20857151 0.42947248 -0.26242682 -0.37828782 0.012200057
915 0.07590223 -0.046784703 -0.65788686 -0.5267865 -0.09824544 -0.4420958 -0.10030814 0.25516117 0.15189025 -0.3196189 -0.08951299 -0.31934842 -0.12643383 0.3216143 0.22588505 0.23317884 -0.3872167 0.36575642 -0.16233398 -0.23267591 0.4700367 0.69129634 0.7094959 -0.055715416 -0.31329083 -0.37259653 -0.17043872 -0.22794355 0.15277869 -0.36071324 0.10438575 0.26845932 -0.13086127 -0.3009561 -0.025730085 -0.22286601 0.38623548 0.43894908 0.23391202 0.3922306 -0.35097405 0.15605895 0.032025103 -0.18383634 -0.11779821 0.5706842 0.66277236 -0.04519906 0.51426166
667 0.50347424 0.7008441 -0.13595289 -0.37921393 -0.3274952 0.09272399 -0.13471559 0.4471534 0.12312151 0.23209827 0.41431662 0.021772156 -0.022951655 0.91390336 -0.5993732 0.09271112 -0.3530951 0.09607081 0.21875885 -0.28062826 0.6014812 0.06480459 0.49397835 0.18603276 -0.34225765 -0.41526186 0.20996441 -0.25637215 -0.40692267 0.302429 -0.45848745 -0.23165095 0.1545834 -0.25536385 0.26928148 0.1964187 -0.40140244 0.09168132 0.70649064 0.59826297 0.033147797 0.37570947 0.70000476 -0.04460531 -0.3920347 0.3651793 0.39259627 0.39403078 -0.69996125
928 -0.24008302 0.6276795 0.37305728 0.43148914 -0.48823485 0.17361209 -0.23271954 0.013945274 -0.41200578 0.12980366 0.32223234 -0.19920416 -0.2702132 -0.0040560323 0.09125019 -0.37930357 0.13936524 0.22745703 -0.1381729 -0.24297345 0.256082 0.0541288 0.021251505 -0.70609635 -0.14114192 -0.3982188 0.66176 -0.6645288 -0.38782465 0.13782501 0.13447995 -0.12494624 0.115291975 0.15992635 -0.36079785 0.52861166 0.5748183 0.7144702 0.2866523 0.46816632 -0.47579947 -0.29078406 -0.002876159 -0.52410936 -0.20393641 0.3858659 0.40769646 -0.43122062 0.2668992
396 0.110634424 0.4648082 -0.32333145 -0.64970624 -0.0710467 -0.48199585 -0.11750861 0.36168298 -0.3352698 -0.27388084 0.14676061 0.2827673 0.03363356 0.051094912 -0.655647 0.4434456 -0.46460402 0.35457236 -0.05328337 -0.347976 0.5296463 0.111555554 0.36944756 0.07261311 0.3350806 -0.30722705 -0.24128416 -0.17966995 -0.43194455 0.2064012 -0.4767168 0.22985186 0.43661004 -0.27063474 -0.5386359 0.1284237 0.49351215 -0.18469635 -0.112357795 0.7414119 0.0450793 -0.20671697 -0.17991787 -0.15811668 -0.3820048 -0.061058555 0.37479857 -0.119680695 -0.3117441
218 -0.4011539 0.27800548 0.22860065 -0.22286993 0.23486426 -0.13604218 -0.47892916 0.80685425 -0.36732438 -0.77267987 0.54844975 0.19228205 -0.11373206 0.22147208 0.37340325 -0.45342386 -0.00560928 -0.22002682 -0.3280065 -0.18155567 0.4723888 0.12455264 -0.16671458 -0.21075487 -0.08024231 -0.4565866 -0.6921986 -0.9555638 -0.139844 0.3078644 -0.1240535 -0.20226587 -0.6611582 0.50051165 -0.057599332 0.507104 0.39984223 0.23809838 0.18217134 0.54957104 0.10536162 0.33317637 -0.052893978 -0.2764105 -0.35611913 0.22278431 0.013774718 -0.13774225 0.020705849
786 0.19001617 0.22425377 -0.10240665 0.6643386 0.2549978 -0.44682026 -0.5740977 0.5022407 0.18413675 -0.05095405 -0.43181166 -0.61211795 -0.4810906 -0.027340496 -0.17992437 0.16353089 -0.34706813 0.22303599 0.46475118 -0.4244883 0.41817608 -0.1696307 0.49809885 0.2141458 -0.27398968 -0.19852667 -0.5042295 -0.4359047 -0.09427935 -0.39650142 0.31189564 -0.2246357 -0.12432231 -0.1276378 -0.18624721 0.32312292 0.39488378 0.31436223 0.017176423 0.1115897 -0.47691265 0.661617 -0.04631508 0.19586363 -0.4140909 -0.011133207 0.3933066 -0.48089585 0.110420324
578 -0.52041304 0.89289314 -0.0935025 0.22584854 0.536558 -0.022964662 -0.16581026 0.12543772 -0.44066948 -0.3512271 0.35414723 -0.2200523 0.021020439 0.12355682 -0.45243406 -0.11000644 0.33860853 0.16404788 0.4193863 -0.29774177 0.5316378 0.023668379 0.29380727 -0.27444178 -0.42757815 -0.28128842 -0.22834596 -0.46969503 -0.57129383 -0.3621702 0.2952456 0.08554881 -0.57555956 -0.070413634 -0.11752014 0.2701065 -0.055030264 0.070217215 -0.16471206 0.70439136 -0.7434062 0.05197995 0.22873113 -0.16198465 -0.09059034 0.35656554 0.36014825 -0.32637838 0.049952917
600 -0.3354871 0.18094638 0.24929596 -0.09697503 0.0823566 -0.37700883 -0.7229866 0.70072705 -0.47830078 -0.5712966 0.63630444 0.36844596 0.018571438 0.472004 0.42388913 -0.681718 -0.5918506 0.09184367 -0.43320134 -0.47864625 0.36899576 -0.15319891 -0.39299086 -0.5492009 -0.02485355 -0.3816807 -0.32915416 -0.61388797 -0.4881781 -0.11636831 -0.2925414 -0.26182094 -0.53474987 0.55506533 -0.16892377 -0.014606875 0.60741216 0.20695996 0.10476153 0.07049693 0.09703143 -0.092862464 0.047765415 -0.09187998 -0.18028769 0.07316823 0.09678711 0.029924124 0.06591026
347 -0.14734034 0.15907656 0.74314636 -0.16546214 0.19563021 -0.38375455 -0.53030235 0.68166757 -0.83955026 -0.28144437 0.8414638 0.49706864 0.061284907 0.6238143 0.32864848 -0.15891893 -0.029620912 -0.23409744 -0.3463429 -0.2982537 -0.03840772 0.30425897 0.003620668 -0.4251911 -0.09409703 -0.29921073 -0.24124156 -0.9828781 0.023146078 -0.13223322 -0.17592728 -0.46207747 -0.25818592 0.48713502 0.14804451 0.36100036 0.5500869 0.31725377 0.35633984 -0.027301773 -0.15129718 0.40489882 -0.31659076 -0.26465884 -0.02299306 0.39861205 0.4204266 -0.23296133 -0.07786661
952 -0.30236575 0.106866516 -0.13620938 -0.01487824 0.110794954 -0.4658027 0.26208195 0.6772815 -0.16480969 0.018407797 -0.2434069 0.047054872 -0.6197467 0.6803831 -0.055718906 0.17697403 -0.16236836 0.07226515 0.06517247 -0.60857177 0.34828418 -0.26376057 0.7135801 -0.2159067 0.048450805 -0.13924924 -0.12124203 -0.31846297 0.032364927 -0.17224687 0.23243636 -0.24962667 0.16902715 0.085779004 -0.2717487 -0.086953096 0.37254468 0.3646434 0.40143055 0.092110746 -0.39475277 -0.060030393 0.015300022 -0.1057398 -0.31156507 0.112501316 0.11670344 -0.46516445 0.716802
876 -0.01589923 -0.08193589 0.102017015 -0.2619521 0.34907496 -0.5368532 -0.0504642 0.52306193 -0.16141602 0.43923253 -0.33659002 0.034226745 -0.35946876 0.8878106 0.11433984 -0.034230262 -0.21512087 -0.386803 0.100753464 -0.31652552 0.38070154 0.16841677 0.65054 -0.29174128 0.4282847 0.043619182 -0.29944232 -0.93863213 -0.33469898 -0.19416347 0.15479594 -0.53246516 0.107494205 0.3023164 -0.81756747 0.1428419 0.47071114 0.31624365 0.36407194 0.13244256 -0.2757288 0.08090012 0.31655997 0.020640135 -0.12106723 0.43438575 0.038923502 -0.26271862 0.06129586
764 -0.4028057 -0.06425838 -0.4892768 -0.04962685 0.15084168 -0.6362141 -0.24326128 0.45834768 -0.47390258 0.32681862 0.29854113 -0.23925573 -0.3407669 -0.034175053 -0.3465125 0.25127167 -0.7265736 -0.27698657 0.3949251 -0.34950268 -0.03628232 0.35268608 0.5681511 -0.34483746 -0.31577542 0.039890535 0.16170056 -0.6199243 -0.08212783 -0.57051975 0.039396882 0.07370161 0.041596316 -0.16001977 -0.30219954 -0.3548123 0.11876046 0.43997577 0.29265243 0.14215806 -0.2918059 0.072445065 0.47290567 -0.18631041 -0.44533285 0.0043212674 0.39793897 -0.5372573 -0.17788184
736 -0.008242371 0.30013603 -0.24557644 -0.19150415 0.0056124777 0.11453199 -0.2104972 -0.019224647 -0.22544003 -0.0077485195 0.31302938 -0.07392368 -0.40053108 0.617283 -0.13761778 0.04613485 -0.10032345 0.46004248 0.094908625 -0.47833246 0.8150888 -0.1914383 0.24076068 -0.18010473 -0.57108897 0.1682566 -0.38639855 -0.3181983 0.4289156 -0.12201638 -0.6542946 0.45711786 -0.34794945 0.0070902696 0.020513901 0.3912833 -0.2799657 0.23628178 0.6511243 0.50471276 -0.7377083 -0.33243427 -0.15596512 0.8781086 0.3244877 0.18798788 0.4732669 -0.001587293 -0.3534256
540 0.16808255 0.6401734 -0.14756308 -0.24462529 -0.043394182 0.08091662 -0.47533035 0.047671095 -0.13613194 -0.05436754 0.4071821 -0.11025571 -0.39739886 0.49644 -0.1656848 0.1780084 -0.2506118 0.3811074 -0.30028886 -0.5619541 0.61774117 -0.41230887 0.58298594 -0.23074202 -0.32119086 0.085371934 -0.16004923 -0.55901504 -0.009316442 0.0053508296 -0.8667688 0.19692098 -0.055764616 0.35044128 -0.258338 -0.1402057 -0.010402474 0.12899227 0.44530705 0.45106238 -0.3651623 -0.44066933 0.00204998 0.7998784 0.45943803 0.41629344 0.19373345 0.011345364 -0.029745413
252 -0.24520275 0.07365245 0.36303747 -0.038329717 0.25119543 -0.21489255 -0.50046337 0.9803885 -0.5795133 -0.2865188 0.6259931 0.4852042 -0.035069227 0.21612403 0.4170101 -0.62675494 -0.29304314 -0.34174475 -0.51368076 -0.47814655 0.26491946 0.090516664 0.034390688 -0.48921072 0.045871064 -0.3963431 -0.42554563 -0.8810942 -0.24377535 0.36841902 -0.13839397 -0.3801184 -0.2914302 0.44300056 0.0131893465 0.37515828 0.6977095 0.25442424 0.1838606 0.3297535 0.048457228 0.43749666 -0.03428347 -0.100692846 -0.047048062 0.26431778 0.4947208 -0.17166533 0.05368027
349 0.3805751 0.52478707 -0.3173957 -0.13129367 -0.10080332 -0.5384206 -0.45454296 0.22651477 -0.41780615 -0.69805896 -0.1671105 -0.14487728 0.10589299 0.58153 0.08859026 0.10035891 -0.25711337 -0.123846635 0.518565 -0.31737715 0.3015338 0.32759592 0.09578142 -0.1584152 -0.21696985 -0.273787 0.0034889875 -0.035136867 -0.5468491 0.06395214 0.2145715 0.77392924 -0.34690338 -0.8266709 -0.08511926 0.16594426 -0.4563034 0.15304135 0.10213456 0.6255921 -0.3706332 -0.043004155 -0.32529214 -0.12909238 -0.027471028 -0.17460954 0.59520864 -0.6753844 0.035517156
604 -0.13705602 0.049852215 -0.598845 -0.36129254 -0.18709444 -0.63875306 -0.35746014 0.5280912 -0.28186938 -0.42094094 0.07501622 -0.22735442 -0.18131213 0.26077142 -0.12044113 0.22663936 -0.6793231 0.16165847 0.31756094 -0.26123747 -0.18814833 0.51458585 0.7260117 -0.12913828 -0.43643552 -0.07773845 -0.056718174 -0.43709624 -0.08628602 -0.2774336 0.27276182 0.43240172 -0.034150127 -0.54156846 -0.12228703 -0.23045947 0.16697703 0.67477846 -0.07545252 0.15947497 -0.09920575 0.1816228 -0.0291089 0.16790861 0.03384419 -0.23898265 0.71663237 -0.59495515 0.048589516
132 -0.0562599 -0.06059497 0.42921242 -0.09078067 0.08675047 -0.03779597 -0.0948435 0.71927786 -0.26406547 -0.8246155 0.65582174 0.41802606 -0.045138806 0.59418577 0.57919276 -0.5242744 -0.2603781 -0.19203493 -0.17453843 -0.30427992 0.52292866 -0.09172489 -0.041065715 -0.009184833 0.092141576 -0.23999755 -0.4029493 -0.82094365 -0.1378701 0.01816507 -0.18187045 -0.18962365 -0.5281353 0.56570864 -0.09865842 0.4889488 0.57690793 0.7380004 0.039759617 0.20786273 0.36603066 -0.05951433 -0.15538369 -0.4695215 -0.6430122 0.39279643 0.25154877 -0.35030946 0.07788826
125 -0.058668982 0.32584724 0.7152523 -0.1424221 -0.26534027 -0.17325665 -0.43123344 0.59395665 -0.6711719 -0.18107913 0.72046185 0.34079528 -0.024946116 0.5806774 0.513565 -0.43590194 -0.29998174 -0.59717774 -0.22618882 -0.3883851 0.28454703 0.66696596 0.21535425 -0.3984044 0.22815983 -0.06535995 -0.05923581 -0.9072646 0.08262296 -0.11961952 -0.30977932 -0.49879488 -0.38871148 0.6057355 0.0866904 0.4163603 0.59933764 0.37994075 0.37551168 0.027800594 -0.15686175 0.31393299 -0.19139528 -0.1333921 0.30409917 0.26427355 0.36360517 -0.448836 -0.3474448
755 0.14391479 -0.09419124 -0.12923597 -0.4317873 -0.12105046 0.43455514 -0.28719482 0.4256722 0.07337137 -0.14344236 -0.061064113 0.27010667 -0.43719772 0.37913683 -0.23921874 0.08627924 -0.21939601 0.49215922 -0.3113049 -0.2358841 0.29304552 -0.0927823 0.38691834 -0.17363699 -0.36267817 0.063474916 0.19227469 -0.74581474 -0.012587578 -0.3899415 -0.5527891 0.23889416 0.099222176 -0.08453825 -0.0859347 0.021072928 -0.2744475 0.13529399 0.5807556 0.5456949 -0.39158908 -0.4708812 0.21473904 0.52482414 0.5466613 0.29250035 0.42042512 -0.15167621 0.36016268
418 0.020302517 0.022216193 -0.5615355 -0.065031454 0.48769936 -0.49840975 -0.17486058 0.64505076 0.06479465 -0.032245997 -0.39458779 -0.42420253 -0.5060564 0.26557866 -0.14282966 -0.08215308 -0.5210308 -0.009189322 0.47295165 -0.40672353 0.5590123 -0.15942839 0.7975167 -0.039962802 -0.16555482 -0.24858572 0.22695528 -0.71051425 0.29275876 -0.16997097 0.2175833 0.06974478 0.15935157 0.011366779 -0.11118004 -0.15306185 0.38225657 0.41380495 0.16190973 0.011441413 -0.018351411 0.001115505 0.06478588 0.09832054 -0.117974065 -0.049380276 0.50769895 -0.6002214 0.28372994
775 0.18335235 0.09984833 0.11081579 0.04644024 0.4357145 -0.16049364 -0.0918347 1.0193822 -0.44559872 -0.52819085 0.8701743 0.31636193 -0.13459592 0.4099738 0.4996933 -0.59316397 -0.39551917 -0.037658162 -0.47001556 -0.20641989 0.54777884 0.0018460248 -0.19262518 -0.3480528 -0.17447619 -0.2878463 -0.71678686 -0.5500513 0.15691335 0.39102694 -0.22674552 -0.292398 0.07498875 0.48497295 -0.36867228 0.40212297 0.5371426 0.18987137 -0.1455176 0.24729992 -0.0060440768 0.17389116 0.56150305 -0.006602872 -0.21414217 0.102850534 0.3515225 -0.2388108 0.21742697
232 0.011681977 -0.31534052 -0.27117175 0.037240814 0.07776609 -0.2545584 -0.5805846 0.09903684 0.28449035 0.04559087 0.381024 0.3057781 -0.40844974 0.38221565 -0.3085795 0.18835177 0.78624797 0.29758847 0.2669556 -0.06762404 0.79294837 0.046689354 0.2989025 -0.525398 -0.13388862 -0.66790366 0.4242407 -1.1726722 -0.06216566 0.08250673 0.3335855 0.5875508 0.4598761 0.14847536 -0.22945651 0.30833858 -0.13646565 0.22719717 0.51736677 0.21832006 -0.34193358 -0.046024986 0.009784365 0.2100056 -0.26327586 0.17572442 0.22186497 0.034725152 0.19557875
525 -0.14105628 0.7772045 0.2989437 0.70289975 -0.05681601 0.11774149 -0.34895355 -0.08015421 -0.24140675 0.05037097 0.6164974 -0.5094399 -0.2268524 0.17003816 0.043784667 -0.42068112 -0.055050064 0.27422762 -0.61918354 -0.44127136 0.18813333 0.302326 -0.08481631 -0.15898506 -0.4255404 -0.6803847 0.71577704 -0.4768941 -0.27928403 -0.19372615 0.108934656 0.22282378 0.117855355 -0.3557845 -0.36160874 0.38851446 0.7465761 -0.11917758 0.13057205 0.424922 -0.19282222 -0.63913405 -0.11847429 -0.15218852 -0.41904074 0.20818245 0.2267001 -0.40075448 -0.32145426
768 0.3147906 -0.15173754 0.10198756 -0.34030625 -0.15647843 -0.54658645 0.05345975 0.45878813 0.05790249 -0.051891938 0.03631653 -0.5954359 -0.046557378 0.94472754 0.2866953 0.18343018 -0.022344664 0.3224902 0.056255564 0.01043641 0.10492608 -0.53185314 0.1306824 -0.41036943 -0.21309134 -0.122652374 0.17232893 -0.66362107 -0.47869283 -0.098297894 -0.2234116 -0.09332664 0.36844566 0.14166632 -0.49125078 0.005234133 0.30289513 0.28879252 -0.02557261 0.040735822 -0.95435333 0.48816904 -0.013227658 -0.19380417 0.07688876 0.65154713 0.028146822 -0.23344846 0.38486552
447 -0.14743666 -0.062887974 0.34105554 -0.083218075 -0.29611257 -0.30230775 -0.12526385 0.42526713 0.10743393 -0.89562434 0.85850143 -0.09048809 -0.12824346 0.4182052 0.6377567 -0.27941912 -0.03530222 -0.056905262 -0.2613768 -0.39822778 0.38286483 -0.25586832 0.029969094 0.06877494 -0.39197055 -0.37852672 -0.4280588 -0.38618368 0.33845532 0.01855469 -0.25088653 -0.6669311 -0.19903581 0.5473329 -0.40748483 0.784669 0.21402815 0.39232048 -0.30315018 0.40872633 -0.15131167 0.11567661 0.10489269 0.20855527 -0.32542315 -0.26331225 0.048798673 -0.4258972 -0.102984555
712 0.18004861 -0.030265367 0.07880482 -0.12287023 -0.22611174 -0.22022536 -0.23853876 0.65128255 0.16815136 -0.6677903 1.0556451 -0.063837625 -0.38046616 0.4900061 0.57422054 -0.35591498 0.017624987 -0.17017277 -0.6099817 -0.5042629 0.75959295 -0.31217277 -0.35069868 -0.29787418 -0.30434534 -0.3423398 -0.28979513 -0.31531036 0.37797734 0.06613813 0.0446977 -0.78471965 0.050274026 0.2603289 -0.6316642 0.17279421 0.28251505 -0.13624054 -0.54190844 0.46074668 -0.17397831 0.32546297 0.2909945 0.08306861 -0.19980633 -0.18842804 0.3031157 -0.5508272 -0.21334048
610 -0.04412534 -0.114286125 -0.35824174 0.087308146 -0.31556305 -0.4916981 -0.008093394 0.30860513 -0.23606151 0.30634576 -0.21955109 -0.18310365 -0.48271614 0.71157813 -0.1720745 0.012855629 0.20131348 0.3588344 -0.1574446 -0.13408451 0.18952358 -0.23491392 0.57470363 -0.5271969 -0.081529625 -0.2702824 -0.23018412 -0.8437444 -0.30568054 -0.08427839 0.3125566 -0.22063889 0.51620984 0.09146261 -0.428356 0.05041832 0.41601965 0.23909345 0.27207938 0.122798495 -0.28931433 -0.09325578 -0.08491711 -0.020685231 -0.5677036 0.33697706 -0.0535328 -0.45335957 0.14278658
459 -0.047756903 0.2796001 0.5132284 -0.2601195 -0.049123175 -0.45679316 -0.462078 0.85524356 -0.70936173 -0.3429411 0.7919757 0.4980613 -0.0673971 0.39750862 0.42752653 -0.4453431 -0.34536445 -0.31634417 -0.3633744 -0.40449315 0.10260604 -0.15884556 -0.2282289 -0.63334316 -0.10436368 -0.3364097 -0.3620328 -0.907881 -0.1489105 -0.07054745 -0.28476542 -0.17378633 -0.18165673 0.55464715 0.07264199 0.22098781 0.6369043 0.1715973 0.13764597 0.11975959 -0.16283657 0.40039495 -0.14312366 -0.29187417 -0.11891268 0.24688958 0.24120581 -0.21158983 -0.004827222
242 0.22697291 -0.24786738 -0.113450065 -0.5373982 0.30472925 -0.5872199 -0.08235691 0.30028772 0.010243134 0.53063303 0.023435222 0.067343 -0.36440396 0.79106474 0.12341265 -0.36206272 -0.27411434 -0.73064137 0.2198867 -0.49348876 0.54195803 0.11329256 0.37509048 -0.48327798 0.20844907 0.21689534 -0.17085408 -0.8082566 0.0979933 0.018608201 0.064765915 -0.71258503 -0.024594814 0.18240933 -0.8223462 0.22646236 0.2755264 0.57364565 -0.13193448 0.22873144 -0.19216795 0.01272059 0.19505541 0.019049324 0.014934444 0.39484644 0.13195816 -0.44471943 -0.18126848
877 0.34650436 -0.15665333 0.3142189 -0.48043597 -0.31206885 -0.06363176 -0.0070240474 -0.051320877 0.0044721984 -0.30147636 0.8469953 -0.21711457 -0.38425365 0.71883446 0.87199813 0.29555959 -0.48569885 -0.48935184 -0.1554308 -0.44280443 0.37807274 0.8749044 0.53626627 0.042716775 0.1379864 0.008874422 -0.20708546 -0.6104366 0.17613292 0.13565408 0.035031583 -0.27873686 -0.27630088 0.25931168 -0.49085876 0.20646112 0.31398264 0.463774 0.14865524 0.36008567 -0.3989252 0.3102184 -0.006285037 0.3144581 0.5600358 0.09728903 0.4659713 0.0020607344 -0.15999226
339 -0.39695495 -0.21733125 0.68211967 -0.35996208 0.07008575 -0.11760387 -0.50465685 0.84707415 -0.29563457 -0.46339938 0.33831874 0.623823 -0.15576984 0.45169258 0.49487096 -0.30006126 -0.24545929 -0.50673324 -0.30864677 -0.19629566 0.6944256 0.12785159 0.055367198 0.09950111 0.02099043 -0.15064959 0.008397449 -0.8765552 -0.2437667 -0.030748446 -0.083841175 -0.23620012 -0.565524 0.7004428 0.040727742 0.39307377 0.7623024 0.51128125 0.30275837 0.67309076 0.2726622 0.28604585 -0.36217412 -0.30109808 -0.25826457 0.68640596 0.240961 -0.13891478 -0.14882144
378 -0.07945565 0.31946453 -0.1250673 -0.2881248 0.5044495 -0.32426515 -0.0672711 0.65299326 0.1446141 -0.11216605 -0.4514062 -0.431545 -0.8444037 0.44005013 -0.15763797 0.45337537 -0.466334 0.090259306 -0.046094056 -0.14248113 0.5513407 0.20092404 0.8717682 -0.27576578 -0.2535764 -0.3955831 -0.14896542 -0.27703935 0.27643394 -0.6076505 0.27258435 -0.12856366 0.26559135 -0.1358713 0.05479847 -0.16299121 0.47003132 0.4501633 0.3955591 0.23328361 -0.070968 -0.08890683 -0.29218477 0.24590255 0.04305885 0.14866483 0.2718594 -0.37890905 0.41260785
843 0.16580577 0.5681882 -0.48959866 -0.20117377 -0.44685182 -0.52471024 -0.27455428 0.53067595 0.05248153 -0.107537344 0.44313097 -0.08989813 0.32347366 0.3561527 -0.36134323 -0.14752348 -0.040452328 0.17852938 0.24214098 -0.62616235 0.41967568 0.18915406 0.98206216 0.17487359 -0.82169884 -0.6906723 0.031458177 -0.18440829 -0.2592934 0.05097657 -0.24325888 -0.08898895 0.14571196 -0.6031351 0.2855316 -0.19810618 0.051498238 0.5547927 0.10676554 0.26266265 0.34785947 0.54460055 0.34000096 -0.117454425 -0.5057167 0.5586424 0.025258724 -0.033695623 -0.14683555
532 0.45922196 -0.3020476 0.45993096 0.29051185 -0.02843135 -0.30884936 -0.20543507 0.62541765 -0.5749985 -0.7226874 -0.30301732 0.059381526 -0.74233496 0.94136125 -0.2612104 0.51027334 -0.70505685 0.5015553 -0.10453691 -0.620796 0.6147303 -0.6351089 0.20115064 0.008141843 -0.6576658 0.29058015 0.13381892 -0.62772673 -0.011256948 0.20648156 -0.09532833 -0.17853759 0.16938366 -0.15608624 0.38450825 0.4524259 -0.40548825 0.28948793 0.4588166 0.18329278 -0.69720906 0.032602478 0.3843069 0.4091637 0.2319705 0.69696283 -0.41131428 -0.05692894 -0.5152448
246 0.22365555 0.379635 -0.24384183 -0.23456676 0.7233058 -0.52818996 -0.021587078 0.6843518 -0.24477105 0.079205364 -0.1989755 -0.47559988 -0.59464276 0.18546787 -0.014510435 0.012866775 -0.41838828 0.32132772 0.08581549 -0.32050395 0.6528872 -0.17621088 0.6782171 -0.05484379 -0.48179814 -0.5234449 -0.20292616 -0.60360646 0.25245637 -0.33333227 0.16952461 -0.00032080399 0.20515116 0.16065635 -0.41553503 -0.266756 0.48417425 0.39182022 0.13274081 0.3015445 0.01685517 -0.27628976 -0.05932591 0.37526315 -0.06303902 -0.3675316 0.19924843 -0.3616463 0.2200007
657 -0.1020527 0.17688484 -0.09559203 0.028810892 0.3352347 -0.14287342 0.110153034 0.7249933 0.05338954 -0.04955509 -0.065213375 -0.23027372 -0.59322137 0.12486622 -0.3039584 -0.07055745 -0.47536862 -0.11811926 0.3262535 -0.39971426 0.6855222 -0.49865958 1.0671576 -0.04846311 -0.23595229 -0.51857775 0.14954421 -0.2444661 0.08547225 -0.4054412 -0.07255876 0.2863633 0.020338576 0.10775723 -0.37250078 -0.13606542 0.12288865 0.52548474 0.37881452 0.02901776 0.30993107 -0.35902196 -0.18495132 0.25314006 -0.032067157 0.119886756 0.391973 -0.4107706 0.28128678
292 -0.35908225 0.765642 0.29907867 0.1680874 -0.016292783 0.5832897 -0.3027614 0.26637074 -0.5539137 -0.20043153 0.20414464 -0.52563846 -0.13057376 0.020497253 -0.116586976 -0.28777686 0.10004483 0.08330344 -0.18083517 -0.21290484 0.45229954 0.44054654 -0.27248034 -0.81518656 -0.2869225 -0.302453 0.74481606 -0.92906225 -0.3037177 -0.38127494 -0.2117445 0.05102837 0.18236583 -0.047502194 0.004483895 0.3066829 0.123966776 0.34122685 0.23383966 0.17004551 -0.4018683 -0.37813714 -0.036094125 -0.36570716 -0.5031349 0.4945789 0.39729756 -0.5457631 0.35231048
142 -0.24425645 0.16468152 0.74079734 -0.25994948 0.13818479 -0.55352277 -0.5199821 1.0290209 -0.71017766 -0.47242832 0.5578263 0.5673436 -0.09976534 0.21889144 0.37387535 -0.47941056 -0.41783515 -0.47868702 -0.31033978 -0.34508622 0.28508502 0.12685935 -0.04950198 -0.45286483 -0.1332263 -0.26286525 -0.2115627 -0.7040861 -0.13056165 0.26216266 -0.16128677 -0.17817566 -0.3950883 0.5846766 0.28333437 0.29495242 0.4453013 0.25848803 0.16840734 0.6128772 -0.059592795 0.2670282 -0.021782987 -0.28812417 -0.108155854 0.2792546 0.04579494 -0.2683766 -0.32526812
929 0.71203905 0.2109035 0.2122921 -0.32865602 -0.13614932 -0.49079213 -0.14479434 0.5488041 -0.1603843 0.09716938 0.32404584 -0.12296553 -0.022952586 0.5396871 0.41922602 0.21880285 0.03760098 0.5902191 0.6431043 -0.12651181 -0.061852265 -0.3566672 -0.052348137 -0.47796214 -0.78275526 -0.17168497 0.55458885 -0.610752 -0.5206003 0.032537244 0.045355957 0.1069381 0.14404461 0.23438619 -0.5772045 0.13987191 0.11020599 0.07480764 0.2542934 0.11761424 -0.3095879 0.40591627 -0.5868681 -0.6109162 0.0026629143 0.54597425 0.25580654 -0.29329112 0.33201683
551 -0.27662146 0.6208779 -0.0655338 -0.32454956 0.870584 -0.11470336 0.0066428827 0.09340295 0.17896701 0.076271534 -0.21751115 -0.82263005 -0.839072 0.37462115 -0.11645346 -0.120165415 -0.58147466 0.32065973 -0.4222202 -0.36231285 0.47424734 -0.047261883 1.0020082 -0.2207692 -0.37838235 -0.543693 -0.21052341 -0.44795942 0.3482967 -0.34557158 0.1508906 0.3281304 -0.057093322 -0.06664739 -0.09980666 0.2886775 0.08738184 0.50674194 -0.087115176 0.28720868 0.28424975 -0.1257978 -0.19303147 -0.10222239 0.39848486 0.22664268 0.1399536 -0.03619088 0.2631004
679 -0.09147676 0.33713555 0.03384128 -0.13829595 0.29578012 -0.36229908 -0.24197677 0.5187295 -0.48652512 0.4368406 -0.1661468 0.20443675 0.07791251 0.44445938 -0.1694418 0.24651957 -0.14853318 0.5865119 0.48906785 -0.50622016 -0.1677758 -0.005933621 0.06733933 -0.3397898 -0.7731555 -0.4379841 0.05168024 -1.1542068 -0.21295822 -0.2764059 0.2470231 0.35247102 0.020805083 0.29711047 -0.5347036 -0.47851247 0.06263916 0.12185279 0.017925417 0.24120809 -0.22678946 0.15023716 0.07259249 -0.25199252 -0.283159 0.10234179 0.43843928 -0.273045 0.17761151
303 -0.16432364 0.31052363 -0.21630569 0.016160367 0.44078615 -0.510467 -0.5193893 0.40547338 -0.9077586 -0.7563434 0.1018545 -0.17386928 0.062675215 0.480159 0.14897838 0.22385767 -0.004874142 0.14885809 0.37726635 0.31321707 0.14118582 -0.043002326 0.68961257 -0.016449355 -0.13765015 -0.20707718 0.3882771 0.096047305 -0.37780163 0.21104957 0.03697261 0.013560178 -0.14992727 -0.46418428 -0.50945014 0.17914648 -0.31344637 0.009064787 0.23336932 0.8225825 -0.5474822 0.010075386 -0.2109092 0.036650334 -0.14302313 0.40003204 0.08763391 -0.2863191 0.4301605
678 0.061033834 0.13209511 -0.453671 -0.20419158 -0.24947052 -0.79701287 -0.35329482 0.28700778 -0.16564804 -0.2885818 0.36283636 0.14464793 0.22981058 0.2736055 0.14257419 0.072639465 0.15614991 -0.018893564 -0.04919844 -0.27114478 0.2015406 0.5676291 0.7756699 0.058704372 -0.3549291 -0.8215543 -0.4132297 0.05341825 0.30607325 -0.21852258 -0.21876112 -0.10674839 -0.27097252 -0.30905363 0.21787597 -0.31176034 0.3229094 0.6037449 -0.011507207 0.35027194 -0.3005793 0.3989327 -0.09395438 -0.07603803 -0.23988077 0.69986993 0.13502575 -0.36528653 0.12158794
933 -0.26046988 0.18963265 -0.26000953 -0.024157 0.25785497 -0.4721333 0.25775456 0.9116353 0.109396145 -0.07225558 -0.34654796 -0.18920079 -0.6594463 0.7821319 -0.35517403 0.14867248 -0.2714332 0.08803199 0.21042985 -0.48280257 0.6024289 -0.08204734 0.901812 -0.19320399 -0.04819131 -0.13792522 -0.003194529 -0.09097734 0.15975508 -0.40148792 0.2699178 -0.11597882 0.41478482 -0.08302207 -0.21451053 -0.15005292 0.4091293 0.43882382 0.26937315 0.17071518 -0.23031968 -0.28394246 -0.33676463 0.08352994 -0.1781181 0.024046954 0.17965412 -0.50979155 0.4700577
539 0.64495385 -0.27782154 0.62724227 0.28436768 0.0063871047 -0.3627764 -0.25810373 0.73870236 0.05776152 -0.1903879 -0.4321209 -0.18790315 -0.54451394 0.6045701 -0.18219775 0.47581652 -0.5697084 0.42330563 0.07433857 -0.694918 0.71677387 -0.6482607 0.3943315 -0.022094704 -0.87315166 0.32331544 -0.039204903 -0.60261357 -0.049261644 0.05505219 -0.40968877 0.31409734 0.15128197 -0.107619084 0.34235165 0.59350044 -0.20623654 0.29557326 0.060544148 0.37861317 -0.47633994 0.07224002 -0.15624727 0.2670188 0.05531493 0.6478672 -0.27403247 -0.005361165 -0.5311744
168 -0.20550735 0.22477174 0.09343202 -0.20013006 -0.21051948 0.047362484 -0.12296214 0.2174142 -0.67653877 -0.42368594 -0.47419524 -0.35442525 -0.5857265 0.074708335 0.14183019 -0.5345303 -0.106243216 -0.36706662 0.30711105 -0.543679 0.51909834 -0.09201428 0.37962538 -0.16847421 -0.5306501 -0.13925356 -0.061335698 -0.23817013 -0.029893022 -0.73597085 -0.2599247 0.49833405 0.7978716 -0.4499412 -0.22103201 -0.1885117 0.33318186 0.19664204 0.09143801 0.13563606 -0.19356282 0.3635168 0.2040069 -0.39656952 -0.5198399 0.07594201 0.8289881 -0.31153625 0.3694821
793 0.1303531 0.18281172 -0.04229288 -0.18125162 -0.043108877 0.038213115 -0.25977054 0.116748825 0.060407896 0.04281399 0.22946365 -0.21546581 -0.46743694 0.73874193 -0.29237995 0.52529234 -0.2936954 0.48356757 -0.47527432 -0.43657002 0.55176055 -0.39592323 0.45129302 -0.12887885 -0.40297303 0.11389019 0.08590111 -0.75705767 -0.005610237 -0.19527787 -0.82190996 0.36738268 -0.12485591 -0.11780664 0.019359054 0.33502454 -0.4660819 0.35710907 0.69654137 0.61052835 -0.5096474 -0.2568322 0.11564362 0.8184517 0.66945356 0.23752354 0.092186674 -0.01855533 -0.28142077
587 0.302667 0.41278407 -0.044240285 -0.2508281 -0.22033764 0.2030814 -0.41850606 -0.0051909615 -0.24558803 -0.043043256 0.30563474 0.12716638 -0.63216525 0.8020556 -0.03572907 0.38617197 -0.24892907 0.4650298 -0.47724894 -0.644052 0.80337054 -0.4614441 0.8851912 -0.38903812 -0.49504256 0.23597768 -0.0957025 -0.43275285 0.25832552 0.43803284 -0.5272233 0.34765363 -0.14800169 0.22550863 0.08239375 -0.09676613 -0.36898068 0.1910275 0.7948904 0.43750763 -0.5101765 -0.09449126 -0.114983805 0.67786485 0.2859361 0.28342795 0.25866312 0.099647164 -0.28532
849 -0.010325 0.57074875 -0.46808952 0.3783276 0.34973735 0.05381945 -0.26420844 0.10741967 -0.78459835 -0.26314363 0.35013938 0.28482667 -0.3922985 0.01949249 0.40136817 0.34038892 -0.31152079 0.5458029 0.38212112 -0.41687942 0.01727847 0.15747443 0.31469336 -0.42031786 -0.5002278 -0.45576316 0.68034416 -0.21901008 -0.38025013 0.06449236 -0.4062566 -0.13395377 0.4613867 -0.33935857 -0.31158778 0.38853502 0.12374758 -0.30895418 -0.34546885 0.26369187 -0.26438168 0.5791105 -0.67727906 -0.2390019 0.23921828 0.8275046 0.117148235 -0.1740137 -0.01228592
17 0.09442634 0.22598688 -0.550063 0.12790158 0.11585061 -0.18945962 -0.6542749 0.6834781 0.09144925 0.22185428 -0.14703116 -0.40310737 0.19277026 0.27298942 -0.0021000754 0.031079696 0.16580644 0.45410937 0.103783846 -0.511932 0.21904358 0.2828352 0.5893407 0.109442376 -0.350514 -0.054021362 -0.62622064 0.26809052 -0.024279129 -0.4348841 -0.16196038 0.031792253 -0.32103366 -0.61766386 -0.40249696 0.6087647 0.30445218 0.45395127 0.20693168 0.54737675 -0.44043085 0.24684173 -0.06337099 0.051757194 -0.24377583 0.4076152 0.45971975 -0.67247385 0.03165711
375 -0.11807079 0.9543817 -0.11811138 -0.49637145 0.26709956 0.14235425 -0.29312533 -0.13427621 0.38878718 0.06482937 0.3577927 -0.62391907 -0.49534404 0.7789377 0.07788035 0.1591152 -0.47347215 0.5242148 -0.81482553 -0.79912186 0.29683843 -0.27903545 0.8754135 0.05420247 -0.49010733 -0.16579317 -0.048044857 -0.4815797 0.21637096 -0.11682054 -0.4550561 0.4450291 0.15811598 -0.24891582 0.015707491 0.4530682 -0.2187019 0.6671312 0.3905159 0.09542747 0.078845605 -0.079970516 -0.0011877932 0.17542815 0.683249 0.34151414 -0.023799965 0.039951026 0.038636364
383 -0.041797794 -0.05235657 0.18438987 -0.31069633 -0.24019402 0.31378672 -0.4094519 0.48662278 -0.19603705 -0.3885186 -0.14404926 0.17248385 -0.93565524 0.5510362 -0.07356356 -0.7061867 -0.15499274 -0.15358514 0.23691182 -0.061261445 0.52014947 -0.14082308 0.16754335 0.07500936 -0.7413478 -0.06551379 0.027202843 -0.43831325 -0.30036953 -0.46451387 -0.6874523 0.25175917 0.5275585 -0.67744905 0.022299426 -0.23243955 0.19195856 0.41087493 -0.6280671 -0.13277666 -0.5305253 0.59035724 0.23857704 0.009426099 -0.62655604 -0.26366636 0.515992 0.1207255 0.024020277
34 0.40103754 0.0383403 0.34790927 0.10921522 0.34693247 -0.18068266 -0.5421755 0.5951215 0.35253695 -0.13225353 -0.6053796 -0.103807814 -1.0381087 0.0149149895 -0.043331057 0.37689385 -0.33786297 -0.030010141 0.40373984 -0.7680196 0.75269735 -0.2846132 0.3340312 -0.055464666 -0.8320495 0.35585514 -0.14424099 -0.5330841 -0.044793468 -0.22819154 -0.37559715 -0.0039868318 0.25502548 -0.28820562 0.06270097 0.4341947 0.36439076 0.6009939 -0.3552581 0.23341261 -0.61376375 0.2714365 -0.22672479 0.44581416 -0.3537499 0.1752329 0.14086714 0.016017796 -0.2599725
608 0.0452209 -0.1396036 0.05262544 -0.4795969 0.22910082 -0.7335143 0.016804788 0.14087816 0.08512792 0.06929195 0.6360114 0.115946054 -0.41752905 0.93006927 0.72822875 -0.37660187 -0.41815162 -0.60879046 -0.053108804 -0.7372968 1.0813129 0.18943524 -0.5217538 -0.46537045 -0.7692458 0.0055969204 0.08608263 -0.9545646 0.51057184 0.22319987 0.17835143 -1.2363412 0.14079012 0.23519498 -1.1287796 0.40126583 -0.29809892 0.068687886 -0.5179519 0.77739 0.085950345 0.15249166 -0.07823167 -0.28863746 -0.31908923 0.18048511 0.3838585 -0.5963023 -0.3255157
296 -0.33248147 -0.03962361 -0.2743472 -0.39001647 -0.31299523 -0.66078085 -0.027818339 0.38439524 0.5658548 -0.4484171 -0.0504066 0.014903723 0.11487734 -0.03894869 0.17770904 0.49274248 -0.44868684 0.4473284 -0.35202718 -0.21224633 0.57343465 0.5525914 0.78692144 -0.33333322 -0.25801587 -0.18155934 -0.29664153 -0.045890745 -0.10596064 -0.37309232 0.0327952 0.11804033 0.018115226 -0.3343503 -0.24956018 -0.3165692 0.26536003 0.46683884 0.08786896 0.4370783 -0.7078173 0.15981048 -0.46480754 -0.14779654 -0.3705924 0.81107455 0.644268 0.015950624 0.019867646
305 0.09625131 0.43951303 -0.8938353 -0.02828997 0.01720062 -0.080081664 0.14011401 0.19626543 -0.31169754 -0.22136284 -0.20391263 0.34116828 -0.3019703 0.4445695 -0.6461459 0.0974987 -0.35277152 0.54314923 -0.12283043 -0.23646061 0.73233455 -0.06769256 0.096649386 -0.24864785 0.20230202 -0.5064685 -0.07229303 -0.23790981 -0.48726356 0.059418358 -0.47743297 -0.14309417 0.016236475 0.18900213 -0.0946209 0.2493244 0.21563497 -0.12354816 0.139227 0.9031551 0.08293187 0.5518117 -0.1129529 -0.703256 0.30475637 -0.2967091 0.70725596 0.010755429 -0.4788101
118 0.10446312 -0.29628354 0.5388262 -0.4854416 -0.00032796798 0.18600005 -0.5318943 0.40277147 0.13092566 -0.50038517 0.59215724 0.60088575 -0.58536243 0.46315983 0.26974517 -0.35807478 -0.46170786 -0.49483174 -0.26670992 0.17945695 0.28017715 -0.02594412 0.086381964 0.07688536 0.101510696 -0.40651643 0.2361326 -0.88175356 0.023296218 0.16223563 -0.12557855 -0.14151788 -0.3638356 0.12974067 0.097581044 0.26795682 0.90534043 0.53209525 0.6643898 0.24592575 0.047039766 0.6134933 -0.30387595 -0.16246097 -0.46426928 1.0327021 0.41212967 -0.16659972 -0.10037233
624 0.15509218 -0.30879635 0.50827336 -0.020611271 -0.13690732 -0.09740155 -0.3769057 0.7929796 -0.2546322 -0.33846304 -0.18080649 -0.13467433 -0.8444589 0.9766562 -0.36020502 0.5974449 -0.54658365 0.6422905 -0.2944599 -0.70138824 0.59648675 -0.3582124 0.33359164 -0.04912244 -0.80942005 0.3210398 0.27866828 -0.63248926 -0.20901056 0.39577475 -0.4794666 -0.21040858 0.20636871 -0.21218784 0.48473567 0.21312784 -0.12603585 0.26351613 0.38416174 0.1894707 -0.69929945 -0.107934095 0.036744528 0.2302387 0.45602205 0.44811466 -0.42199367 -0.15176357 -0.3146499
864 0.10405096 0.16894315 -0.36882955 -0.015997674 0.7317829 -0.12203384 -0.36574927 0.15906782 -1.0129431 -0.9097402 0.2550648 -0.46420902 0.07807407 0.5845984 0.055311806 0.08132097 0.093823105 0.48286077 0.526223 -0.15042613 -0.0011328631 0.5813683 0.6267728 -0.42889938 -0.050523736 -0.3734772 0.21231885 -0.4311644 -0.34217945 -0.2460818 0.17577471 0.010241927 0.19006748 -0.3697648 -0.0280315 -0.05028163 -0.5522962 -0.16955115 0.046623584 0.5815585 -0.5138042 0.14046805 -0.43159342 -0.022647917 -0.043047268 0.15716366 0.0058144154 -0.2331424 0.08639037
488 0.12939237 -0.26690775 -0.5854251 -0.17493397 0.05886706 -0.38875368 -0.14339744 0.44266757 0.15086791 -0.0808158 -0.005728876 -0.53915364 -0.23844779 0.7876686 0.046030924 -0.33783078 0.17862743 0.38550305 0.4053735 0.14723282 0.6318389 -0.3237304 0.56001353 -0.4952511 -0.2098428 -0.18370144 0.5460398 -0.635143 -0.19779842 -0.042084455 -0.06392089 0.15098758 0.56978244 0.15991671 0.010566061 0.07187176 0.44307673 0.6457436 0.107032545 0.028671768 -0.3152702 -0.052069988 0.11193479 0.57598203 -0.43255702 0.37479576 0.039870996 -0.14545731 0.08095438
802 0.5426519 -0.12749784 0.06391794 0.22023654 0.16595764 -0.576706 -0.11766261 0.6295115 -0.16364492 -0.46887645 0.04300366 -0.4579176 -0.41669556 0.69692117 -0.34442863 0.41206595 -0.6826786 0.36041778 0.16630971 -0.44927892 0.43966386 -0.3093519 0.15852612 -0.034699805 -0.71419007 0.06175506 0.1342649 -0.5299712 -0.3328477 -0.13074346 -0.52468115 -0.031356003 -0.12073006 -0.11342561 0.45019835 0.24395466 -0.39867368 0.050256997 0.88234365 0.5429444 -1.0096086 0.4072018 0.04385114 0.24946463 0.41981995 0.25690547 -0.66217285 0.07788537 -0.3126027
83 0.010552415 0.04009668 0.806669 -0.47266683 0.24425726 -0.41782185 -0.910437 0.5495468 -0.2188768 -0.14265315 0.35750985 0.6201909 -0.56264913 0.625791 0.49665537 -0.083435126 -0.4199307 -0.82694894 -0.6316343 0.021179503 0.4460455 -0.10662298 -0.42715657 0.010020106 -0.40171352 -0.42734912 0.20662834 -0.9000647 -0.013048978 -0.12664682 0.13242729 -0.0251045 -0.4119504 0.92313874 0.20171377 0.38325867 0.25203055 0.5715622 0.053813223 0.8321974 -0.02691076 0.17495011 -0.26410854 -0.35599056 -0.16867766 0.52426773 -0.070368685 -0.19161314 -0.50963044
291 0.3085084 0.77395993 -0.23945044 -0.28666747 -0.36440077 -0.1506055 -0.6408165 0.5664686 0.393732 0.041639406 0.44949088 -0.1483144 0.4049659 0.5539215 -0.49169096 -0.24965857 -0.08262389 0.25563025 0.37882835 -0.7826255 0.71153224 0.09931607 0.84871227 0.17226233 -0.7575345 -0.29411593 -0.055939738 -0.3262043 -0.74532515 0.035013992 -0.3713742 -0.39380527 -0.09149128 -0.6645369 0.42973575 0.057407312 -0.03411346 0.27076638 0.64250237 0.46035495 0.07990372 0.24923283 0.47621274 -0.0510614 -0.43692398 0.175312 0.036741994 -0.043817993 -0.29863307
243 0.14064808 0.3596081 -0.31926018 -0.32953522 0.048492648 0.18729058 -0.4797575 -0.15578492 0.12386143 0.3385898 0.35522443 0.17742786 -0.13808005 0.6409963 0.016091388 0.34225288 -0.59090763 0.39379218 -0.2619219 -0.60721093 0.42174676 -0.042704914 0.52180284 -0.11405175 -0.15951441 0.06115136 0.011955409 -0.6613796 0.33078852 -0.41807404 -0.73513377 0.41106007 0.112774 -0.21262975 0.12161567 0.11555253 -0.2789614 0.34570572 0.34413055 0.68735635 -0.40788427 -0.22200295 -0.1786602 0.79958624 0.9049035 0.6406219 0.28147143 -0.31539035 0.039214015
776 0.07862802 0.036546346 -0.81632745 -0.6607478 -0.00319828 -0.36142373 -0.6582927 0.5740175 -0.81109256 -0.40510905 0.3579733 -0.17472586 0.18642597 -0.00559494 -0.1609221 0.075833425 -0.01580905 0.20330918 0.03680822 -0.8338283 -0.32679087 0.27000546 0.521003 0.259128 0.2355773 -0.15387684 -0.451324 -0.45639482 0.039215613 -0.25941604 0.53958094 0.5232904 -0.18164603 -0.61294675 -0.19684613 0.47818735 0.23721512 0.19986291 -0.008410964 0.62965053 -0.09559129 0.16843213 -0.2551221 0.02851807 -0.19074355 0.12335126 0.62858003 -0.10977492 -0.2962214
483 0.37514734 0.39707115 -0.60284513 -0.33407283 -0.3381019 -0.6040952 -0.7754845 0.2592259 -0.57070404 -0.5603419 0.017430916 -0.037152134 -0.5127869 0.16894221 -0.02771793 0.14846794 -0.17265357 0.26207173 0.2634355 -0.5874608 0.010390733 0.16660734 0.31039226 0.17660205 -0.105913214 -0.03673851 -0.45993263 -0.19790132 -0.47433987 -0.09247787 0.14016095 0.79083097 0.47196612 -0.4560032 -0.26925725 -0.21984935 0.5623812 0.5275142 -0.15239248 0.47915503 -0.17088501 0.06398833 -0.19898948 -0.122802846 -0.071241386 0.08015375 0.49653295 -0.3647398 -0.3552561
328 -0.1540918 0.37893105 -0.3006533 -0.14556149 0.42079526 -0.45894486 0.29457256 0.82667387 0.020545365 0.0013180583 -0.23735157 -0.2905788 -0.69564015 0.25808382 -0.18082793 -0.02727974 -0.35675707 0.053395752 0.078843534 -0.56622964 0.5109557 -0.33776873 0.8016291 -0.27291268 -0.22492978 -0.31143615 0.020083178 -0.4089956 0.13213737 -0.5204736 0.37652326 -0.10088107 0.20252262 0.011793499 -0.27457097 -0.032596264 0.38567886 0.59215415 0.27796823 0.18519199 0.015631381 -0.22789331 -0.12932022 0.119422525 -0.35089436 -0.11511234 0.3868591 -0.40638378 0.413986
670 0.21470279 0.28278562 -0.41782367 -0.43153894 -0.24892898 -0.53826267 -0.04491824 0.15861076 -0.019963192 -0.69533986 -0.020829845 -0.031570423 -0.012621623 0.109965615 0.29308337 -0.2369138 0.037272282 -0.13268484 -0.22570597 -0.5469336 0.04260957 0.33257696 0.3572234 0.12544815 -0.6857758 -1.0149006 -0.3534062 0.18423523 0.031730518 -0.015511217 -0.24002308 0.1732379 0.6756076 -0.6560524 0.16575861 -0.00039955444 -0.19257617 0.4041119 0.11955135 0.61417145 -0.14209318 0.5747991 0.10257756 -0.2203734 -0.09900593 0.41551858 0.1481855 -0.8507348 -0.0020441427
977 -0.05895993 0.5622384 -0.13168907 0.6131133 0.35254374 -0.05451792 -0.59546244 -0.18689115 -0.26063463 0.027734427 0.29250428 -0.24659258 -0.24684556 -0.18254088 -0.08682965 0.035402834 -0.05038629 0.17790496 -0.00601561 -0.50766826 0.48751307 0.20533568 -0.18753608 -0.3485845 -0.5530477 -0.56054956 0.5939743 -0.41976187 -0.8006339 0.15183035 0.3058143 -0.021860497 0.34612757 0.19394206 -0.266919 0.5282129 0.32547966 0.2532346 0.06962551 1.1030815 -0.17609234 -0.5292652 0.11158103 -0.46950188 0.06571493 0.34908134 0.5634866 -0.19527575 0.27429286
985 0.26431847 -0.112544484 -0.09935706 -0.40878108 -0.19665529 0.31263253 -0.343082 0.01409058 -0.10636397 -0.09770736 0.4779502 -0.2731732 -0.49832505 0.63850164 -0.5143347 0.2840394 -0.07683598 0.37838572 -0.2819478 -0.30285633 0.5259167 -0.47564927 0.6822139 -0.35168713 -0.16198543 -0.1669057 -0.17445727 -0.49714196 -0.030430049 0.34982687 -0.94225055 -0.1059713 -0.24309655 -0.03961507 0.22362101 0.10329576 -0.32416594 0.5346096 0.2797375 0.6083801 -0.48743376 -0.51702535 0.11953295 0.53048915 0.5599868 0.039595246 0.7382369 -0.032892805 -0.6405802
392 -0.0516317 0.020849572 0.6934084 -0.24208781 0.023464967 -0.38038188 -0.585822 0.43703207 -0.8149255 -0.3493035 0.7938514 0.5231019 0.21188375 0.50795543 0.33876342 -0.31028253 -0.07438812 -0.30107775 -0.34113222 -0.4443073 -0.06538081 0.33760408 0.16379762 -0.261589 -0.07174418 -0.390067 -0.07786619 -0.86904985 0.22464928 0.034532804 -0.24385136 -0.46316698 -0.25055277 0.58471406 0.17427287 0.55650896 0.72390383 0.4667457 0.3066833 0.13349696 -0.012306476 0.27271768 -0.34626323 -0.47568533 -0.07016357 0.50584084 0.56571716 -0.19175783 -0.3876726
963 -0.05537514 0.46494418 0.39774892 0.07533185 -0.66155535 -0.17109054 -0.50150925 0.07826031 -0.18539587 -0.012444654 0.64887905 0.2262371 -0.77642447 -0.039757825 0.10282227 -0.34610623 0.29598135 0.68022287 -0.016756447 -0.23262534 0.2853509 0.6496777 0.37322742 -0.37068245 -0.037838813 -0.51945055 -0.034342088 -0.24356033 -0.466131 0.09607225 0.23075989 -0.10576564 -0.1736908 0.48864892 -0.0892784 0.3268914 0.2407439 0.96464974 0.19810638 0.29145324 -0.15417364 -0.039355442 0.03436824 -0.38400626 -0.38835427 0.40613642 0.2360599 -0.35026103 0.1366426
931 -0.21038239 0.109699875 0.09992327 -0.1686298 0.29748976 -0.24642709 -0.068002395 0.1280855 -0.8135655 -0.5040011 -0.16744553 0.68529475 -0.702009 0.38111594 -0.30309775 0.42439345 -0.27956286 0.29097897 -0.06619519 -0.8679206 0.20937268 -0.55548793 0.2860094 -0.3732609 0.09206192 -0.5752006 -0.33025414 -0.1615776 0.106096 0.23362017 -0.19518614 -0.43794942 -0.37100863 -0.086542994 0.298327 -0.19190599 -0.10808258 0.7109074 0.40030986 0.27240312 -0.6454179 -0.09801214 0.13110362 0.11892493 -0.17016265 0.161187 0.049689095 -0.26087397 0.56779593
194 0.074048094 0.21904908 0.49228594 -0.44955108 0.03365879 -0.47907686 -0.3288077 0.76249415 -0.40000117 -0.13316427 0.28974625 0.14660096 0.20083803 0.8412916 0.4572717 -0.029035544 -0.10883478 0.10854477 -0.2336589 -0.08428046 -0.03952228 -0.57742083 -0.14482626 -0.796741 -0.56340766 -0.139903 0.2613615 -0.9331422 -0.2861644 -0.24104656 -0.18638207 0.07510033 -0.33100158 0.7665849 -0.42851138 0.033974137 0.5280047 0.10696391 0.33543852 -0.26448807 -0.41545388 0.5058648 -0.3999117 -0.38461867 -0.13532466 0.40163898 0.12500368 -0.14284635 0.11895859
735 -0.0669925 0.6623609 -0.49936038 0.22928584 0.13071027 -0.5492665 -0.77535594 0.3786193 -1.0075566 -0.80678916 0.16735323 -0.20154157 -0.21936119 0.22948426 0.24285357 0.50260156 -0.16721733 -0.0471884 0.21072115 0.3576277 0.39468834 0.0724939 0.28120077 0.35606486 -0.14330752 0.003523684 0.16264853 0.06359569 -0.22312859 0.07208474 -0.17633341 0.20178907 -0.3708858 -0.39670753 -0.36197057 0.14730647 -0.31334814 0.051744785 0.003215618 0.6099219 -0.13644014 0.60381883 -0.20486763 0.32985586 -0.2126762 0.8815254 0.6103801 -0.7639881 0.17418657
477 0.38296774 -0.2103056 0.420012 0.03716601 -0.38184983 -0.2740322 -0.34731442 0.71770275 -0.20362495 -0.11979047 -0.25894102 -0.28241566 -0.4515571 0.79193103 -0.15826221 0.50457656 -0.36783838 0.38493556 -0.23274195 -0.49304843 0.37066832 -0.6294765 0.24257673 -0.18078616 -0.5790576 0.17408098 0.2792522 -0.6574561 -0.37789172 0.03996274 -0.46028668 0.18203537 0.14834554 -0.042964578 0.09876171 0.35880873 0.0042671897 0.31428844 0.31779516 0.47775656 -0.8662769 0.19620171 0.055210873 0.30983108 0.43534487 0.51852554 -0.6837135 -0.16606672 -0.29799262
187 0.4633609 -0.3440761 0.106301345 0.11368988 -0.543491 -0.37795797 0.013168167 0.22150886 -0.18718304 -0.43384063 1.1678735 -0.5458611 -0.33610973 0.7217331 0.9637254 0.18477347 -0.23714465 -0.24729705 -0.09365354 -0.4303581 0.4900556 0.19830833 0.2740398 0.07870489 -0.14056237 -0.2679979 -0.27234042 -0.66439223 0.19086294 0.032883443 -0.06884803 -0.49825898 -0.1314478 0.4242539 -0.6774617 0.3463134 -0.011064994 0.12556139 0.03879806 0.6216026 -0.67421424 0.39085403 -0.14262281 0.45416552 0.11870353 -0.39486384 -0.12234723 -0.089869775 -0.28002262
35 0.026360255 -0.16056593 -0.054611463 -0.14950395 -0.3954439 0.084637105 -0.18988782 0.15959021 -0.1831959 -0.47244436 -0.27760115 0.35060397 -0.05369361 0.12747666 0.17955971 0.018785873 0.09316136 0.26045412 0.20994198 -0.05360343 0.223162 -0.10799068 1.0201184 -0.04157994 -0.27146137 -0.47145537 -0.3534934 -0.8621696 -0.18478343 -0.70692056 -0.3345967 -0.05550997 -0.0959381 0.25588256 -0.3987572 0.0523684 -0.30681264 0.4168284 0.3155749 0.15476695 -0.21043156 -0.47953293 0.17081545 -0.20752206 0.06732803 0.5350316 0.30434132 -0.14219011 0.11671694
874 0.3597558 -0.36325356 0.31503335 0.15710576 -0.21917836 0.22279081 -0.3684905 0.79587376 -0.03718164 -0.20658779 -0.16134909 -0.07273628 -0.83557755 1.0337952 -0.23103698 0.5736115 -0.654191 0.44110873 -0.14017849 -0.5571055 0.5961478 -0.5202195 0.51231587 0.19442484 -0.7102615 -0.111720815 0.47925338 -0.56614506 -0.4873994 0.28364378 -0.33036962 0.10672513 0.24561937 -0.07192071 0.40472606 0.5969982 0.07890273 0.20197551 0.1004203 0.03707691 -0.56072253 -0.23951794 -0.22368437 0.18429253 0.41541028 0.4893125 -0.5944473 -0.23643938 -0.3617187
508 0.028724 0.23906562 -0.70510876 -0.2803123 -0.1927489 -0.500186 -0.58019835 0.33125827 -0.43825018 -0.31091022 0.15154433 -0.07631749 -0.059670687 0.11127993 0.24338296 0.36644745 0.051882997 0.21539065 0.003098967 -0.2143057 -0.010949396 0.43895963 0.6246792 0.30620292 -0.28663057 -0.03410561 -0.27339423 -0.06001572 0.105559126 -0.1434502 -0.06355163 0.45198414 0.089501865 -0.23202385 -0.15149269 0.13337354 0.18564458 0.59767056 -0.12592989 0.76728266 -0.24861439 0.3871363 0.12609789 0.19045517 -0.0037417493 0.4144236 0.41273978 -0.6618521 0.10241617
199 0.2198108 0.3345663 -0.27165714 -0.14994577 -0.1333663 0.19364713 -0.40696606 0.014379622 -0.23041986 -0.016771985 0.109346695 0.43443206 -0.4688506 0.9789444 0.17046528 0.048244435 -0.4818606 0.66555744 -0.60807467 -0.637497 0.7291631 -0.37237126 0.57049453 -0.4003197 -0.3204123 0.38598388 -0.15228195 -0.26887453 0.32770246 -0.011797197 -0.69353056 0.39542425 -0.14727853 -0.009343389 -0.083388984 0.03822871 -0.6501516 0.39594534 0.4557258 0.32109803 -0.50329953 -0.06045544 -0.08782447 0.98015773 0.09516335 0.4310841 0.19576746 0.102755815 0.052873395
88 0.19602174 -1.3000612 -0.01883312 0.86415285 -0.12845874 -1.0410756 -0.7221888 1.1459559 -0.012607504 0.5153853 0.29199067 -0.07590938 0.16723134 1.2644912 0.9303277 -0.717616 -1.4793818 0.47601074 -1.4329833 -0.1708162 1.7952627 0.37551567 -0.019616516 0.80560416 -0.027461307 -0.32816318 1.0828696 -1.0497106 -0.10268432 -0.35905778 -0.8277176 -0.6561025 0.68463653 -0.6124564 -0.06624154 0.22141255 -1.2842406 1.2371062 0.27128282 1.787415 0.057431255 0.33907235 -1.2190163 0.52727616 -0.7212254 0.38430893 1.724672 -1.0746588 -0.7496034
13 0.23210435 0.5925954 -0.24275517 -0.18076478 -0.60460675 -0.23353131 -0.5244441 0.4437132 0.16597402 0.104594015 0.4577284 -0.11606892 0.16367415 0.8035008 -0.09904653 -0.39787775 -0.3064482 0.2972818 0.14331786 -0.690641 0.78009945 0.0066791885 0.6911535 0.18576002 -0.5328151 -0.44642556 0.12695995 -0.37813154 -0.22556439 -0.39676723 -0.39936176 -0.17816755 -0.14050661 -0.6997668 0.21086653 -0.031762455 -0.044052176 0.8131005 0.38388354 0.121836066 0.25096062 0.16746698 0.34254956 -0.34676012 -0.36142826 0.020839723 -0.5043446 0.37141383 0.19224027
707 0.18593983 -0.19484186 0.049782157 -0.5815782 -0.1612136 0.39151585 -0.1706491 -0.14834172 -0.44996083 -0.076230004 1.0925702 -0.179242 -0.34278587 0.500619 0.45362052 0.16739681 -0.117329836 0.18224473 -0.0013923188 -0.92827106 0.735348 -0.48363334 0.51822084 0.19274595 -0.5460791 0.252667 -0.40949503 -0.45668846 0.5257513 -0.12944648 -0.2765152 -0.0938106 0.044608213 -0.08204468 -0.35867506 0.79663724 -0.2806137 0.09221201 0.4945617 0.6397889 -0.2558832 -0.004309475 -0.32119223 0.38417274 0.23556046 -0.48787835 0.25940606 0.28481394 -0.56644887
798 0.07904115 -0.12077213 -0.019142328 -0.5503459 -0.30934587 -0.36041835 0.20739499 -0.019342868 0.10319994 -0.11333082 -0.07840736 -0.08305008 0.19338067 0.5236791 0.23514442 0.45025814 -0.37454867 0.5860391 -0.47869486 0.04549349 0.5349094 0.039418817 0.5361068 -0.4249556 -0.20169789 -0.6303309 -0.051996097 -0.37435165 -0.31388998 -0.447505 -0.051181667 0.31410292 0.061076052 -0.40829724 -0.6157708 -0.21175879 0.8849169 0.06317085 -0.05401812 0.4378512 -0.5049619 0.13870265 0.04585098 -0.05719815 -0.10256675 0.5472162 0.44576943 -0.26194465 0.16301663
930 0.12341773 0.3895788 -0.24737203 -0.42192185 -0.39440092 -0.09703628 -0.115144715 -0.13451022 -0.02387966 0.063915975 0.60249853 -0.2159145 -0.3824286 0.19153029 -0.7453858 0.060777295 -0.4476777 0.493953 0.011833958 -0.0004287648 0.24957988 -0.019499538 0.12622513 -0.18664214 0.19781844 -0.52371216 -0.3824481 -0.31888363 -0.551959 0.54396546 -0.5869394 -0.72560537 0.0705309 0.048179932 -0.24823359 0.4839452 -0.30988762 0.23138036 -0.23893595 1.0928388 -0.23417 0.29190332 0.31349137 -0.0014521084 0.08361241 -0.06786669 0.9021067 -0.010042852 -0.40028617
428 0.49590695 0.060000855 -0.06591446 -0.24685585 0.057799853 0.20095149 -0.18141563 0.5332664 -0.02738145 0.07556003 0.36865947 0.22901776 -0.2040339 0.44178826 0.006253401 0.15048772 -0.4024388 0.63428205 -0.36161304 -0.7971316 0.5619835 -0.49499732 0.52399683 -0.5355413 -0.27566043 0.23008187 -0.22287093 -0.58546394 0.19452232 -0.0016660658 -0.6758169 0.41885135 -0.31032282 -0.07032156 0.07026205 0.10923802 -0.86567765 0.047151122 0.5451721 0.58525014 -0.5438321 -0.17923538 -0.107055195 0.6766075 0.024782566 0.24061812 0.20905486 0.30283475 -0.18079092
50 -0.23087488 0.20956002 0.7486153 -0.18180119 0.074895345 -0.4637688 -0.72875464 0.836755 -0.7751801 -0.36086085 0.97395086 0.38246512 0.06843409 0.37591755 0.35347697 -0.5704751 -0.2888722 -0.4032178 -0.45787254 -0.24120842 0.23508148 0.0027594264 0.022201331 -0.24185845 -0.0043701516 -0.28177524 -0.25702766 -0.9170388 -0.24769616 0.008314378 -0.04882476 -0.28528303 -0.28100762 0.54268587 -0.008653845 0.3717986 0.5875143 0.1690909 0.15586832 0.2543902 -0.21574688 0.3600559 -0.011573472 -0.15616362 -0.042155538 0.3205335 0.22788559 -0.040153515 -0.19687054
188 -0.22132936 0.05039814 0.65605015 0.07223918 0.23152019 -0.15269966 -0.5714172 0.62793326 -0.67610806 -0.37980175 0.7266432 0.45246315 0.21519555 0.3865135 0.34984246 -0.41338652 0.06790981 -0.2923111 -0.38515308 -0.47851387 0.123169355 0.48332205 0.28140455 -0.30545512 -0.031904332 -0.19717576 -0.12123539 -0.93981475 -0.010437508 0.2215268 -0.15355457 -0.62327915 -0.42102677 0.43292174 0.13226074 0.33706343 0.5607016 0.510344 0.4426924 0.0878077 0.039349362 0.4411661 -0.35362974 -0.27291638 -0.25683823 0.34926173 0.5572458 -0.14928436 -0.28509644
264 -0.15808332 -0.22846209 -0.4566402 -0.36622536 -0.51428145 -0.66075754 -0.12649609 0.25920686 0.2996461 -0.39069912 0.089433186 -0.013698706 0.03143841 0.26677537 0.093031965 0.20551106 -0.3892998 0.3611957 -0.12844558 -0.07847601 0.37007412 0.73612666 0.8032746 -0.113872744 -0.41924685 -0.40038207 -0.22002771 -0.17863196 0.16121691 -0.5313323 0.0019743028 0.29123607 -0.3405763 -0.40188342 -0.04129523 -0.1955066 0.33349454 0.50266725 0.10174226 0.315341 -0.41774505 0.16778699 -0.12084612 -0.2912571 -0.06831257 0.5053562 0.49232996 -0.27046224 0.11200111
433 0.06858402 0.2057872 -0.23143293 -0.1755802 0.0008856419 -0.11935432 -0.3994738 0.2742969 0.061695263 0.47807196 0.0275567 0.07394445 0.1118105 0.7593946 -0.07601736 0.087548904 -0.299881 0.12460301 0.37468502 -0.4381999 0.7828825 0.28160682 0.39213294 -0.043420106 -0.133736 -0.67481464 0.07138025 -0.38794044 -0.18607199 -0.443112 -0.38367122 -0.33026603 -0.10238538 -0.48031035 -0.4587941 -0.08390743 -0.00722498 0.6257649 0.31854194 0.23604186 -0.026475007 0.24570237 0.24779287 -0.08580219 -0.64535433 -0.054368995 -0.5585468 0.1688464 0.3453815
461 0.02018387 -0.07381967 -0.38593578 -0.5814184 -0.078377776 -0.36111772 -0.022573916 -0.038635056 0.5937525 -0.16208951 0.03570683 0.043556415 -0.08322334 0.28109056 0.25554615 0.4208574 -0.47821924 0.21138346 -0.46460333 -0.053715717 0.5468864 0.4749913 0.6028434 -0.055181842 -0.42831147 -0.43006152 0.14053264 -0.48586065 -0.084968865 -0.6107591 -0.001894296 0.43091902 -0.21287113 -0.5487165 -0.058027215 -0.16151123 0.7432994 0.46785125 0.13910545 0.3806306 -0.33826283 0.6279235 -0.3033486 -0.2887767 -0.09244781 0.7867616 0.6564507 -0.051090006 0.41394776
16 -0.0754986 0.056447178 0.756094 -0.5644837 0.02088335 -0.4726293 -0.76711464 0.59126973 -0.103432216 0.07854161 0.43464082 0.43199646 -0.3240196 0.935603 0.5897017 0.08091185 -0.525579 -0.9623742 -0.6266006 -0.14426403 0.42387152 -0.2775234 -0.38087735 0.12880296 -0.3616193 -0.55499566 0.10162875 -0.7909553 -0.0316919 -0.29020816 0.08979486 -0.14252074 -0.63427484 1.1327016 0.15216048 0.3227875 -0.01434726 0.65205735 0.352243 0.8205504 0.35421166 0.3167292 -0.3553495 -0.55647004 -0.30365732 0.64451134 0.041443363 -0.429686 -0.25288808
989 0.03791604 0.17307219 -0.023584243 -0.5738682 -0.46867806 -0.31728068 -0.08979718 0.39596248 0.55369145 -0.64831585 0.503435 -0.2712935 -0.073968075 0.44841552 0.09517132 -0.10120652 0.4018699 0.1676638 -0.24039972 -0.21551867 0.31708682 -0.5383303 0.10245922 -0.01920492 -0.6118924 -0.36585099 -0.19713166 -0.16870229 -0.29138622 -0.11532793 -0.20484117 -0.50082797 0.5226355 0.32893574 -0.70887196 0.05487472 -0.10935688 0.5779709 -0.52147126 0.4350349 -0.7007592 0.41465017 0.18193732 -0.2571473 -0.31524992 -0.11844277 0.27382883 -0.41366285 0.14679052
646 0.053377543 -0.5471675 0.2679883 0.13593054 -0.24604113 -0.27268133 -0.29456493 0.7076274 -0.2734392 -0.03057236 -0.36039293 -0.093379006 -0.7316345 0.8519502 -0.36459604 0.45638937 -0.33731362 0.43136892 -0.085679404 -0.431279 0.65244734 -0.39259282 0.37124446 0.070131674 -0.7566809 -0.034013085 0.041447144 -0.7644207 -0.29694363 0.28016272 -0.14641872 -0.009455148 0.102961875 -0.15555029 0.095410764 0.32162425 -0.048092872 0.26718375 -0.030459026 0.18033175 -0.5639091 -0.14924476 0.23526032 0.028187156 0.03749372 0.6113354 -0.78423893 -0.08963042 -0.34453747
109 0.6019693 0.47278446 -0.24430253 -0.36808264 -0.24480172 0.18665826 -0.6084033 0.1393128 -0.215757 -0.0076047597 0.1595938 0.045525424 -0.43468574 0.74936414 -0.00875332 0.24542862 -0.46468335 0.32133073 -0.39735657 -0.44676846 0.4814706 -0.3220257 0.6121935 -0.54065114 0.09292802 0.43129298 -0.0008056741 -0.56696284 0.25523314 -0.1927702 -0.78538555 0.5072408 -0.052676037 0.034666315 0.09298259 0.3229161 -0.25545615 -0.21636227 0.6636418 0.6583425 -0.39008102 -0.24917522 0.15980397 0.66873544 0.25575596 0.32333422 0.2975135 -0.19044836 -0.27003208
301 0.0042510363 0.17328137 -0.31862524 -0.0018974736 -0.09489544 -0.16327572 0.071685664 0.30222863 -0.31983137 0.21211241 -0.319169 0.21056668 -0.138693 0.9463396 -0.11387858 0.041419707 -0.032852523 0.3366476 0.07644989 -0.25058845 0.021986818 0.106585294 0.7039468 -0.21234708 -0.36104155 -0.18232511 -0.4638821 -0.9499518 -0.3916649 -0.12025289 0.2447867 0.02116723 0.21601368 0.07534836 -0.57970524 -0.44245422 0.2349694 0.26086622 0.010364989 0.39041886 -0.33151397 0.008791276 -0.06595164 -0.27939427 -0.42269972 0.330481 -0.2084229 -0.4020551 0.10288479
255 0.48599735 -0.23954812 0.70188737 0.04329284 0.07839517 -0.45703068 -0.6118495 0.726117 -0.0897187 -0.13833146 -0.5859905 0.06287485 -0.94511974 0.50106496 -0.2266985 0.629864 -0.4750881 0.1199221 -0.18096633 -0.53943217 0.70277023 -0.66611826 0.21433409 0.10773623 -0.83013505 0.17346568 0.110112816 -0.7141821 -0.14155383 0.0239538 -0.22264251 0.16434456 0.1731439 0.039536 0.4789566 0.4420458 0.12661986 0.5568266 -0.14928338 0.5030954 -0.59235793 -0.01675524 0.054311335 0.088218346 0.18830971 0.64283216 -0.4921507 -0.018201813 -0.42273507
413 -0.35093522 -0.09025138 0.17663072 0.024606157 -0.24572352 -0.577233 0.41053855 0.5475582 0.4077739 -0.5818461 0.06813929 -0.2780923 -0.14417243 -0.15346628 -0.32736707 0.32730108 -0.44706804 0.19425677 0.07771319 -0.7360752 0.6502291 -0.14779261 0.60041314 -0.45916125 0.26595187 0.015158465 -0.21143533 -0.0077901115 -0.34103483 -0.14985195 -0.4182086 0.34735575 0.1990162 0.13811092 -0.2579916 0.099050865 0.4794355 0.8522518 -0.20249486 0.48848328 -0.094813816 -0.19885613 -0.73609823 0.122985475 -0.65307575 0.7833797 0.115680955 0.001077323 -0.29259905
128 0.118590936 0.14057492 0.0078064566 -0.31066465 -0.16764487 0.0040799156 -0.2716733 0.01353911 -0.16938199 -0.049675684 0.53695124 -0.3632021 -0.5310391 0.7376455 -0.39490968 0.4959808 -0.4185591 0.23468505 -0.1894618 -0.36771074 0.9293487 -0.45488656 0.41033733 0.3500006 -0.26277193 -0.11437347 0.12187991 -0.4811045 -0.015364538 0.34139252 -0.48590702 -0.22634162 0.1510053 -0.19297548 0.5759132 -0.11425534 -0.14646426 0.14798215 1.0855894 0.47643414 -0.6538792 0.25662565 0.43286407 0.44389406 0.42663962 0.16862752 0.2809256 0.32196048 -0.26709732
704 -0.35248134 0.3510013 -0.20421138 -0.0030219327 -0.023879606 0.007910673 -0.17233954 -0.20651685 -0.25099728 0.4725496 0.35464045 -0.36205608 -0.64489526 0.03502666 0.0615669 -0.20161456 0.5738339 0.5217918 -0.35458648 -0.25775298 0.5905798 0.3571921 0.07221036 -0.80014205 -0.23316842 -0.4554671 0.5908499 -1.0912839 0.07190007 0.08780176 -0.002280265 0.16704167 0.15005617 -0.32897523 -0.18580058 0.30014938 0.26207662 0.3981677 0.7999936 0.19249238 -0.06027549 -0.3506688 0.09605677 -0.18230608 -0.7089562 0.39991584 -0.056131314 -0.64154315 -0.21431713
36 0.17005543 0.24259093 -0.10579607 0.30300537 -0.118302554 -0.035134345 -0.7599547 -0.03380657 -0.08982661 0.11693037 0.54488015 0.2566412 -0.65473217 0.26910815 -0.10759541 0.4859465 0.43488196 0.42316848 0.21467829 -0.2172274 0.9857226 0.4078776 0.35663828 -0.33559623 -0.25585818 -0.626504 0.26298106 -0.17612562 -0.2313387 0.17202349 0.62409073 0.85203844 0.372129 0.5914795 -0.16240281 0.445587 0.26478297 0.4270997 -0.022771941 0.593667 -0.1044034 0.120176196 0.22029333 -0.55985934 -0.21459849 -0.0009555746 0.6233575 -0.091386795 -0.05212985
370 0.07455722 -0.09585408 0.98594326 -0.33032095 -0.014024484 0.040401004 -0.30568093 0.6055082 -0.38094643 -0.44773203 0.61193496 0.4939567 -0.39948705 0.6337671 0.49712053 -0.4006206 -0.34761173 -0.5746203 0.04225161 -0.15652555 0.05914094 0.31338474 0.14481243 -0.06872275 0.11269063 -0.0924703 0.09454441 -0.9598528 0.059755567 -0.45440322 -0.1321021 -0.49710974 -0.49288818 0.3394249 0.004342528 0.36108226 0.71883374 0.36139318 0.41578186 0.552425 0.007122064 0.7024887 -0.299534 -0.40598792 -0.30374867 0.3996939 0.50184053 0.059989814 0.0023573881
116 0.2148451 0.3428996 0.32011667 -0.4202809 0.47476298 -0.2886324 -0.30366394 0.83242637 -0.45092142 0.469144 -0.511128 -0.18723996 -0.44519696 0.28038573 -0.1958585 -0.104482494 -0.121571235 0.70348144 0.3943441 -0.36981198 0.47509336 0.12718655 0.5780404 -0.059668764 -0.63362706 -0.3043938 0.040945325 -1.0022744 -0.030594494 -0.5142299 0.1326819 -0.03130552 0.15128495 0.35728973 -0.28611106 -0.546028 0.33951914 0.39264956 -0.20013139 0.46610495 0.06267327 0.038307138 -0.20770104 0.18423253 -0.21863814 -0.4068592 0.13411576 -0.78058976 0.08930735
851 0.4808993 0.4452091 -0.51291984 0.078403495 -0.38720477 -0.22036536 -0.52987885 0.7633857 -0.20245673 -0.123372525 0.16347556 -0.11118016 -0.39589092 0.35445243 -0.300046 0.09800956 -0.27391505 0.07184719 -0.33709574 0.027175445 0.44596246 -0.28471696 0.34677124 -0.7586263 0.49132332 -0.02569783 -0.5065454 -0.23263773 -0.09469263 -0.3577632 -0.70730144 0.44161162 -0.046985146 -0.26631707 0.22349617 0.5193081 0.3103816 -0.3541859 -0.2508058 0.5849419 -0.026693895 -0.1586122 0.045405935 -0.49775654 0.022504803 -0.21897511 0.4607911 -0.10587749 -0.4771546
503 -0.13300577 -0.12575644 0.5800516 -0.31261566 0.16693631 -0.41477576 -0.52163273 0.7182202 -0.20629632 -0.04579036 0.6128814 0.22934501 -0.25431463 0.9975968 0.59042954 0.06580356 -0.5096578 -0.49087605 -0.5342261 0.058427077 0.17222188 -0.08364115 -0.41534197 -0.06743122 -0.2464661 -0.49641398 0.37709555 -0.9980382 -0.36837983 -0.43386322 0.17348486 0.07294409 -0.6067933 1.2086021 0.081310146 0.2917187 0.24773769 0.36478007 0.4236072 0.46556625 -0.10270476 0.37673283 -0.48433277 -0.6279822 -0.2020734 0.55897564 0.16817185 -0.36243105 -0.3004462
385 0.17692176 0.3169323 -0.37061602 0.31605047 0.43666464 0.08692168 -0.33426172 0.37904778 0.1784402 0.116218254 -0.4197763 -0.40541354 -1.0189755 0.28259718 -0.3651354 0.0010848392 -0.40933904 -0.0043550143 0.36094782 -0.51042444 0.3067725 0.051440243 0.9595186 0.15957077 -0.19989137 -0.67660266 -0.008122909 -0.35090894 0.029464053 -0.23482333 0.2266695 0.101264134 -0.06515612 0.24459097 -0.26087877 0.11043723 0.14061278 0.10913503 0.18920138 0.03042467 -0.4683717 0.53393275 -0.25467366 -0.18287094 -0.35205474 0.090255536 0.14272258 -0.3108744 -0.084269986
544 0.06507307 0.19749317 0.86010605 -0.19924119 -0.037179206 -0.40847716 -0.5981638 0.6618617 -0.61549395 -0.10052256 0.8496689 0.4100402 -0.16616848 0.564893 0.44463646 -0.18156564 -0.40198857 -0.47038087 -0.458334 -0.14686039 0.077510536 0.04585705 -0.2674952 -0.15903847 0.01888201 -0.68781716 0.012688012 -0.8679318 -0.08087099 -0.3128689 -0.058772407 -0.11532701 -0.34168977 1.0927302 0.21074724 0.5897176 0.4700932 0.40391168 0.44719782 0.35922036 -0.012802353 0.36727682 -0.19728786 -0.42658263 -0.07995496 0.5780888 0.40798354 -0.37290668 -0.25242674
53 0.0923966 -0.0036897468 -0.5656426 -0.16854125 -0.4248619 -0.54811805 -0.118905455 0.6521651 0.38557184 -0.25307342 0.10702386 -0.14515017 0.021455636 0.21460097 0.03954041 0.28372586 -0.2561748 0.16474926 -0.21643938 -0.17860937 0.33060327 0.6795037 0.7258658 -0.27233845 -0.44104725 -0.48920012 -0.34852216 -0.20213085 0.29999053 -0.6005115 -0.043244787 0.24948008 -0.21272694 -0.33459496 0.066689365 -0.16480209 0.30286047 0.33381036 0.025502117 0.5570378 -0.38823223 0.19669215 -0.21344462 -0.2979017 -0.11822134 0.6754101 0.336798 -0.0050953347 0.19611871
719 0.2167121 -0.28543016 0.69300944 -0.20590992 0.11312637 -0.1261822 -0.29398736 0.6323225 -0.12012433 -0.7989812 0.46115762 0.43169835 -0.22140408 0.37584832 0.5076711 -0.08155548 -0.36551827 -0.58811074 -0.18082777 -0.07276811 0.6876288 0.004046598 -0.16042098 -0.11755278 -0.1333817 0.09467087 0.327604 -1.0621171 -0.29816866 0.19252695 -0.17200302 -0.1880939 -0.40525916 0.4233209 0.030084452 0.6971991 0.93458605 0.5407583 0.34240982 0.22112595 0.13096225 0.028558796 -0.68828344 -0.24577999 -0.6903196 0.9043905 0.4637018 -0.11955646 -0.4144535
744 -0.3336249 -0.10722968 0.49207982 -0.5005332 0.23852357 -0.2934994 -0.54206425 0.91982937 -0.23161283 -0.048183683 0.42452395 0.827698 -0.25362855 0.51073647 0.49276844 -0.14073642 -0.5656808 -0.6840051 -0.48344043 0.12347428 0.30120984 -0.036940776 0.07851276 0.09299869 -0.24152878 -0.2692124 0.35756177 -0.6267821 -0.06283446 -0.25585955 -0.065980814 0.08653914 -0.6088828 0.9034884 0.28428513 0.55326897 0.33322737 0.44530666 0.3395947 0.630915 -0.36922887 0.24200761 -0.41539305 -0.45397934 -0.63895917 0.18557082 0.028969087 -0.2450739 -0.44910398
204 -0.7490987 -0.08378067 -0.32850406 -0.14674465 0.22871408 -0.53650534 0.010434914 -0.029372318 0.10458585 -0.9431763 0.7066368 -0.20003462 0.27846676 0.17222373 0.49268132 -0.4817213 -0.40168893 0.4586588 -0.042893484 -0.4170078 0.3584582 -0.32356432 0.7610313 -0.17617162 0.21128234 -0.8139198 0.32486495 -0.86146945 -0.12408542 -0.6971744 0.19008206 -0.24768323 -0.03744294 0.13288644 0.015494034 0.7278664 -0.6911123 0.26720235 -0.55389136 0.3185418 -0.99946994 -0.2078795 -0.6986794 0.45421785 -0.7608827 0.030565491 0.61325604 -0.074749365 -1.5499197
990 0.00962086 0.07023974 0.3622085 0.032765392 0.106319115 -0.2006185 -0.99727416 0.59497947 -0.7337297 -0.6005578 0.4667046 0.36275768 0.19905841 0.57029676 0.55016106 -0.04489934 0.16134217 -0.46095872 -0.31608406 -0.42228466 -0.12369085 0.47415322 0.78703004 0.052627258 -0.1286668 -0.31944007 0.21612486 -0.7930081 0.15103476 0.074428916 -0.35706136 -0.7641894 -0.5194991 0.37933835 0.27397856 0.09107876 0.53893006 0.3823139 0.2612665 -0.14446978 0.15116657 0.2749271 -0.2027141 -0.1265655 -0.410828 0.59335655 0.68515784 0.22845502 -0.37110832
195 -0.34062526 0.58372515 0.104859374 -0.03128871 0.19561973 0.3466443 -0.27356687 0.033823274 0.10538578 0.08736457 0.37003413 -0.7850316 -0.85730577 0.5180751 0.06481777 -0.37416688 -0.3363321 0.5365071 -0.8064727 -0.65313953 -0.14251707 0.03876272 0.8639817 -0.12229206 -0.7335346 -0.13158539 0.37637284 -0.57443005 0.28962922 0.03431106 -0.112583615 0.42828476 0.09614066 -0.29151174 -0.15995717 0.50603604 0.22905889 0.1847201 0.097740695 0.28250054 0.31792927 -0.5235575 -0.11069944 0.05821737 0.19175111 0.33965403 -0.20068233 -0.21748504 -0.051486332
260 0.49718833 -0.38303614 0.4365925 0.17092639 -0.054500718 -0.3558715 -0.27478856 0.83735055 -0.29178643 -0.3558184 -0.21357149 -0.22112067 -0.58450073 0.8400921 -0.27920198 0.60171115 -0.5862278 0.37246123 -0.13673727 -0.6025216 0.5917942 -0.6218429 0.21878089 0.11003612 -0.8856031 0.12282807 0.1608415 -0.6784175 -0.26172617 0.06330269 -0.32751098 0.037211936 0.22158994 -0.060124215 0.42737982 0.48398215 -0.20337723 0.24418533 0.33327734 0.4388173 -0.8565519 0.090062015 -0.05368437 0.16200839 0.35809165 0.53004086 -0.673041 -0.059969645 -0.3639491
819 -0.07699725 0.21436167 0.29972947 -0.16238 -0.29887766 0.073156364 -0.26262227 -0.23998067 -0.32541674 -0.47965667 -0.027713658 -0.038722217 -0.23759314 -0.06989516 0.15531048 -0.66725564 -0.69700634 0.24030854 -0.48554218 -0.18005578 0.9275209 -0.23450942 0.46231374 -0.25865743 0.03042162 -1.1263947 -0.2150182 -0.19944143 -0.12514348 -0.33103314 0.20388071 0.15116054 0.7943551 -1.0194455 0.08737343 -0.64817107 0.3243691 -0.17692548 0.17770827 0.6542769 -0.47852322 0.44639897 0.20379792 0.053908333 -0.14844297 0.51614445 0.39110985 -0.7601537 -0.22461468
507 -0.4808957 -0.05327779 0.6676656 -0.41063172 0.041741993 -0.029553115 -0.4403492 0.6686611 -0.6414893 -0.4945369 0.26301426 0.45651975 0.0004948779 0.62703055 0.41874263 -0.100451946 -0.4097412 -0.64470303 -0.11920552 -0.11355347 0.5318023 -0.031355724 0.14242582 0.13182823 0.03460075 -0.3875554 -0.17042632 -0.71362513 -0.023018971 -0.19504368 -0.43231055 0.05333516 -0.29369026 0.5019873 -0.47064096 0.519332 0.59860164 0.4197572 0.14074445 0.4790982 0.43538666 0.06292255 -0.50381833 -0.46235228 -0.55215424 0.22330679 -0.19096397 -0.22134198 0.0332865
463 0.21296619 0.3060242 -0.20927507 -0.5983949 -0.17455623 -0.29088745 -0.35441476 -0.06337728 0.09450426 0.2177073 0.5301286 0.13413309 0.13162398 1.0087388 -0.38096562 -0.07196509 -0.3466202 0.34612247 0.22348925 -0.65694946 0.91480035 0.39519572 0.3934029 0.33003917 -0.6178511 -0.35656932 0.2683564 -0.24306305 -0.6038503 -0.31937116 -0.7066728 -0.29376656 -0.065260544 -0.6744042 -0.10855443 0.036984082 -0.13474002 0.39461213 0.6368252 0.46053052 0.19737338 0.5899516 0.28694135 -0.042402927 -0.5671265 -0.07734008 -0.20879526 0.6379213 -0.101121664
760 -0.052295312 0.31356552 -0.13377099 0.254005 0.29125822 -0.13969299 -0.26193768 -0.029465266 -0.9773776 -0.5837281 0.011285374 0.04369523 -0.34665444 0.45121017 0.5593163 0.18274698 0.12737954 0.13764061 0.3196473 -0.05708752 0.21501294 0.47018033 0.7173629 -0.26380834 -0.081370465 -0.19652922 0.31491867 -0.1381738 0.037390493 0.027081462 -0.44874138 -0.12968247 -0.519037 -0.31161216 -0.31183648 -0.31317207 -0.2005032 -0.44473544 0.021550138 0.5314805 -0.31391397 0.20364808 -0.57138425 0.4094822 -0.3640524 0.8734348 0.40887162 -0.29010868 0.25450486
253 0.49111083 0.4778531 0.48856544 -0.3248065 -0.46622562 -0.2598948 -0.42217663 0.36473218 -0.04809075 0.18956472 0.55522037 0.33504304 -0.37049383 0.10214536 0.035444796 -0.16703162 0.44301715 0.8392577 0.36966532 -0.032183867 -0.042136922 0.1931929 0.6598615 -0.1887603 -0.22768472 -0.12459974 0.66132706 -0.53508145 -0.5001249 -0.009959875 0.00224774 -0.31007427 -0.058573406 -0.016307134 -0.16708985 0.29798815 -0.110499606 0.48408028 0.3770716 0.5113008 0.00424221 0.18188426 0.040919825 -0.468557 -0.484952 0.1303697 0.13891166 -0.46242633 0.2988356
533 -0.35557157 -0.09167902 0.670117 -0.49695557 -0.2070322 0.21907936 -0.44894594 0.21742974 -0.5872468 -0.40257964 -0.0714873 -0.23785567 -0.36145476 0.00769827 -0.041997004 -0.68964857 0.006152381 0.12517096 -0.5809388 0.10559526 1.0643405 -0.1209169 0.26946083 -0.62427276 -0.38441968 -0.38375586 -0.3592263 -0.33789086 -0.108057365 -0.6139443 -0.12202102 0.2997789 0.26798385 -0.4612805 0.2257168 -0.50409687 0.391979 -0.17206502 -0.17527497 0.3121815 -0.6187787 0.5866288 0.17784531 -0.15375482 -0.20271416 -0.009969846 0.52412564 -0.44004732 0.14616986
90 0.010524555 0.90755963 -0.19019358 0.036771078 0.56121045 0.011663854 -0.69526255 0.74040264 0.30809668 -0.08950975 -0.23582035 -0.2105679 0.04579091 0.14093316 -0.22212209 -0.18717518 0.026418187 -0.05068184 0.4570547 -0.5789911 0.37902775 0.04641137 0.6101603 0.18902023 -0.41191235 0.012760313 -0.45578718 -0.23063205 -0.45803314 -0.35546476 0.007725954 -0.3477747 -0.38193607 -0.29536322 0.014159134 0.60957754 0.19387639 0.12156549 0.15117075 0.4106106 -0.63195515 0.46741638 0.24779488 -0.022098556 -0.5279036 0.08093932 0.23059577 -0.44845235 0.037235737
407 0.617505 -0.45327088 0.22870198 -0.17443453 -0.35819787 -0.05979684 0.33425876 0.017238172 -0.44296947 -0.43444815 1.0818945 -0.22406134 -0.6328713 0.657049 0.6980114 0.011528106 -0.2827949 -0.18059221 0.15517862 -0.50351495 0.45661587 0.23913807 0.502887 0.38961065 -0.28241315 -0.23642547 -0.43591273 -0.8082328 0.33793288 -0.04945857 0.047808625 -0.4121057 -0.20582134 0.27217212 -0.89754164 0.2311253 0.14501937 0.10510084 0.17747343 0.70646954 -0.37636906 0.0024781842 -0.088867895 0.43542236 0.35405418 -0.35516813 0.32573107 -0.15427782 -0.250236
446 0.789752 0.09013187 -0.057292458 0.20668049 0.16866805 -0.26849082 0.15271457 0.7229954 -0.07256507 0.13253254 0.37106925 0.12359886 -0.31017226 0.45999968 0.03300425 0.19221938 -0.43059686 0.3368256 0.16560806 -0.7724299 0.2794187 -0.08001897 0.30565017 -0.24898379 -0.6158984 -0.20866455 -0.36838064 -0.50849444 -0.022903772 -0.22546701 -0.62637246 0.09871736 -0.3216339 -0.37481913 0.06943271 0.18914193 -0.93021876 0.17604838 0.77844346 0.869251 -0.6950374 0.20342557 -0.14446151 0.23708221 -0.35834685 -0.081827246 -0.6308885 0.52904844 0.03900627
355 -0.33538187 -0.16228701 0.63277054 0.12685464 -0.106628634 0.14744791 -1.0083017 0.38004604 -0.72757816 0.32994333 0.4107579 0.05331814 0.06314052 0.036841154 0.031446796 -0.23592637 -0.006209682 0.30079678 -0.659362 -0.1615736 0.49439323 0.2106026 0.48306918 -0.5810697 -0.016141899 0.08899605 0.47000575 -0.5003597 -0.04299555 0.3512155 -0.13846035 -0.04841859 0.106522664 0.15664244 -0.4075245 0.32085785 0.47786602 0.9818416 0.31728226 0.8161625 -0.52139723 -0.34374693 0.15033151 -0.76958275 -0.09643478 0.03099746 0.101009116 -0.26027635 0.2929464
237 0.59054214 0.38868076 -0.09695996 -0.38370788 -0.20509729 0.009603374 -0.6410238 0.122298546 0.037462283 0.03361389 0.46765664 -0.011674635 0.15507746 0.70582324 -0.6074355 -0.114362754 -0.0950638 0.02357643 0.14774905 -0.6024406 0.46298075 0.2554267 0.7249808 0.25608024 -0.8276391 -0.7733431 0.33265808 -0.31673002 -0.8510809 0.22538586 -0.6795165 -0.3832575 0.16046683 -0.33286056 0.2568697 0.15170515 0.2136591 0.49621952 0.6403846 0.19029135 0.15445234 0.1390378 0.28626174 0.47654882 -0.47173777 0.29121602 0.3196129 0.4075343 -0.41534945
340 0.4059926 0.14030398 -0.10228087 0.20714325 0.7629349 -0.30508444 -0.23876317 0.8051489 0.20945714 0.27707818 -0.42646453 0.12731329 -0.7914358 -0.06614209 0.16445562 -0.032058734 -0.3117163 -0.2156981 0.4379801 -0.43732297 0.8707598 0.07098467 0.43483952 0.062210023 -0.32430205 0.11976692 -0.5373033 -0.5418591 -0.18005252 -0.16379684 -0.17875153 -0.3590825 -0.038339723 -0.053844612 -0.23019549 0.47657567 0.39585844 0.16204052 0.18252173 0.1740388 -0.841448 0.21474001 0.042934097 0.15723512 -0.13511668 0.05374839 -0.030593636 -0.17268725 -0.1892963
405 -0.2507896 0.14001474 0.5325049 -0.3820376 -0.0062537394 -0.24371383 -0.26010895 0.70086366 -0.62331957 -0.44752374 0.5779737 0.124106765 0.06659133 0.6126789 0.21708278 -0.19465904 -0.25641948 -0.09341531 -0.6147909 -0.2320095 -0.01145794 -0.076949306 -0.6216098 -0.6434239 -0.19861782 -0.41378477 -0.031973943 -1.0734458 -0.1711368 -0.5014676 -0.14356707 0.32741344 -0.34713933 0.5812618 -0.12499692 -0.023979375 0.4331796 0.06847909 0.69916695 0.00016942092 -0.4087434 0.6186612 -0.4315284 -0.3975209 0.11786827 0.21868408 0.13457145 -0.2583011 -0.056113984
685 0.11292495 0.6184954 0.14330642 -0.2716215 0.18644764 -0.27699476 0.2054319 0.053906642 0.1948528 -0.42444348 -0.15275678 -0.8352033 -0.16060749 0.52046317 -0.09581133 0.056005448 -0.39271054 0.30703038 -0.8286372 -0.021987662 0.46890023 0.27095404 0.755925 -0.27905086 -0.43903852 -0.6632601 -0.13545926 -0.36485603 0.22925705 -0.5807522 -0.36621144 0.6272757 0.07563973 -0.17925504 -0.0836785 0.34838527 -0.21255016 0.5135934 0.23187114 0.07996169 -0.21892273 0.021271048 -0.10684357 -0.50243133 0.24943201 0.24810413 -0.18849039 -0.20177554 0.52122056
408 0.18948284 0.7068371 -0.13909279 -0.46803328 -0.23655428 -0.33565864 -0.36373383 0.27986374 0.25945005 -0.087266006 0.5258221 0.09675171 0.6136127 0.5520828 -0.45586085 0.13674827 -0.30661684 0.38024545 0.286006 -0.74388707 0.6001668 0.1693807 0.3773308 0.266236 -0.58634716 -0.363855 0.21521294 -0.14080337 -1.0598563 0.0484407 -0.6244121 0.09301768 0.19094642 -0.6096376 -0.1637596 -0.07374901 0.22022194 0.17458005 0.16964628 0.82236725 0.47523504 0.19711761 0.4685673 0.0517998 -0.57311857 0.12417296 0.23035449 -0.12584768 -0.4713393
659 -0.0917397 0.38626906 0.36622015 0.47751012 0.011925117 -0.13850483 -0.23097517 0.052212268 -0.33708942 -0.06361228 0.37093553 -0.46253827 -0.22485305 -0.38575563 -0.2290721 0.01578623 -0.327849 0.08469654 -0.036218103 -0.6583613 0.33685675 0.30390528 -0.22460023 -0.824395 -0.23996165 -0.40333873 1.0151615 -0.5891416 -0.3931536 -0.22704269 -0.11204373 -0.05544478 0.157337 -0.0014653015 -0.5802692 0.642043 0.55374753 0.5135882 0.24130663 0.41634873 -0.22129793 -0.4160115 0.071677096 -0.52223146 -0.4080134 0.38767985 0.32497406 -0.37370032 0.14076044
312 0.30544254 0.04072166 0.18168673 -0.06679709 0.7752545 -0.7132538 -0.4186072 0.7893081 -0.09252804 0.25892594 -0.60652655 -0.4267901 -0.63446116 -0.026885487 -0.088178895 0.31932735 -0.29726067 0.1569356 0.28550917 -0.36345974 0.90471655 -0.059477594 0.717292 0.20275411 -0.5821893 -0.30110133 -0.21760744 -0.80567914 0.1281971 -0.09442049 0.0760179 -0.19171052 0.4044589 0.045937974 -0.3199176 -0.1173151 0.51592445 0.47846025 -0.2143069 0.25763676 -0.2214645 0.08289692 -0.11114023 0.36636627 -0.26949742 -0.0874218 0.24071665 -0.452211 0.30230677
613 0.32639608 0.8308622 -0.38005462 0.29475433 0.6043022 -0.03286935 -0.66109395 -0.25621918 -0.6303725 -0.29025528 0.71563804 -0.12508182 -0.16535918 -0.0038732933 -0.117393956 -0.30292434 -0.49717674 0.32408267 -0.03534285 -0.20048413 0.28604937 -0.10407345 -0.011259192 -0.39675534 -0.50401056 -1.0358747 0.5183573 -0.15243818 -0.5029589 0.3293346 0.03712422 -0.12947287 0.23397955 -0.12043433 -0.411091 0.36756426 0.47387838 -0.1387707 0.040893752 0.72761214 -0.26120228 -0.42334914 -0.032431424 0.14009662 -0.026392104 0.5681445 0.5534069 0.20405644 0.0035749262
30 0.2675683 -0.110917635 0.3023213 -0.286312 -0.07975904 0.24350081 -0.07048258 0.17136608 -0.6683482 -0.30813274 0.3862311 -0.07284824 -0.7622471 0.8299659 -0.4414676 0.6992362 -0.25769895 0.5351923 -0.41024196 -0.7142707 0.66486764 -0.3738249 0.5767974 -0.14283507 -0.34551942 -0.06169168 0.064601064 -0.33726954 0.14023757 0.848644 -0.5695537 -0.2910906 -0.331374 0.037757132 0.43498063 -0.18046549 -0.0059352433 0.4523256 0.6056404 0.5585623 -0.8227403 0.06470375 0.10920149 0.3539398 0.53931904 -0.012172485 0.2535928 0.009366102 -0.14768139
509 0.20940183 -0.19938743 0.15328184 -0.18838476 0.12813133 0.06534073 0.024670327 0.73921907 -0.14563833 -0.58814013 1.0003847 0.35745937 -0.23262468 0.46522498 0.3902881 -0.2459412 -0.3196612 0.17253405 -0.55271506 -0.218715 0.5143355 -0.19816144 -0.21541671 -0.07796921 -0.16213916 -0.52900034 -0.24435833 0.0003708389 0.592727 0.18046503 0.16447586 -0.29490945 0.30365592 -0.1299495 -0.7404993 0.6648809 -0.15318356 0.25474998 -0.17113683 0.44667652 -0.033236388 0.7029428 0.44246182 0.21823084 0.10769519 0.1860026 -0.054373775 -0.73292637 -0.0365227
751 0.09396081 0.065943435 -0.5755474 0.3310861 0.17307173 -0.16007368 -0.34804204 0.39588535 -0.12129543 0.109418355 0.06797255 -0.26851094 -0.85245335 0.17085552 -0.42383 0.396995 -0.5562958 0.039751973 0.72222835 -0.48080835 0.3805097 0.017094169 0.4842825 0.096738845 -0.14960024 -0.05397177 -0.11782865 -0.4059604 0.2414985 -0.4472812 0.03553951 -0.06694458 0.0523652 0.25199604 -0.33228186 0.16671829 0.23631163 0.0828011 0.2684769 0.12190784 -0.46978995 0.6195043 -0.15143822 -0.14660892 -0.33777857 0.2715044 -0.13027698 -0.3460769 0.032337673
21 -0.17299102 0.48324674 0.50659007 0.51695246 -0.0747233 -0.08588976 -0.19341919 -0.3402287 -0.03336001 -0.12907283 0.95162886 -0.2226376 0.017128889 0.81735134 -0.13638471 0.2180269 -0.030344244 0.6732836 0.13694552 -0.6908402 0.76142305 0.16321318 -0.10186299 -0.27795166 0.15941639 -0.48249316 0.10463979 -0.31716034 -0.30072176 -0.41134843 -0.02070768 0.8518346 -0.027117519 -0.5457914 -0.18029305 0.10623434 0.27070808 -0.62780166 -0.095185004 0.731877 -0.21685842 -0.48691005 -0.046992794 0.014662069 -0.84167457 0.30730438 0.8756439 -0.62603086 -0.25010693
395 0.108670995 0.053269017 0.17920586 -0.23441152 0.11866759 -0.48518515 0.17192332 0.11605978 -0.49173522 0.34309214 0.16102195 0.086127855 -0.47382563 0.622201 0.48200658 -0.28694338 -0.41625488 -0.77521145 0.03708402 -0.5578596 0.44360775 0.61281705 0.5837188 -0.34178045 0.34519714 0.31311196 -0.26249588 -1.0703654 -0.062138382 -0.021336349 0.14186175 -0.36665583 0.03772964 0.27229285 -0.5017543 0.3463454 0.5323493 0.5654573 0.1626415 0.24011347 -0.2784064 0.05855817 0.4875299 0.23714024 0.032664683 0.3834863 0.25783935 -0.30912507 -0.24169455
338 -0.066344604 0.025291538 0.34274462 -0.38434547 -0.11502783 -0.5750241 -0.044672795 0.20416099 -0.11961685 -0.27580187 0.57639986 0.18753083 -0.4651548 0.8145423 0.85402924 -0.14225641 -0.52282506 -0.8175065 -0.11359879 -0.4449847 0.54943717 -0.16400516 -0.27748346 0.13230848 -0.80410796 -0.40720165 -0.1526792 -0.51806897 0.6060551 0.025830332 -0.09747299 -0.82542855 -0.06908333 0.8563168 -0.5669731 0.4450387 -0.2661043 0.018379834 -0.6427607 1.0069902 0.08779456 -0.06052062 -0.027001366 0.010716271 -0.3277006 -0.08913444 0.47069994 -0.6882757 -0.46248886
520 0.65388006 0.91631365 0.085967205 -0.3493651 -0.7174905 -0.30234027 -0.5220723 0.8222498 -0.3460565 -0.16174388 -0.10764185 -0.36730978 0.15814735 0.5783666 0.62946385 0.511956 -0.055634473 0.12674662 0.4982362 -0.33075273 0.2899119 0.06499198 0.09767923 -0.36723366 -0.48809052 -0.46126887 0.43131128 0.02123587 -0.5100017 -0.16121009 0.31106228 0.1386164 -0.37855807 -0.7537234 -0.28914237 0.35943586 -0.28147224 0.36889228 0.48570067 0.19982281 -0.452213 0.048815515 -0.8255561 -0.72029924 0.008399301 0.107395016 0.63711596 -0.41056788 0.07045345
414 -0.22152689 -0.07253561 -0.1570549 0.10385332 -0.22459242 -0.20641853 -0.6819654 0.6691427 -0.15130448 0.30819246 0.11497837 0.39764535 -0.4865783 0.2281748 -0.095612496 0.18885528 0.09690763 0.43758264 0.0018855431 -0.05237284 0.7912088 0.11351646 0.44072598 0.18018924 -0.010856815 0.012559136 0.6103061 -0.7520247 -0.23407991 -0.34278437 0.19800857 0.23494564 0.39401335 0.2038582 -0.21812773 0.107291214 -0.13134815 0.33757734 0.40016535 0.7718036 -0.13754323 -0.12734869 0.5544406 0.43067405 0.25467062 0.11272679 0.22494401 -0.20043394 0.91782176
913 0.07128394 0.42848486 0.5711463 0.58134496 -0.19123325 0.14810961 -0.27682948 -0.07644688 -0.39054596 -0.46909896 0.38331395 -0.42835903 -0.08665499 0.19010776 -0.25800905 -0.13258813 -0.30418518 0.51755774 -0.40503553 -0.44915366 0.3461387 0.41046405 0.011166077 -0.5237489 -0.21433824 -0.29926303 0.94986135 -0.6673102 -0.17235611 -0.27788705 -0.13768318 0.077392094 -0.06567209 0.0022737773 -0.42029494 0.5660769 0.26955476 0.5306481 0.31724912 0.17487091 -0.3967845 -0.60722065 0.05777235 -0.70390457 -0.48736808 0.32665825 0.027617514 -0.46092865 0.375207
